  -2.4671503901481628e-01  -4.4134971499443054e-01  -1.3154782354831696e-01  -3.0450817942619324e-01  -3.4121549129486084e-01   1.2257888168096542e-01  -3.0326780676841736e-01  -2.1608898043632507e-01  -8.0784998834133148e-02  -1.2042492628097534e-01  -1.3599915802478790e-01   9.6682131290435791e-02  -7.5173683464527130e-02  -4.1677066683769226e-01  -1.3188764452934265e-01  -7.3514677584171295e-02  -1.4250361919403076e-01  -2.6240137219429016e-01   4.5491423457860947e-02   6.0449358075857162e-02   1.9180749356746674e-01   1.9248387217521667e-01   2.8657624125480652e-01   4.6897488832473755e-01   7.4533514678478241e-02   4.0543791651725769e-01   2.5176364183425903e-01  -1.0770848393440247e-01   1.1837363988161087e-01   1.0507270693778992e-02   2.1623019874095917e-01   5.7996445894241333e-01   1.5744696557521820e-01  -4.5751716941595078e-02  -8.7419636547565460e-02   4.9857180565595627e-02  -1.7910736799240112e-01   7.3077748529613018e-03   2.8002651408314705e-02   1.0343522578477859e-01  -5.7104325294494629e-01   1.7867483198642731e-01  -3.4452348947525024e-02   3.6202681064605713e-01   1.7710721492767334e-01  -5.1484890282154083e-02  -3.3733588457107544e-01  -4.2495727539062500e-01  -4.0910512208938599e-01  -4.6426388621330261e-01  -2.0819754898548126e-01  -2.7897751331329346e-01  -7.0757701992988586e-02  -1.3779219985008240e-01   3.4301985055208206e-02   2.1810257807374001e-02  -2.3170149326324463e-01  -1.3291157782077789e-01  -8.5362493991851807e-02  -1.6881626099348068e-02  -1.9275809824466705e-01  -3.9517205953598022e-01  -2.8204169869422913e-01  -9.6025429666042328e-02  -3.0850690603256226e-01  -2.3744416236877441e-01  -1.3395464420318604e-01   9.0545162558555603e-02  -2.2504331171512604e-01  -1.1962599307298660e-01  -1.3367608189582825e-01  -2.1844999492168427e-01   2.1062852814793587e-02   2.0511336624622345e-01   1.3273881375789642e-01  -9.6710026264190674e-02  -3.3960926532745361e-01  -5.3593188524246216e-02   3.8979846239089966e-01  -1.2221715599298477e-01   1.8504408001899719e-01   2.1247451007366180e-01   3.2399696111679077e-01   5.1077818870544434e-01   5.3883469104766846e-01  -1.0881959646940231e-01   3.9351820945739746e-01   2.0990347862243652e-01   1.7100539803504944e-01   3.7722307443618774e-01  -1.0033845156431198e-01   3.5829037427902222e-01   2.7820280194282532e-01   3.1788742542266846e-01   1.5189005434513092e-01   3.7495991587638855e-01  -1.1762442998588085e-02   2.5595504045486450e-01   2.6674452424049377e-01  -1.6622863709926605e-01  -1.4822241663932800e-01  -1.3030907511711121e-01  -1.1250478029251099e-01  -2.4219162762165070e-01  -1.1701067537069321e-01   1.0471551679074764e-02  -1.9364984333515167e-01  -3.6869969218969345e-02  -3.1227549910545349e-01   1.8838913738727570e-01   2.3837821185588837e-01  -1.5079489350318909e-01   9.6400141716003418e-02  -5.5115152150392532e-02  -6.3353560864925385e-02   6.1798881739377975e-02  -2.5549106299877167e-02   2.6196631789207458e-01  -5.5790513753890991e-01  -2.7048927545547485e-01  -1.5195511281490326e-01   1.3520424067974091e-01  -5.9473045170307159e-02  -7.3777981102466583e-02  -7.9869672656059265e-02  -7.9438820481300354e-02  -3.9296415448188782e-01   1.5689268708229065e-01   2.5009801983833313e-01  -1.5798021852970123e-01   6.1580207198858261e-02  -3.6134472489356995e-01  -9.0427443385124207e-02  -8.9646661654114723e-03  -9.9030576646327972e-02   1.2480579316616058e-01   5.0822768360376358e-02   2.4859119951725006e-01   1.8951897323131561e-01  -1.5538407862186432e-01  -2.1764822304248810e-02   1.7734634876251221e-01   8.2361251115798950e-02  -5.1600094884634018e-02  -1.5161682665348053e-01  -1.0207307338714600e-01  -1.4739710092544556e-01  -2.7209438383579254e-02   1.3334122300148010e-01  -7.0090033113956451e-02  -6.5832011401653290e-02   1.0131867229938507e-01  -2.4275241419672966e-02  -1.6399885714054108e-01  -6.6227577626705170e-03   2.1136201918125153e-01   2.7227835729718208e-02  -2.9511329531669617e-01   7.0909187197685242e-02  -5.9988824650645256e-03   1.2712762691080570e-02   1.3455468416213989e-01   9.8794877529144287e-02   4.3978281319141388e-02   1.3230267167091370e-01   1.6216575750149786e-04  -7.8637950122356415e-02  -1.5519094467163086e-01   2.4192644283175468e-02  -3.8700308650732040e-03  -3.9910529740154743e-03  -5.6030049920082092e-02  -7.9713560640811920e-02   3.8938228972256184e-03  -5.6482449173927307e-02  -2.5912883877754211e-01   1.8862760066986084e-01  -1.8978713452816010e-01  -2.1690154075622559e-01   8.9089162647724152e-02  -1.1579957604408264e-01   1.9223126769065857e-01  -3.8145892322063446e-02  -1.2932719290256500e-01  -3.4719970426522195e-04  -2.7806648984551430e-02   1.3087008893489838e-01  -1.0353899002075195e-01   7.9972766339778900e-02   2.7393564581871033e-01   2.4570463597774506e-01  -5.6572631001472473e-02   2.1300786733627319e-01   3.0907735228538513e-01   1.8831096589565277e-01  -2.2404905408620834e-02   7.7056333422660828e-02  -3.2790537923574448e-02  -7.4143871665000916e-02   4.7253310680389404e-02  -1.3049253821372986e-01  -1.9576857984066010e-01  -1.0876357555389404e-01  -1.8944767117500305e-01  -6.9966286420822144e-02  -3.2807624340057373e-01  -1.7300552129745483e-01   3.0092334747314453e-01  -2.5035485625267029e-01   2.0494504272937775e-01  -6.6282756626605988e-02  -1.1590117216110229e-01  -1.6663353145122528e-01  -8.3091959357261658e-02   9.7848527133464813e-02   9.6405692398548126e-02  -2.3906365036964417e-01  -1.7799572646617889e-01   2.9969353228807449e-02  -5.0780248641967773e-01  -1.6467879712581635e-01   1.7144236713647842e-02  -3.0373010784387589e-02  -1.4043451845645905e-01   2.1346974372863770e-01   6.4161256887018681e-03   1.7072473466396332e-01   4.0315076708793640e-01   1.4798825979232788e-01  -1.7097212374210358e-01  -2.9341849684715271e-01   1.2790305912494659e-01   2.9189693927764893e-01   1.3480834662914276e-01  -1.3134226202964783e-02  -4.5182436704635620e-02  -2.1291036158800125e-02  -1.1517535895109177e-01   3.8007053732872009e-01  -3.3926267176866531e-02  -5.7009965181350708e-02   8.3036869764328003e-03   5.0749811343848705e-03  -2.4397233501076698e-02  -3.0456820130348206e-01  -2.1329091489315033e-01  -3.8836900144815445e-02   5.2730834484100342e-01   1.1691178381443024e-01  -1.2659291923046112e-01  -7.2192706167697906e-02  -9.1037884354591370e-02  -4.6092690899968147e-04  -9.4752289354801178e-02   2.5554988533258438e-02   1.4093524217605591e-01  -3.6866721510887146e-01   9.0734727680683136e-02  -1.3133472204208374e-01   2.0338439941406250e-01  -3.1603120267391205e-02  -1.6331668198108673e-01  -3.8706177473068237e-01  -5.1780991256237030e-02  -2.0701374113559723e-01   4.2992323637008667e-01   4.9744173884391785e-02  -1.3778559863567352e-01   1.7379017546772957e-02   1.5542404353618622e-01  -2.5657060742378235e-01   1.7642505466938019e-02  -8.0844700336456299e-02  -9.7270518541336060e-02  -2.7924907207489014e-01   6.0706142336130142e-02  -1.1472649202914909e-04   1.7244459688663483e-01  -7.6522067189216614e-02  -1.4917375147342682e-01  -3.3213841915130615e-01   1.2683103978633881e-01  -4.5626652427017689e-03  -1.5498100221157074e-01  -2.9038185253739357e-02   3.2427672296762466e-02   1.6346731781959534e-01   1.1156690120697021e-01   8.5747368633747101e-02   1.7992849647998810e-01   1.0100562870502472e-01   1.4144913852214813e-01  -4.8756507039070129e-01  -2.7264502644538879e-01   4.3859384953975677e-02  -3.6189243197441101e-01  -1.6507335007190704e-01   1.9621703028678894e-01   5.8403044939041138e-02  -4.8362296074628830e-02   9.3675889074802399e-02   1.8059497699141502e-02  -3.9390027523040771e-02   2.0830297842621803e-02  -4.4480938464403152e-02  -1.5472076833248138e-01   1.2842589616775513e-01   3.3466780185699463e-01   9.3911238014698029e-02   1.0968414694070816e-01  -1.5548872947692871e-01  -9.2796251177787781e-02   9.1408558189868927e-02  -2.0801559090614319e-02  -1.0479297488927841e-01   5.8525264263153076e-02   3.5977430641651154e-02  -5.3507160395383835e-02  -5.6635424494743347e-02   4.3857893347740173e-01  -8.8651366531848907e-02  -1.2185589224100113e-01  -1.5510047972202301e-01   1.9547451287508011e-02  -1.9425706565380096e-01  -3.5709545016288757e-01  -1.1623837798833847e-01   7.1204535663127899e-02   1.1404527723789215e-01   1.4649190008640289e-01  -1.7085120081901550e-01   5.0906427204608917e-02  -1.6384834051132202e-01  -1.9217565655708313e-01  -3.3291840553283691e-01  -3.1052142381668091e-01   1.6979914903640747e-01   9.0769010782241821e-01   2.1664018929004669e-01  -9.8035477101802826e-02  -2.9122215509414673e-01  -3.0226822942495346e-02  -7.9742781817913055e-02  -1.4516601338982582e-02  -2.3151759058237076e-02  -7.9629540443420410e-02  -6.6309869289398193e-03   9.6281222999095917e-02   4.5790928415954113e-03   6.2048792839050293e-02  -1.1645017564296722e-01  -4.7760982066392899e-02  -8.1250898540019989e-02   1.2297049909830093e-01  -2.6704677939414978e-01  -3.6479714512825012e-01  -1.2377973645925522e-01   6.8150237202644348e-02   2.4379600584506989e-01   9.3343205749988556e-02  -2.5936344265937805e-01  -2.3116564750671387e-01  -1.2174996733665466e-01  -4.9431961774826050e-01  -1.6002382338047028e-01  -6.3211396336555481e-02   1.5991650521755219e-01   2.4515444040298462e-01   1.9436757266521454e-01   8.2952804863452911e-02   2.1487013995647430e-01   7.0252582430839539e-02  -2.7218091487884521e-01  -5.6109285354614258e-01  -6.4178854227066040e-02   7.6497934758663177e-02  -3.5497040953487158e-03  -5.1322318613529205e-02   2.6986247301101685e-01  -1.3624383509159088e-01   6.6190962679684162e-03   1.9090935587882996e-01   1.6789957880973816e-01  -5.7861502282321453e-03  -7.7039157040417194e-03  -2.5016365572810173e-02   2.2747982293367386e-02  -1.4446501433849335e-01   2.2952093183994293e-01  -1.0362862050533295e-01   3.3651333302259445e-02   4.9413800239562988e-01  -6.8085022270679474e-02  -1.3394618034362793e-01  -5.8258298784494400e-02  -1.2755885720252991e-01   1.1831672862172127e-02  -2.2143051028251648e-01  -9.3796908855438232e-02   1.0672935098409653e-01   6.2652266025543213e-01   1.6794140636920929e-01   2.4868042767047882e-01  -7.0242352783679962e-02   7.2580628097057343e-02   2.9385274276137352e-02   1.6769231855869293e-01   5.7713948190212250e-02   2.0110990107059479e-01   3.0836656689643860e-01   3.4963823854923248e-02   2.6659993454813957e-02   3.6550161894410849e-03  -4.0173746645450592e-02  -1.9363914430141449e-01  -1.9729526340961456e-01  -9.7249537706375122e-02   1.8072947859764099e-01   3.1886404752731323e-01   4.5856159180402756e-02  -1.3425487279891968e-01   1.5785494446754456e-01  -3.7599079310894012e-02   1.0979049839079380e-02   7.8088484704494476e-02   1.3894820213317871e-01  -2.6837065815925598e-02  -3.0051905661821365e-02  -1.0745357722043991e-01   1.7487199604511261e-01   9.2479974031448364e-02   4.7317504882812500e-02  -1.1113329231739044e-01  -2.1920044720172882e-01   8.0919183790683746e-02  -2.2023169696331024e-01   7.7407114207744598e-02   8.9205026626586914e-02  -1.0811587423086166e-01   2.2104158997535706e-01  -1.1314149945974350e-02  -4.6858508139848709e-02   2.8873270750045776e-01  -2.1876387298107147e-01   1.8393324688076973e-02   9.8042565584182739e-01  -2.7087701484560966e-02  -1.9641447812318802e-02  -2.1744759380817413e-01   1.3175093336030841e-03  -2.0345339551568031e-02  -1.3492219150066376e-01   5.0909694284200668e-02  -3.0497804284095764e-02   1.4079701900482178e-01   1.3021522760391235e-01  -3.3710155636072159e-02   1.5805929899215698e-01  -1.9265158474445343e-01   1.1014416068792343e-01   1.8472579121589661e-01   9.9335283041000366e-02   4.6661812812089920e-02   4.8221800476312637e-02  -4.6675924211740494e-02  -4.7220818698406219e-02   8.3282463252544403e-02   6.8414770066738129e-02  -4.3350134044885635e-02   6.1483070254325867e-02  -7.2192442603409290e-03  -3.0748421326279640e-02   5.4080042988061905e-02  -2.7202808856964111e-01   9.6081919968128204e-02   8.7235257029533386e-02   4.4502489268779755e-02  -1.8462280929088593e-01  -3.9500996470451355e-02   1.3769480586051941e-01  -2.9817971587181091e-01  -2.8805872797966003e-01   2.0654532313346863e-01   1.2802359461784363e-01   2.6130223274230957e-01   9.4986870884895325e-02   1.7855426995083690e-03  -2.1380175650119781e-01   7.7683560550212860e-02  -4.8513438552618027e-02   2.2343736886978149e-01   1.4203429222106934e-01   7.8418612480163574e-02  -2.6841554790735245e-03   4.9519300460815430e-02  -2.0823864638805389e-01   3.8978084921836853e-01  -1.0553590953350067e-01  -1.1011847108602524e-01   4.5816847681999207e-01  -1.1834171414375305e-01   4.3477974832057953e-02  -1.7692828178405762e-01   1.2304286658763885e-01   1.5390032529830933e-01  -2.5252175331115723e-01  -4.4672597199678421e-02   3.7379485368728638e-01   3.2720053195953369e-01   1.2236875481903553e-02  -7.4852421879768372e-02   5.4739482700824738e-02  -6.2013335525989532e-02   1.8253400921821594e-01   5.1033236086368561e-02  -3.8433652371168137e-02   7.7245742082595825e-02   4.0189668536186218e-02  -4.7115273773670197e-02  -8.7356731295585632e-02  -1.9931527972221375e-01  -1.0483495891094208e-01   1.5956693887710571e-01   2.7452321723103523e-02  -1.1569619178771973e-01   2.2678232192993164e-01   2.4863828718662262e-01  -1.1400561779737473e-01  -1.2172907590866089e-01  -3.9285615086555481e-02  -1.7115221917629242e-01   1.1627335101366043e-02   5.2170746028423309e-02  -2.5550536811351776e-02   5.3970520384609699e-03  -2.2047339379787445e-01  -1.8747222423553467e-01  -2.1951327100396156e-02   2.6883104816079140e-02   6.7396312952041626e-02  -1.8473593890666962e-01  -2.6453271508216858e-01  -8.2924030721187592e-03   1.4200295507907867e-01   2.1817481517791748e-01  -9.7182229161262512e-02  -1.1482561379671097e-01  -9.2885829508304596e-02  -1.9636057317256927e-01   2.0794080046471208e-04   5.1126830279827118e-02  -4.6059370040893555e-02  -8.9890576899051666e-02  -2.3442970216274261e-01   1.1014094948768616e-01  -2.1923622116446495e-02   3.5803171992301941e-01   1.2343953549861908e-01   1.1835984885692596e-01   1.6804695129394531e-02   8.0264233052730560e-02   3.3532202243804932e-01   2.6533162593841553e-01   3.9291697740554810e-01   2.9012415558099747e-02   1.7296007275581360e-01  -1.8065178394317627e-01   3.1563203781843185e-02   1.8136462196707726e-02   1.0038506239652634e-01  -1.9017674028873444e-01  -3.2338831573724747e-02  -4.7162586450576782e-01   1.2252123095095158e-02  -2.2089438140392303e-01   1.4032769203186035e-01   4.9063789844512939e-01   5.1691693067550659e-01   5.4490387439727783e-01   1.6599392890930176e-01   3.2642665505409241e-01   4.4280534982681274e-01   4.6274560689926147e-01   7.4584436416625977e-01   5.0208401679992676e-01  -5.1681488752365112e-02   3.0286464840173721e-02   2.1358740329742432e-01   2.0787341892719269e-01   3.9377346634864807e-01   3.1811252236366272e-01   1.2894470989704132e-01   2.1391414105892181e-01   2.9416985809803009e-02  -1.0545649379491806e-01  -2.5377321243286133e-01  -1.0050532966852188e-01  -1.3020618259906769e-01  -1.9886160269379616e-02  -1.0951271653175354e-01  -9.5466002821922302e-03  -2.2487448155879974e-01   1.2383473105728626e-02  -1.6105102002620697e-01  -1.5559421479701996e-01   1.6087740659713745e-01  -6.4268440008163452e-02  -3.1079691648483276e-01  -1.3038876652717590e-01   3.0413709580898285e-02   2.4864977598190308e-01   1.3389591872692108e-01   1.8622641265392303e-01   1.5879377722740173e-01  -2.0625866949558258e-01   2.5914800167083740e-01  -6.0603290796279907e-02   1.5281388163566589e-01   1.7381773795932531e-03  -2.1605084836483002e-01  -5.2091203629970551e-02  -8.2773566246032715e-02  -5.4132230579853058e-02  -8.2163192331790924e-02  -3.9327766746282578e-02  -3.4964289516210556e-02  -9.1996833682060242e-02  -6.8152047693729401e-02  -1.0047800838947296e-01  -7.6247327029705048e-02   2.4648229777812958e-01   1.3284187018871307e-01  -1.9865689799189568e-02   1.6270489990711212e-01   1.0130356997251511e-01   2.6490262150764465e-01   5.1675904542207718e-02   1.2369854003190994e-01   1.0204038769006729e-01  -1.4170669019222260e-01  -2.1097356453537941e-02  -1.5157382190227509e-01  -1.7563302814960480e-01  -7.0094949007034302e-01  -4.5190986990928650e-01  -1.1059494316577911e-01  -8.2489527761936188e-02  -1.3272586464881897e-01   1.9685858488082886e-01  -3.2348394393920898e-02   1.4667086303234100e-01   4.5444700866937637e-02   2.6065582036972046e-01   3.8217985630035400e-01  -1.6609521210193634e-01  -9.1527484357357025e-02   1.1952061951160431e-01   5.5720422416925430e-02  -2.5704858824610710e-02   1.5638038516044617e-01   4.4854603707790375e-02  -1.3813762366771698e-01   1.8346789479255676e-01   4.1455447673797607e-02   9.4873294234275818e-02   1.2814623117446899e-01  -1.4531481266021729e-01   6.6646737977862358e-03  -1.0638026893138885e-01   2.2827260196208954e-01  -1.4088194072246552e-01   8.4364838898181915e-02   2.7387661393731833e-03   4.9281585961580276e-02   3.1118445098400116e-02   5.0277236849069595e-02  -6.8512715399265289e-02   3.3560205250978470e-02  -1.3789017498493195e-01  -6.5884411334991455e-01   3.1765345484018326e-02  -5.9507630765438080e-02   5.3087316453456879e-02   7.3831133544445038e-02  -9.0120717883110046e-02  -1.5783777832984924e-01  -4.8362899571657181e-02   1.7914522439241409e-02  -1.9220536947250366e-01   1.2570148706436157e-01   7.5973227620124817e-02  -6.9921232759952545e-02   5.4369799792766571e-02  -7.3113188147544861e-02  -6.0917899012565613e-02  -1.1676584929227829e-01  -2.1849909424781799e-01  -1.5091937780380249e-01  -7.2502210736274719e-02  -1.6225108504295349e-01  -9.1117009520530701e-02  -1.8620526790618896e-01   4.1913524270057678e-02  -2.0483961328864098e-02   7.4366484768688679e-03  -1.7072539031505585e-01  -1.3084052503108978e-01   1.3231074810028076e-01  -1.5180951356887817e-01  -4.0229968726634979e-02   1.5507782995700836e-01  -8.6778745055198669e-02  -1.8799720704555511e-01   4.7517962753772736e-02  -2.4381469190120697e-01   2.9984012246131897e-01  -8.5124306380748749e-02  -2.0601645112037659e-02  -1.6284292936325073e-01  -1.9186447560787201e-01   4.0672537684440613e-01  -8.3451181650161743e-02   1.6036796569824219e-01   2.1325300633907318e-01  -2.2048686444759369e-01   3.6462858319282532e-02   5.0659790635108948e-02  -2.0303493365645409e-02   1.3267408311367035e-01  -7.5411774218082428e-02   6.5843472257256508e-03   1.1109422892332077e-02   1.6386532783508301e-01  -3.2306250929832458e-01  -3.3117711544036865e-02   1.0096093267202377e-01   5.3338553756475449e-02   1.1356382071971893e-01   7.0134237408638000e-02   4.1091244667768478e-02   1.3365410268306732e-01   2.0001721382141113e-01   1.1497338116168976e-01   6.6461791284382343e-03   1.2167137116193771e-01   1.2297823280096054e-01   6.0946654528379440e-02   2.6068076491355896e-02  -3.7555612623691559e-02  -2.2003436461091042e-02   7.7203541994094849e-02   5.9528559446334839e-02   2.0951490104198456e-01   1.2226521968841553e-01  -5.6729540228843689e-02  -5.6447152048349380e-02  -1.3866485655307770e-01  -3.1547546386718750e-01  -1.0310885310173035e-01   4.1123613715171814e-02  -4.9188378453254700e-01   2.8012534976005554e-01  -3.6848172545433044e-02  -1.7796275019645691e-01  -1.7330524325370789e-01  -7.7209863811731339e-03  -1.3523858785629272e-01   2.8468066453933716e-01   3.1751549243927002e-01   3.5857310891151428e-01  -1.5376330120489001e-03   3.3499173820018768e-02   1.1580805480480194e-01   7.6826140284538269e-02  -9.7561138682067394e-04  -1.6215944290161133e-01  -1.8971529603004456e-01   1.0959082096815109e-01  -5.5301898717880249e-01   9.3303015455603600e-04  -1.4007306890562177e-04   1.7539498209953308e-01   1.0427449643611908e-01  -6.3647538423538208e-02  -1.1116322875022888e-01   1.0612367093563080e-01  -1.0375522077083588e-01   1.9572629034519196e-01   2.8880849480628967e-01  -7.8756203874945641e-03  -9.6112741157412529e-03  -9.4696797430515289e-02  -2.4052258580923080e-02  -3.0004480853676796e-02   1.8870630860328674e-01   2.4759484827518463e-01  -1.3488739728927612e-01   2.4350199103355408e-01   6.9628104567527771e-02   2.5530809164047241e-01   2.1601782739162445e-01   4.2727533727884293e-02   6.2497695907950401e-03  -2.0128768682479858e-01  -1.4168481528759003e-01  -1.7545457929372787e-02  -1.2415051460266113e-01  -1.5323087573051453e-01  -1.7288702726364136e-01   4.3489798903465271e-02  -5.1856610924005508e-02  -4.5339711010456085e-02  -1.1699789762496948e-01   4.4779445976018906e-02  -1.1708175390958786e-01   4.5824155211448669e-02  -1.0661423206329346e-01   2.3432615399360657e-01   5.6230150163173676e-02   1.1835370957851410e-01  -9.8210342228412628e-02   1.3992761075496674e-01   1.2909261882305145e-01   5.7531440258026123e-01   2.6242051273584366e-02  -5.2664723247289658e-02  -7.5414618477225304e-03   1.5383765101432800e-02  -1.4662128686904907e-01  -3.0822452157735825e-02   1.4694987796247005e-02  -1.0970009118318558e-01  -5.0688266754150391e-01   5.9494268149137497e-02   3.1568536162376404e-01  -1.3632528483867645e-01  -3.6572651006281376e-03   3.9310421794652939e-02   7.7617913484573364e-02   3.3087052404880524e-02   1.1625919491052628e-01   2.1394963562488556e-01   6.2423158437013626e-02   1.2630392611026764e-01   7.1073114871978760e-02   1.3605477288365364e-02  -4.9052182585000992e-02  -4.3098777532577515e-02   1.4628151059150696e-01   1.1732307821512222e-01  -4.8046540468931198e-02   1.2254049628973007e-01   1.5049572288990021e-01   2.6404386758804321e-01   5.8210868388414383e-02   4.1440040804445744e-03   6.9901980459690094e-02   1.2368451803922653e-01   6.7350655794143677e-02  -9.1340981423854828e-02   1.6367079317569733e-01   1.0396950691938400e-01  -1.5824933350086212e-01  -2.9210373759269714e-02   4.0078997611999512e-01   3.5070914030075073e-01   7.5933113694190979e-02  -7.9119741916656494e-02  -1.8184095621109009e-01   3.5268619656562805e-01   2.3878383636474609e-01   5.2176773548126221e-01  -4.6833876520395279e-02  -6.0905456542968750e-02   3.4642311930656433e-01   5.9275832027196884e-02   5.3485152311623096e-03   2.1232614293694496e-02   7.2497203946113586e-02   2.2707778215408325e-01   4.3936112523078918e-01  -3.3449862152338028e-02  -6.3506782054901123e-02  -5.4853022098541260e-02   3.3317454159259796e-02  -3.3466321229934692e-01  -7.4426785111427307e-02  -3.1234860420227051e-01   4.7442335635423660e-02   1.2196066789329052e-02   1.4213812537491322e-03   5.4853066802024841e-02   2.5141963362693787e-01  -1.1937600374221802e-01   3.5778948664665222e-01  -5.5527234077453613e-01   5.5993109941482544e-01  -1.3392009772360325e-02  -1.0064658522605896e-01  -2.8265967965126038e-02  -4.6957027912139893e-01  -1.2413907051086426e-01  -2.1141992509365082e-01   2.0619437098503113e-01  -8.8410580158233643e-01   1.3171568512916565e-01   9.3288831412792206e-02  -1.5425364673137665e-01  -1.1002808064222336e-01  -4.8940204083919525e-02  -3.2068994641304016e-01  -5.4633155465126038e-02  -1.0448706895112991e-01   2.4386987090110779e-01  -2.6780247688293457e-01  -3.3422805368900299e-02  -8.9749563485383987e-03  -1.0786445811390877e-02  -1.5260119736194611e-01   1.8171031773090363e-01  -1.6199615492951125e-04  -1.4772400259971619e-01  -5.6842488050460815e-01  -3.6462940275669098e-02   7.9768382012844086e-02  -6.2778428196907043e-02  -4.4431291520595551e-02  -1.8771620094776154e-01  -2.5465719401836395e-02  -9.8561264574527740e-02  -9.9754974246025085e-02  -1.1873697803821415e-04   5.4229505360126495e-02  -8.5371322929859161e-03   3.3967795968055725e-01  -1.8514651805162430e-02   1.4454126358032227e-01  -2.4320288002490997e-01  -7.5447545386850834e-03   1.0396340489387512e-01  -9.8754413425922394e-02  -1.0921175032854080e-01  -2.6280362159013748e-02  -3.7819564342498779e-01   3.8265306502580643e-02  -9.4228371977806091e-02   3.1298935413360596e-02  -4.7332908958196640e-02  -2.1769684553146362e-01  -1.5475212037563324e-01  -3.8270812481641769e-02  -1.5501214563846588e-01  -7.4122466146945953e-02  -1.8443241715431213e-02   1.3119253329932690e-02   5.7363811880350113e-02  -1.7944902181625366e-02  -9.4210162758827209e-02  -2.5392127037048340e-01  -5.2415326237678528e-02   2.9667617753148079e-02  -8.0529756844043732e-02   9.8062641918659210e-03   3.5601217299699783e-02   4.7398041933774948e-02  -2.7208492159843445e-02  -4.7345880419015884e-02   3.0746909976005554e-01   1.0465152561664581e-01  -1.1180264502763748e-01  -1.3419739902019501e-01  -3.8435146212577820e-02  -1.5960979461669922e-01   1.6823949292302132e-02   1.3856326043605804e-01   1.0174177587032318e-01   2.9500337317585945e-02  -9.0224035084247589e-02  -5.9289265424013138e-02  -1.1866696178913116e-01   4.3402131646871567e-02   7.5581282377243042e-02   1.1448808759450912e-01   2.6787959039211273e-02  -1.3207186758518219e-01  -1.0226693004369736e-01  -1.0267884284257889e-01  -1.3044169545173645e-01  -1.2631418183445930e-02   9.6720136702060699e-02  -7.3765195906162262e-02  -5.6970953941345215e-02   7.4475966393947601e-02   1.1790195852518082e-01  -6.8585097789764404e-02   1.5611817128956318e-02  -5.7849671691656113e-02  -4.3951783329248428e-02   8.9198455214500427e-02  -4.6272738836705685e-03   2.6772825047373772e-02   2.0333370566368103e-01   3.6080628633499146e-02   3.1695488095283508e-01  -3.6711201071739197e-02   3.2481383532285690e-02   2.3628786206245422e-02  -8.4701009094715118e-02  -5.2112396806478500e-02  -3.8222819566726685e-02   3.6612294614315033e-02  -1.6784792765974998e-02  -3.6401116847991943e-01  -8.9663840830326080e-02  -2.0296990871429443e-01   5.8523509651422501e-02   6.2011849135160446e-02  -1.8720673024654388e-01  -8.8123969733715057e-02  -5.1702857017517090e-02   7.4601911008358002e-02   1.5041753649711609e-01   1.5350104868412018e-01   2.2851636633276939e-02  -1.3490980863571167e-01   1.6991166397929192e-02  -6.0879862867295742e-03  -1.0192746995016932e-03   1.0332994908094406e-01   1.1079519242048264e-01   1.1356361210346222e-01  -3.1263727694749832e-02   1.2385905720293522e-02   8.6237169802188873e-02  -1.9789543002843857e-02   7.8948006033897400e-02   2.6264297962188721e-01  -3.1937576830387115e-02  -1.1260688304901123e-01  -3.1383478641510010e-01   9.7751326858997345e-02   4.9237571656703949e-02  -1.1542621254920959e-01   1.4697089791297913e-01   9.8174370825290680e-02   1.5534712374210358e-01   6.4177051186561584e-02   2.3334069550037384e-01   7.8597611188888550e-01  -1.4040865004062653e-01  -9.4258561730384827e-02   1.5805916488170624e-01  -1.2416889518499374e-01   2.7872374281287193e-02  -6.8874202668666840e-02  -3.4730732440948486e-02   7.0410645566880703e-03  -4.4673446565866470e-02  -8.9719228446483612e-02   4.0369972586631775e-02   2.0369738340377808e-02   1.1373518034815788e-02   1.2273241579532623e-01   9.3883901834487915e-02   4.5634005218744278e-02  -1.3337099552154541e-01  -8.5573069751262665e-02  -7.3689103126525879e-02  -1.0352754965424538e-02   1.1860723048448563e-01   4.3906841427087784e-02  -5.4632522165775299e-02  -4.6237371861934662e-02  -9.2265792191028595e-02   1.8958455324172974e-01   1.2230391055345535e-01   5.1881644874811172e-02  -1.9954200834035873e-02  -5.6428022682666779e-02  -7.6938830316066742e-02   9.0671680867671967e-02   7.7359311282634735e-02  -3.2652474939823151e-02   1.6173849999904633e-01  -2.8613960742950439e-01  -8.1066355109214783e-02   6.5396070480346680e-02  -6.2403868883848190e-02  -1.1655089259147644e-01   4.5238374732434750e-03  -8.3598613739013672e-02  -5.2443496882915497e-02  -2.6130210608243942e-03   4.9402409791946411e-01   1.1117679625749588e-01  -4.0741958655416965e-03   4.2905550450086594e-02  -4.2234279215335846e-02   1.8135260790586472e-02  -3.5122010856866837e-02  -6.7269811406731606e-03   8.1477602943778038e-03  -9.3258634209632874e-02  -3.6784332245588303e-02   1.8357461318373680e-02  -7.7686041593551636e-02   9.4926338642835617e-03  -1.7191223800182343e-02   1.0152526199817657e-02   7.1776174008846283e-02   8.7396331131458282e-02   1.0338764190673828e+00  -1.2157566100358963e-01   9.9530024453997612e-03   7.7819861471652985e-02   1.1961178854107857e-02   2.7373434975743294e-02   8.6218968033790588e-02  -3.4055493772029877e-02  -9.1247826814651489e-02   9.6585094928741455e-02  -4.6891860663890839e-02   3.1260050833225250e-02  -1.2054409086704254e-01  -5.0539273768663406e-02   1.1973806470632553e-01   1.0560213029384613e-01   1.2446521781384945e-02   1.6081388294696808e-01  -6.3566796481609344e-02  -5.2768826484680176e-02   3.1203951686620712e-02  -7.3813442140817642e-03  -5.0802569836378098e-02   5.8712940663099289e-02   6.7332247272133827e-03  -1.7095483839511871e-02  -8.4151764167472720e-04   4.0065366774797440e-02  -2.8715247288346291e-02   5.3763804025948048e-03  -9.9423922598361969e-02  -1.8920886795967817e-03   4.8579256981611252e-02   1.6253003850579262e-02   1.1892529437318444e-03   4.9523767083883286e-02  -2.5980371981859207e-02   1.6065087402239442e-03  -1.4071838930249214e-02   1.6025365330278873e-03  -9.1795854270458221e-02  -5.5463165044784546e-02  -4.3440617620944977e-02  -5.5810220539569855e-02  -2.1538288891315460e-01  -1.6850569844245911e-01   1.8094104528427124e-01  -9.3390950933098793e-03   7.5540304183959961e-02   1.0577102005481720e-01  -8.5593588650226593e-02   3.3872250933200121e-03   2.1483588963747025e-02  -4.1149117052555084e-02  -2.4649947881698608e-02   3.8608647882938385e-02  -6.0187472263351083e-04   4.0912445634603500e-02   5.8197338134050369e-02  -8.7602846324443817e-02  -1.1383435875177383e-01  -1.9554747268557549e-02  -7.6908729970455170e-02   9.5679573714733124e-03   1.9529813900589943e-02  -6.5492787398397923e-03  -3.6081079393625259e-02   4.5262970030307770e-02   1.8706887960433960e-02  -2.0284418016672134e-02   4.5535691082477570e-02  -7.4394666589796543e-03  -1.7072601616382599e-01   4.9897648394107819e-02   3.7269573658704758e-02   9.0166456997394562e-02  -1.0776308365166187e-02   2.0913533866405487e-01   1.0426575690507889e-01  -1.4107837341725826e-02  -1.9460165500640869e-01  -5.7025444507598877e-01  -4.2587408423423767e-01   2.6958376169204712e-01  -3.2694220542907715e-02   6.2236171215772629e-02  -2.0471936091780663e-02   5.3213372826576233e-02  -1.0931260883808136e-01  -9.2217095196247101e-02   6.1319106817245483e-01  -1.5323340892791748e-01   4.1241686791181564e-02  -2.7246264740824699e-02   1.1903109960258007e-02   1.0613276809453964e-01  -3.7810362875461578e-02  -8.2273758947849274e-02  -1.5403766930103302e-01   5.0491786003112793e-01  -1.9325451552867889e-01   2.5341743603348732e-02  -7.1558795869350433e-02   5.1681190729141235e-02  -1.0869156569242477e-01   1.4067320525646210e-01   6.2081243842840195e-02  -1.3162221759557724e-02  -4.2391854524612427e-01   2.5943639874458313e-01   4.5344632118940353e-02   2.8481759130954742e-02   2.8419561684131622e-02  -3.7871137261390686e-02   6.4716845750808716e-02  -1.1036013066768646e-01  -7.0027634501457214e-02   2.0971935242414474e-02   1.4949400722980499e-01  -1.8636974692344666e-01  -1.3401556015014648e-01  -6.2284264713525772e-02   2.2890417277812958e-01   5.0549224019050598e-02  -9.5350272953510284e-02   3.7759691476821899e-02   1.8517903983592987e-01  -7.1698077954351902e-03  -6.3311360776424408e-02  -1.4095740020275116e-01  -3.8115102797746658e-02   5.7042460888624191e-02   2.7434803545475006e-02   6.7163541913032532e-02   5.0195115618407726e-03   8.7882012128829956e-02  -1.3080827891826630e-01  -6.0951061546802521e-02   3.7745237350463867e-02  -6.6752977669239044e-02   6.1441466212272644e-02  -1.7709347605705261e-01  -1.4494362473487854e-01  -4.8302210867404938e-02  -5.1556538790464401e-02  -9.3025512993335724e-02  -3.4635048359632492e-02  -1.7816902697086334e-01  -4.9776725471019745e-02  -1.8656311929225922e-01   1.2365066260099411e-01   9.3335948884487152e-02  -1.0129944421350956e-02  -8.9969307184219360e-02  -6.9093592464923859e-02   9.8602443933486938e-02   2.9935026168823242e-01   5.9046223759651184e-02  -9.2806838452816010e-02  -1.9915226846933365e-02   6.6074103116989136e-02  -8.3174996078014374e-02  -5.7934693992137909e-02   9.4581425189971924e-02  -1.5098094940185547e-02   1.3200855255126953e-01   3.8683064281940460e-02  -1.9758750498294830e-01  -5.1186531782150269e-02  -1.8845029175281525e-02  -1.1842017620801926e-01   1.1573190242052078e-01  -8.2317531108856201e-02  -7.1577481925487518e-02  -1.0202974826097488e-01   4.8721354454755783e-02  -3.2495733350515366e-02  -3.7743884604424238e-03  -1.0231921449303627e-02  -9.8322398960590363e-02  -2.1568369865417480e-01   6.0884784907102585e-02   3.5451803356409073e-02  -1.5409457497298717e-02  -8.2174487411975861e-02
