  -1.0218502022325993e-02  -2.1687828004360199e-01  -5.4532028734683990e-02   1.2129293382167816e-01   1.4033545553684235e-01   1.0465921461582184e-01   8.2960136234760284e-02  -3.0139631032943726e-01  -1.8655562400817871e-01  -7.3519982397556305e-02  -9.7196102142333984e-02  -1.7605744302272797e-01  -4.2955875396728516e-02   1.1308284103870392e-01   1.7930258065462112e-02  -6.6707320511341095e-02  -2.8576284646987915e-01  -3.7173307500779629e-03   7.8350007534027100e-02  -4.2087331414222717e-02  -1.4873117208480835e-01   5.7669733650982380e-03  -4.1843764483928680e-02   7.1159205399453640e-03   1.9910255447030067e-02   1.2285451591014862e-01   3.4467924386262894e-02  -2.8389949351549149e-02   2.0011509954929352e-01   5.1413841545581818e-02   1.6133615374565125e-01  -9.0810641646385193e-02   8.8945515453815460e-02   1.5572856180369854e-02   2.3466923832893372e-01  -7.0823030546307564e-03   2.3316520452499390e-01  -1.1696989089250565e-01  -2.9106000438332558e-02  -1.0703621059656143e-01  -2.4500390887260437e-01   1.3174465857446194e-02   1.3158358633518219e-01  -1.5081748366355896e-01   7.2958543896675110e-02   4.4239036738872528e-02   7.7199764549732208e-02  -9.5527738332748413e-02  -1.3031242787837982e-01  -4.6424083411693573e-02   6.2184657901525497e-02  -4.0817387402057648e-02  -7.8227967023849487e-02  -9.9498987197875977e-02   3.3499024808406830e-02  -1.3153623044490814e-01   8.0694235861301422e-02  -5.1035102456808090e-02   1.6777685284614563e-01  -8.3746217191219330e-02  -5.3555119782686234e-02  -2.5651654601097107e-01   1.9261164590716362e-02  -1.8641512840986252e-02  -2.0551849156618118e-02   3.7502579391002655e-02  -2.7558773756027222e-01  -5.3844022750854492e-01   2.8210785239934921e-02   8.1585310399532318e-03   1.1368663981556892e-02  -1.5237659215927124e-02   7.5495734810829163e-02   1.4542567729949951e-01   1.9215966761112213e-01  -3.6921393126249313e-02   8.6145684123039246e-02   1.9312609732151031e-01  -1.4197354018688202e-01  -1.3242025673389435e-01   1.4909869432449341e-01  -1.0153477638959885e-01   5.2480284124612808e-02  -4.9371879547834396e-02   1.4719210565090179e-01   2.7593979239463806e-01   8.1003695726394653e-02   2.0969386398792267e-01   5.0606343895196915e-02  -3.4579597413539886e-02  -8.2307793200016022e-03  -1.2348663061857224e-01  -4.1927542537450790e-02   1.3636617921292782e-02   2.8788152337074280e-01   1.4020998775959015e-01  -1.0084326379001141e-02  -5.0899688154459000e-02  -3.2042053341865540e-01   1.1055165901780128e-02  -4.3220870196819305e-02   4.6041872352361679e-02   2.1982403472065926e-02   3.4095337986946106e-01   2.4298282340168953e-02  -4.0558815002441406e-02   2.3947660624980927e-01   1.0706605017185211e-01   4.6849336475133896e-02  -3.2327566295862198e-02   2.6401292998343706e-03  -2.6682046055793762e-01  -2.2212061285972595e-01   1.3332381844520569e-01   2.6632454991340637e-01   7.8418612480163574e-02   1.7011735588312149e-02   3.4944206476211548e-02   5.1105603575706482e-02  -1.9329308997839689e-03   1.1936046183109283e-01  -4.4896653294563293e-01   2.9800474643707275e-02   6.0639567673206329e-02   2.5538310408592224e-01  -7.5023464858531952e-02   7.0210315287113190e-02  -2.2205101326107979e-02  -6.0368277132511139e-02  -1.2483698129653931e-01  -4.1775935888290405e-01   5.2534113638103008e-03  -5.4593756794929504e-03  -6.5199725329875946e-02   1.0185314714908600e-01  -4.0036167949438095e-02  -2.5831177830696106e-02   1.1295435950160027e-02   4.0454217791557312e-01  -3.4374594688415527e-01  -1.0534995794296265e-01  -3.7333793938159943e-02   1.0378629667684436e-03  -2.5898244231939316e-02  -1.2489703949540854e-03   4.3119909241795540e-03  -2.9382642358541489e-02  -2.3874463140964508e-01  -1.0754947364330292e-01   2.2939663380384445e-02   7.8878201544284821e-02   2.7644712477922440e-02   9.8805174231529236e-02  -6.6142402589321136e-02  -4.9038831144571304e-02   4.0910795331001282e-02  -1.0352262854576111e-01  -7.9800438880920410e-01   1.0146468132734299e-01  -3.2959459349513054e-03  -4.0810547769069672e-02  -5.6942249648272991e-03   3.6222159862518311e-02  -8.6845926940441132e-02  -4.9106340855360031e-02  -3.0019646883010864e-01   4.0348181128501892e-01  -2.8934141620993614e-02   4.3073587119579315e-02   5.8582071214914322e-02  -5.6050833314657211e-02   6.5215895883738995e-03   1.8386242911219597e-02  -4.4170557521283627e-03   5.7623613625764847e-02   2.8795161843299866e-01  -1.4436711557209492e-02  -1.6554825007915497e-02  -4.6930201351642609e-02  -5.7950377464294434e-02  -1.7850747331976891e-02  -1.4981956779956818e-01  -8.9830853044986725e-02  -4.1090103983879089e-01   7.1478925645351410e-02   1.0666510462760925e-01  -5.9557732194662094e-02   1.7886312305927277e-01  -4.2412400245666504e-02   1.3123482465744019e-01  -8.1143006682395935e-02  -2.4079026654362679e-02   6.4637184143066406e-02   4.0849587321281433e-01   2.1698480844497681e-01   1.3034486770629883e-01   5.6028086692094803e-02  -1.1518130451440811e-01   8.2700930535793304e-02   2.8419256210327148e-02   3.9930827915668488e-02   1.1641979217529297e-01  -2.6810371875762939e-01  -6.1325248330831528e-02   8.9806489646434784e-02   1.4773945510387421e-01   6.7654070444405079e-03   3.6746498197317123e-02  -8.4229849278926849e-02  -2.8680335730314255e-02  -4.4409174472093582e-02   2.8924921154975891e-01   2.1443448960781097e-02   1.3987061567604542e-02  -8.7936252355575562e-02   3.6664988845586777e-02   4.8681225627660751e-02  -8.6235195398330688e-02   2.0102199167013168e-02  -2.9440203309059143e-01   2.1760664880275726e-01  -6.9171413779258728e-02   2.0377238094806671e-01   1.0567139089107513e-01   8.1896357238292694e-02  -3.3457551617175341e-03  -8.5784748196601868e-02   1.5210813842713833e-02   1.3534154742956161e-02  -3.2202616333961487e-01  -6.8403586745262146e-02  -6.1986580491065979e-02   1.8030864000320435e-01  -3.5313151776790619e-02   9.6179665997624397e-03  -1.5126802027225494e-02   5.8100033551454544e-02   4.0873330086469650e-02   3.1151849031448364e-01  -7.0907644927501678e-02  -5.0346210598945618e-02  -4.4467359781265259e-02   3.0038747936487198e-03  -1.0194739699363708e-01   3.9712257683277130e-02   2.0699009299278259e-02   1.4745824038982391e-01   1.6285283863544464e-01   5.3020589053630829e-02   8.2824826240539551e-02  -2.0628822967410088e-02   3.5628572106361389e-02  -6.7947916686534882e-02   4.2431578040122986e-02  -7.1980401873588562e-02  -2.5421610474586487e-01  -3.6247126758098602e-02   7.1494266390800476e-02  -1.4207869768142700e-02   8.2860914990305901e-03   2.6470128446817398e-02   1.7813928425312042e-02  -6.8035162985324860e-02  -1.7833879217505455e-02  -7.6076708734035492e-02   5.5498266220092773e-01  -5.9025194495916367e-02  -1.5050162374973297e-01  -1.2202221900224686e-01  -1.2826434336602688e-02   1.0655040293931961e-01  -1.1876206845045090e-02   3.3132355660200119e-02  -1.6969235241413116e-01   9.1013036668300629e-02  -4.8574555665254593e-02  -1.1734790354967117e-01   2.6378283277153969e-02  -1.6100006178021431e-02  -2.4749539792537689e-02  -1.5459580346941948e-02  -1.7575349658727646e-02   5.8310996741056442e-02   5.0591880083084106e-01  -2.7510118670761585e-03  -4.6802047640085220e-02  -3.8309749215841293e-02   7.4924672953784466e-03   2.4364769458770752e-02   2.4386912584304810e-01   1.0162618756294250e-01  -3.4184658527374268e-01  -2.3949073255062103e-01  -6.7942127585411072e-02  -6.4953528344631195e-02   8.7995231151580811e-02  -8.6590528488159180e-02   8.6053654551506042e-02  -1.3313859701156616e-01   9.7952857613563538e-02   1.7420366406440735e-01  -2.9033681750297546e-01  -3.1260818243026733e-01   4.8657312989234924e-02   4.4486369937658310e-02  -4.5671287924051285e-02  -3.2806911040097475e-03  -7.0352658629417419e-02   4.1417848318815231e-02   3.4261684864759445e-02   6.9663114845752716e-02  -1.3546970486640930e-01   1.6252116858959198e-01  -3.3297676127403975e-03   9.1193526983261108e-02   6.7877322435379028e-02  -5.9200659394264221e-02   6.0889322310686111e-02  -8.0946750938892365e-02   4.9601295590400696e-01  -1.9003358483314514e-01   1.5118278563022614e-02  -6.2514573335647583e-02  -3.9723854511976242e-02  -4.9365445971488953e-02  -1.1819493770599365e-01  -1.1899887770414352e-01  -5.4634972475469112e-03  -1.8812121450901031e-01   1.8740652501583099e-01  -1.2851432897150517e-02  -3.9204410277307034e-03  -2.8113620355725288e-02   9.0626133605837822e-03  -1.1619822680950165e-01  -5.0344191491603851e-02  -1.0095461457967758e-01   5.6283646821975708e-01   2.6347223669290543e-02  -9.5672026276588440e-02   1.0691237449645996e-01   8.8476417586207390e-03  -1.1912773363292217e-02   8.8291771709918976e-02   1.1658887378871441e-02  -6.0382999479770660e-02   5.5820590257644653e-01   1.1666105687618256e-01  -5.1257561892271042e-02  -1.6825435450300574e-03   1.8591102212667465e-02   1.1331459879875183e-01  -2.4371300637722015e-01   1.1822086572647095e-01   1.1368516832590103e-01   3.8141828030347824e-02   7.4799776077270508e-02   3.8677211850881577e-02   1.1337763816118240e-01  -4.2505697347223759e-03   1.4320577681064606e-01  -2.4658940732479095e-01   8.6082234978675842e-02  -6.6475491039454937e-03  -3.1284499168395996e-01   2.1661175787448883e-01  -1.0477440059185028e-01   3.7893071770668030e-02  -1.5697639901190996e-03  -5.7873845100402832e-02   1.6647039353847504e-01  -9.7803354263305664e-02  -2.9729483649134636e-02  -1.9191391766071320e-01  -1.3830357789993286e-01  -3.4374084323644638e-02   1.2220850214362144e-02  -2.2091841325163841e-02   2.9830919578671455e-02   2.1247850358486176e-01  -3.0428642407059669e-02  -6.5712057054042816e-02   1.8897795677185059e-01   1.3106262485962361e-04  -1.5064032375812531e-01  -1.8218636512756348e-01   6.8094953894615173e-02   3.7922445684671402e-02   1.4371760189533234e-01   4.0589369833469391e-02  -1.6584926843643188e-01   4.8585128784179688e-01   1.8593566492199898e-02  -5.7558737695217133e-02  -8.8664315640926361e-02   3.9305720478296280e-02  -8.9448980987071991e-02  -1.7912794649600983e-01   5.4813481867313385e-02   1.5575511753559113e-01   1.5314225852489471e-01  -2.7688525617122650e-02   6.1585828661918640e-03   5.8121089823544025e-03   8.6450345814228058e-02   1.7249378561973572e-01  -1.9561076164245605e-01  -3.6349737644195557e-01  -1.0755707323551178e-01   7.7773714065551758e-01  -1.4432390034198761e-01  -5.4855994880199432e-02   1.7821645364165306e-02   1.7170117795467377e-01  -2.4486329406499863e-02  -1.2177811935544014e-02  -3.2696489244699478e-02  -3.6565791815519333e-02   2.0428492128849030e-01  -1.8012663349509239e-02  -5.8577775955200195e-02   1.8641315400600433e-01  -9.0997956693172455e-02  -6.6074870526790619e-02   3.2203105092048645e-01  -1.5930885076522827e-01   1.2704227864742279e-01  -8.3790540695190430e-01   5.5925492197275162e-02   9.7197584807872772e-02   5.1615353673696518e-02   1.4491716027259827e-01  -1.5922375023365021e-01   2.4967780336737633e-02   8.0796740949153900e-02  -2.4769949913024902e-01   2.2684045135974884e-02  -5.1940297707915306e-03  -4.3624317646026611e-01   4.5428993180394173e-03   6.7675791680812836e-02  -9.6673712134361267e-02   3.1175992917269468e-03  -6.1005491763353348e-02   3.8092750310897827e-01   8.6290016770362854e-02   1.9221989810466766e-01   8.2538083195686340e-02  -3.0558928847312927e-01  -6.6546611487865448e-02  -7.5745403766632080e-02  -8.2983188331127167e-02  -4.9231562763452530e-02  -3.0749237164855003e-02  -7.0933741331100464e-01   5.7727932929992676e-02  -8.4275998175144196e-02   4.4180884957313538e-02   4.8001818358898163e-02   8.7013319134712219e-02   9.7894646227359772e-02  -1.8287737667560577e-01   2.2169660031795502e-01  -2.2846032679080963e-01   3.8400225341320038e-02   2.6656275987625122e-01  -2.2780404984951019e-01  -6.1809983104467392e-02  -1.2147051282227039e-02   2.8357565402984619e-02  -4.4269818812608719e-02  -2.1792882680892944e-01   7.3991961777210236e-02  -7.5200796127319336e-02  -2.6861467957496643e-01   3.3150756359100342e-01   3.3863689750432968e-02  -5.8379061520099640e-02  -1.9322155416011810e-01   1.2784670293331146e-01  -1.6764797270298004e-01  -2.0012298226356506e-01  -1.8737260252237320e-02  -6.4637012779712677e-02   4.3209630995988846e-02   6.0023672878742218e-02   3.0244057998061180e-02   5.5887553840875626e-02  -1.0311977937817574e-02  -1.8745896220207214e-01   3.5038879513740540e-01   4.5204494148492813e-02  -1.8097236752510071e-01   2.4648573994636536e-01   1.8044283613562584e-02   6.6504754126071930e-02   9.3113943934440613e-02  -4.7944635152816772e-02  -4.1496255993843079e-01  -1.4229190349578857e-01  -8.3492575213313103e-03   1.2283480912446976e-01   6.8732358515262604e-02  -6.7791435867547989e-03   2.2398300468921661e-02  -4.2265720665454865e-02  -1.9720144569873810e-01  -7.3827706277370453e-02   1.0037540778284892e-04  -3.5757294297218323e-01  -1.9138468801975250e-01   1.1952788382768631e-01  -1.1097788065671921e-01  -6.0442198067903519e-02  -6.7124471068382263e-02   1.3161993026733398e-01   1.2128470838069916e-01  -3.0934470891952515e-01   2.8699627146124840e-02   1.1606020852923393e-02  -1.6404125094413757e-01  -1.6226974129676819e-01   2.0241761580109596e-02   1.0398889333009720e-01  -1.1141120642423630e-01  -4.7418542206287384e-02  -2.3555955290794373e-01   2.5696167349815369e-01   8.9990571141242981e-02  -2.5792303681373596e-01  -6.2697812914848328e-02  -1.6580926254391670e-02  -1.6061633825302124e-02   3.0132813379168510e-02   9.6703739836812019e-03   1.5854541957378387e-01  -1.5395230054855347e-01   1.1428089439868927e-01   7.0731893181800842e-02  -1.6829657554626465e-01  -2.4031195789575577e-02  -9.3827329576015472e-02  -2.1256396546959877e-02   1.2821622192859650e-01   1.7049774527549744e-01   1.1852352321147919e-01  -9.8397672176361084e-02  -2.0974969863891602e-01   2.5793740153312683e-01  -2.6251340284943581e-02   1.4273659884929657e-01  -9.2698529362678528e-02   9.7369663417339325e-03   1.0362624190747738e-02  -5.9723876416683197e-02   7.6631113886833191e-02  -1.2694448232650757e-01   8.4468796849250793e-02   6.7113764584064484e-02   1.0136527940630913e-02  -1.6423439607024193e-02  -1.0747881978750229e-01  -4.2467996478080750e-01   1.2120336294174194e-01  -6.1913944780826569e-02  -6.6060207784175873e-02   6.2913998961448669e-02   3.8041535764932632e-02   2.9158630967140198e-01   5.8232028037309647e-02   3.3892583847045898e-01  -3.9370381832122803e-01   2.4345554411411285e-02  -1.1482967063784599e-02  -1.8481877446174622e-01  -8.1313855946063995e-02   1.7909963428974152e-01   1.8121878802776337e-01  -9.2117577791213989e-02   2.7160018682479858e-02  -7.7550643682479858e-01   4.0017879009246826e-01   3.1889665871858597e-02   1.5114484727382660e-01   2.0098353922367096e-01  -4.2431652545928955e-02  -8.3062380552291870e-02  -7.3554709553718567e-02  -1.6610535979270935e-01   5.4802358150482178e-02  -3.9941823482513428e-01   8.6237333714962006e-02   2.2839909791946411e-01   1.4946858584880829e-01   2.8454482555389404e-02  -1.2641696631908417e-01   3.9067842066287994e-02  -9.5553241670131683e-02  -7.8943663835525513e-01  -1.3727261126041412e-01   3.5581115633249283e-02   1.4008823037147522e-01  -4.2006857693195343e-02  -5.5488362908363342e-02  -2.4008239805698395e-01   5.5592313408851624e-02  -1.0467290133237839e-01  -1.7833624780178070e-01   1.2591623701155186e-02   7.0807687938213348e-02  -1.0136759374290705e-03  -1.3628468848764896e-02  -6.2534576281905174e-03   2.2330497205257416e-01   9.9751070141792297e-02  -8.8985167443752289e-02   3.0214771628379822e-01  -2.1968057751655579e-01  -4.8515867441892624e-02   2.4006165564060211e-01  -3.6791283637285233e-02   1.0180155746638775e-02   1.5554976463317871e-01   5.8639585971832275e-02   3.3244714140892029e-02   2.8610470890998840e-01  -6.4291000366210938e-01   3.4297399222850800e-02  -1.3897377252578735e-01   7.0430904626846313e-02   5.7911812327802181e-03  -4.5562472194433212e-02   7.5675286352634430e-02   8.5078008472919464e-02  -2.9073646292090416e-02  -1.4171713590621948e-01  -1.0086373984813690e-01   5.5330794304609299e-02  -8.5445217788219452e-02  -2.6768443640321493e-03  -1.6017998754978180e-01   6.5105184912681580e-02   7.1711361408233643e-02   4.6930214762687683e-01  -1.8931514024734497e-01  -4.5841552317142487e-02   7.6442323625087738e-02  -1.5645800530910492e-01   4.1446328163146973e-02   8.4433451294898987e-02   3.4488048404455185e-02  -5.9871073812246323e-02  -2.9568934440612793e-01  -9.5841400325298309e-02   5.5616779718548059e-04   5.1738545298576355e-02   2.7678450569510460e-02  -4.7607518732547760e-02  -9.9552415311336517e-02   8.6105503141880035e-03  -1.4172437600791454e-02  -5.2406936883926392e-02   6.3839694485068321e-04  -4.5114941895008087e-02  -1.5487626194953918e-01   1.2357443338260055e-03  -3.1107418239116669e-02  -8.2857824862003326e-02   5.6191697716712952e-02   1.2103299796581268e-01   7.5512334704399109e-02  -3.0009407550096512e-02  -2.5816397741436958e-02   1.2836582958698273e-01  -5.2316557615995407e-02  -7.2956487536430359e-02   5.3429186344146729e-02  -9.6616014838218689e-02  -1.9042074680328369e-01  -5.0362814217805862e-02   1.3246607780456543e-01   1.2707182765007019e-01  -9.9321119487285614e-03   1.9180519506335258e-02  -8.1992156803607941e-02   1.4185877144336700e-01  -9.7598463296890259e-02   2.3433234542608261e-02  -1.8761274218559265e-01   8.4227025508880615e-02  -3.2384343445301056e-02  -8.9729458093643188e-02   5.4785627871751785e-02   6.3871063292026520e-02   3.9198759943246841e-02   9.3918897211551666e-02   2.6809889078140259e-01  -4.0288981795310974e-01  -2.8092676401138306e-01  -1.1602268368005753e-01  -1.6295659542083740e-01  -6.0173384845256805e-02   2.1380892023444176e-02   3.6813579499721527e-02   7.2162456810474396e-02   2.1125453710556030e-01  -1.8437553942203522e-01   5.0132401287555695e-02  -8.3387270569801331e-02  -4.6861361712217331e-02   3.7280093878507614e-02   3.7849273532629013e-02  -9.4796158373355865e-02   1.4919152483344078e-02   4.4551319442689419e-03   3.2544735819101334e-02  -1.2571878731250763e-02   3.7037778645753860e-02   1.1137900874018669e-02   1.7591554671525955e-02  -1.3298543170094490e-02   3.3945319056510925e-01   3.9151426404714584e-02  -5.0593197345733643e-02   5.6969547271728516e-01  -1.8285439908504486e-01  -8.2722350955009460e-02  -8.3350181579589844e-02  -9.8545379936695099e-02  -1.6680827364325523e-02  -1.9326481223106384e-01   1.6647964715957642e-01  -3.3626664429903030e-02   1.2840010225772858e-01  -4.3593302369117737e-01  -2.1148828789591789e-02   1.4973621815443039e-02  -1.6273254156112671e-01  -3.1399399042129517e-02  -8.1998936831951141e-02  -3.8957335054874420e-02  -7.8105002641677856e-02   2.4854223430156708e-01  -1.7062541097402573e-02   1.5431830286979675e-01  -2.3500657081604004e-01   7.7167912386357784e-03   4.6330742537975311e-02  -6.4025768078863621e-03   1.2210606038570404e-01  -1.1516311764717102e-01  -2.1009564399719238e-01  -1.7317882180213928e-01  -6.2660947442054749e-02   1.3052612543106079e-01  -1.8737901747226715e-01  -4.5838486403226852e-02  -5.5789206176996231e-02   2.7885029558092356e-03   1.3656982779502869e-01   5.7112455368041992e-01  -2.2908413410186768e-01   9.9129289388656616e-02   4.1414968669414520e-02  -1.3086129911243916e-02  -9.9597230553627014e-02  -1.8259748816490173e-01  -1.1806708574295044e-01  -4.3096750974655151e-02  -5.6664437055587769e-02   4.7471392899751663e-02  -6.5021291375160217e-02  -1.6856957972049713e-01  -5.7286217808723450e-02   6.8291455507278442e-02   2.4725647643208504e-02  -5.3903829306364059e-02   1.8505692481994629e-01   4.2283478379249573e-01  -1.8305325508117676e-01  -5.7502775453031063e-03   2.5968248024582863e-02  -6.3368663191795349e-02  -4.3258141726255417e-02   2.0827980339527130e-01  -6.9473229348659515e-02   6.4075883710756898e-04   4.5886006951332092e-01   1.3897839188575745e-01  -5.6479260325431824e-02  -2.3828573524951935e-01   2.8770137578248978e-02  -1.6491483151912689e-01   5.8064084500074387e-02  -1.7919592559337616e-02  -2.5609853863716125e-01   7.6597899198532104e-01  -3.4380194544792175e-01   7.9019986093044281e-02   6.1915218830108643e-02  -2.5681135058403015e-01   1.1119607090950012e-01  -2.3864844441413879e-01   3.4017249941825867e-02   3.1293138861656189e-02  -6.0888290405273438e-01   6.2815159559249878e-02   2.6862865779548883e-03   2.7228352427482605e-01   2.2390310466289520e-01  -4.2527560144662857e-02   5.0471212714910507e-02   9.4690546393394470e-02  -4.0858760476112366e-01   3.2753948122262955e-02  -2.9998587444424629e-02  -5.2421718835830688e-02   1.2363851815462112e-01  -4.5661568641662598e-02  -8.3549179136753082e-02   1.0389070212841034e-01  -7.3413312435150146e-02  -1.6344535350799561e-01  -4.1496872901916504e-02  -3.6088787019252777e-02   5.6308288127183914e-02   5.0694581121206284e-02   3.2232400029897690e-02   1.7284180223941803e-01   3.8938397169113159e-01  -1.5793938189744949e-02   7.7714182436466217e-02  -1.5393024682998657e-01   2.3258994519710541e-01  -7.4472859501838684e-02   2.4293985962867737e-01   4.6792235225439072e-02  -1.0735624283552170e-01  -2.3169703781604767e-01   1.3548877835273743e-01   1.7718072235584259e-01   1.6945515573024750e-01   1.6524386405944824e-01   8.3898022770881653e-02  -3.5646080970764160e-02   8.0252036452293396e-02  -9.6247047185897827e-02   1.2907601892948151e-02  -2.8204148635268211e-02   7.7338330447673798e-02  -1.6243118047714233e-01   2.1452529728412628e-01   6.6776715219020844e-02  -1.4508785307407379e-01   9.0005524456501007e-02   8.4030702710151672e-03  -1.0670452378690243e-02   5.3855173289775848e-02   1.1401398479938507e-01  -2.6650607585906982e-01   1.5657597780227661e-01   7.5038991868495941e-02  -1.6052964329719543e-01  -3.1541090458631516e-02  -1.6358594596385956e-01  -1.4839804172515869e-01   4.1008546948432922e-02  -3.7812072783708572e-02   5.1439440250396729e-01   2.3396106064319611e-01  -5.4137378931045532e-02  -4.4498041272163391e-01  -1.3080310821533203e-01   1.1179766803979874e-01   1.6087968647480011e-01   3.1475294381380081e-02   4.6976715326309204e-02   2.2049278020858765e-01   1.7122508585453033e-01   6.0696676373481750e-02   6.3071854412555695e-02   1.0148776695132256e-02  -4.1045907884836197e-02  -2.6956230401992798e-01  -3.6322396248579025e-02  -1.0236047953367233e-01  -1.6699525713920593e-01   2.1524746716022491e-01  -8.4772005677223206e-02  -1.1751989275217056e-01   2.3575151339173317e-02   1.4217254519462585e-01   3.7447503209114075e-01  -7.6692610979080200e-02  -2.9441472142934799e-02  -7.1971446275711060e-01  -1.5356406569480896e-01   1.2626205384731293e-01   2.9298001527786255e-01  -3.5618420690298080e-02  -1.0599241405725479e-01   6.8131908774375916e-02   1.7116281669586897e-03  -2.1236842870712280e-01   4.3621242046356201e-01   1.5805126726627350e-01  -2.5773836299777031e-02  -3.1540298461914063e-01  -4.9607262015342712e-02   6.5187342464923859e-02  -2.8953798115253448e-02  -1.1493290215730667e-01  -1.6423645615577698e-01  -1.2417595833539963e-01  -1.3081969320774078e-01  -1.3829067349433899e-01  -1.6453500092029572e-01  -8.1444665789604187e-02  -1.2049089372158051e-01  -2.1922750771045685e-01   1.4578112401068211e-02  -1.3113342225551605e-01   3.4043294191360474e-01   1.3101238012313843e-01   8.7728247046470642e-02   1.2391871958971024e-01   2.3525072634220123e-01   8.7586976587772369e-02   2.2114266455173492e-01  -4.8345431685447693e-02   2.7295079827308655e-01   6.7635935544967651e-01  -1.3203094899654388e-01  -1.4940056018531322e-02  -1.2328484654426575e-01  -2.2969737648963928e-02   2.2522646468132734e-03  -1.1250352114439011e-01  -2.5451970100402832e-01  -1.2708640098571777e-01  -1.6719593107700348e-01  -3.8948732614517212e-01  -9.8505495116114616e-03  -1.3595211505889893e-01  -1.2138307839632034e-01   4.8831226304173470e-03  -2.1828770637512207e-01   8.3218649029731750e-02  -2.8533244505524635e-02   9.5533072948455811e-02   1.3516996987164021e-02  -3.3811833709478378e-02   2.9286660254001617e-02   1.6958032548427582e-01   9.3391470611095428e-02  -7.4421472847461700e-02   6.2602870166301727e-02   9.5139041543006897e-02  -1.4816860854625702e-01   3.4398488700389862e-02   1.0235694935545325e-03   6.8268887698650360e-03  -2.7129510417580605e-02  -2.5336300954222679e-02  -1.9007426500320435e-01   1.7478458583354950e-02   6.4547337591648102e-02  -5.6984174996614456e-02  -3.0702386051416397e-02   6.4696691930294037e-02   2.6463791728019714e-01   1.4416345953941345e-01  -1.2786947190761566e-01  -6.6174253821372986e-02   6.7389301955699921e-02   1.4533977210521698e-01   7.5230240821838379e-02  -1.1229557543992996e-01  -1.5566354990005493e-01   3.4141644835472107e-02   1.0676625370979309e-01   7.2808772325515747e-02  -4.5595917850732803e-02  -5.7547058910131454e-02   1.3170375488698483e-02  -5.9091433882713318e-02   1.8116940557956696e-01  -1.0519425570964813e-01   2.0645558834075928e-01  -7.4249990284442902e-02  -1.5166060999035835e-02   5.7069141417741776e-02  -4.7869995236396790e-02  -1.0851488262414932e-01   1.7236355692148209e-02   6.5269902348518372e-02  -9.7170017659664154e-02  -1.8184961751103401e-02   1.1243221908807755e-01   5.2514456212520599e-02   6.4720295369625092e-02  -9.4686701893806458e-02   1.1148574203252792e-01  -4.1047081351280212e-01   1.1614894121885300e-01   2.5679398328065872e-02   8.3071485161781311e-02  -4.6011302620172501e-02  -1.2310655415058136e-01   8.3535924553871155e-02  -5.0396941602230072e-02   1.8065848946571350e-01  -2.5391286611557007e-01  -1.3328883796930313e-02  -1.3368169963359833e-01  -1.1797001212835312e-01   2.9355606436729431e-01   4.0471516549587250e-02  -6.7217193543910980e-02   8.0240279436111450e-02  -2.2690315544605255e-01   4.0577545762062073e-01  -8.9177496731281281e-02   1.6715774312615395e-02  -1.4378315210342407e-01  -1.5215985476970673e-01  -1.2234575301408768e-01   1.4338342845439911e-01   9.5535954460501671e-04  -5.7206153869628906e-02   8.5583664476871490e-02   1.6855330765247345e-01   9.4107836484909058e-02  -1.2783482670783997e-01  -5.5631957948207855e-02  -4.8618603497743607e-02   2.2903156280517578e-01  -2.5389511138200760e-02   2.8956529498100281e-01   3.1210258603096008e-01  -1.4787540771067142e-02   2.1329638548195362e-03  -4.9963027238845825e-02  -1.8207626417279243e-02   2.1370723843574524e-03  -1.6247583925724030e-01  -5.6946568191051483e-02  -1.6808614134788513e-01   8.8036738336086273e-02  -2.0693142712116241e-01   1.2416473776102066e-01   5.6251250207424164e-02  -1.2092516571283340e-01   1.2177864462137222e-01  -1.1397352069616318e-01   5.7950150221586227e-02  -3.3434506505727768e-02   2.5369909405708313e-01   8.7482891976833344e-02  -1.7020459473133087e-01   8.8773205876350403e-02  -3.6952093243598938e-01  -1.0518931597471237e-01   1.3187436759471893e-01  -7.7151909470558167e-02   2.7098333835601807e-01  -3.5979300737380981e-01   2.4424366652965546e-01  -1.4104157686233521e-01   4.2886540293693542e-01  -2.3598606884479523e-01  -4.6001873910427094e-02   8.7232090532779694e-02   4.1855121962726116e-03   1.5126654505729675e-01  -1.2419980764389038e-01  -6.8515256047248840e-02   1.5643439255654812e-03   7.6625265181064606e-02  -5.8971848338842392e-02  -7.2913803160190582e-02  -5.5119143798947334e-03  -6.7096635699272156e-02   1.6733730211853981e-02   4.3244078755378723e-01  -4.3787296861410141e-02  -3.0927193164825439e-01   9.3091674149036407e-02   9.5432490110397339e-02   3.1488481909036636e-02   2.0408064126968384e-01   1.4435917139053345e-01  -3.5366699099540710e-02  -5.7619637250900269e-01  -2.5120297074317932e-01  -2.7784653007984161e-02   1.2757682800292969e-01   3.3404976129531860e-02  -3.6136478185653687e-02   1.3625745475292206e-01   3.8733340799808502e-02   2.5530166923999786e-02   7.8098371624946594e-02  -1.5719838440418243e-02  -5.9131316840648651e-02  -3.8412109017372131e-02   5.4211229085922241e-02   1.0566127300262451e-01   1.7439070343971252e-01   9.6338041126728058e-02   4.0171194821596146e-02  -7.1264915168285370e-02  -1.6437457501888275e-01   7.6843060553073883e-02   1.9968502223491669e-02   1.1084732413291931e-01  -1.2187572568655014e-01   2.2200272977352142e-01   7.7381911687552929e-03  -1.8184183165431023e-02   7.1407400071620941e-02  -1.6494415700435638e-01  -2.9352983832359314e-01   2.6419028639793396e-01  -5.8918357826769352e-03   7.8772576525807381e-03  -6.6004358232021332e-02  -4.5866485685110092e-02  -1.5468624234199524e-01  -2.2504860162734985e-01   3.1041780114173889e-01   7.0507839322090149e-02  -1.8394735455513000e-01  -7.6787553727626801e-02  -9.9313601851463318e-02  -1.0882481001317501e-02  -1.4910971745848656e-02  -1.7134733498096466e-01  -2.3234944045543671e-01  -5.4408027790486813e-03  -9.1874867677688599e-02   1.3923761248588562e-01  -5.3300078958272934e-02  -1.3044871389865875e-01  -1.2594972550868988e-01  -5.8467958122491837e-02  -3.7769746035337448e-02   4.2931380867958069e-01   6.6933415830135345e-02  -4.4986017048358917e-02  -2.0683230832219124e-02  -5.1735512912273407e-02   6.7184031009674072e-02   1.5451531112194061e-01  -4.8472639173269272e-02   2.5853517651557922e-01   5.9045553207397461e-03   3.3001750707626343e-01  -1.1453204602003098e-01   9.7041852772235870e-02  -1.9694238901138306e-02   9.7485877573490143e-02   9.2369362711906433e-02  -5.4262444376945496e-02  -1.1802249401807785e-01   9.9996645003557205e-03   2.5986826419830322e-01  -2.3091915994882584e-02   1.2493509799242020e-02   1.5417826175689697e-01  -9.4785228371620178e-02  -5.6747905910015106e-02   7.7832899987697601e-02   1.1167930066585541e-01  -8.9223319664597511e-03  -2.0496404170989990e-01  -8.3458274602890015e-02  -5.8978877961635590e-02   2.4768690764904022e-01  -2.9517974704504013e-02  -7.1810528635978699e-02  -2.3468840867280960e-02   2.7560278773307800e-01   1.6200128197669983e-01   1.1618338525295258e-01   3.4150169230997562e-03  -1.7836734652519226e-01   9.5585234463214874e-02  -1.1783511936664581e-01   1.0692732781171799e-01   1.2316299974918365e-01  -5.3685359656810760e-02  -2.7610719203948975e-01  -6.5328508615493774e-02   1.4955454505980015e-02  -1.6941994428634644e-01   9.0331666171550751e-02  -2.6453837752342224e-02   1.9713665544986725e-01   2.5045984983444214e-01   4.4966679066419601e-02   3.1410992145538330e-02  -2.5967502593994141e-01   8.0297455191612244e-02  -1.1429811827838421e-02   7.7995702624320984e-02   1.3600573875010014e-03  -4.2053755372762680e-02   7.2817623615264893e-02  -5.9522345662117004e-02  -2.2928957641124725e-01   3.7108071148395538e-02   6.4799338579177856e-02   7.1718730032444000e-02  -5.2497867494821548e-02   5.2931257523596287e-03   6.6301979124546051e-02   1.0716874152421951e-01   3.6887782812118530e-01  -3.8941633701324463e-01  -9.5041558146476746e-02  -5.4828818887472153e-02   1.0236370563507080e-01  -2.5151560083031654e-02  -1.6520325839519501e-01   6.9218076765537262e-02   1.1604907363653183e-01  -1.5683099627494812e-01   4.7616925835609436e-01   6.3276559114456177e-02   9.8861321806907654e-02   8.5632415721192956e-04  -1.2728025019168854e-01  -1.7851322889328003e-02  -2.7075147628784180e-01   1.7029957845807076e-02  -2.2914592921733856e-01   1.1746540665626526e-01   3.1420785933732986e-02   1.1134362220764160e-01   1.9163571298122406e-02   3.9339765906333923e-02  -9.0235985815525055e-02   2.3409648239612579e-01  -2.3795098066329956e-01  -2.5659275054931641e-01   3.3883523195981979e-02  -2.0915169268846512e-02   1.9219787791371346e-02   1.3940533995628357e-01   8.6611285805702209e-02  -3.6130875349044800e-02  -1.9717463850975037e-01   4.7991495579481125e-02  -1.5343965590000153e-01  -3.2287541031837463e-01   1.4209583401679993e-01   1.1792935431003571e-02   1.4136257581412792e-02  -2.7349239215254784e-02  -1.0138273239135742e-01   1.3841770589351654e-01  -4.9971751868724823e-02  -1.3667820394039154e-01   4.6235401183366776e-02  -1.0871948301792145e-01   7.1879006922245026e-02   1.6607711091637611e-02  -3.9967074990272522e-02   1.3377937674522400e-01  -1.2849037349224091e-01  -2.5981962680816650e-01   2.9732406139373779e-02  -1.8648006021976471e-01  -3.3897256851196289e-01   1.2137939035892487e-01  -2.5245338678359985e-02   2.5416350364685059e-01  -7.9294167459011078e-02   8.8302187621593475e-02   1.3533274643123150e-02   2.1713018417358398e-01  -3.1411466002464294e-01  -1.8326568603515625e-01  -1.7028057575225830e-01  -1.3477773964405060e-01   5.7169891893863678e-02  -4.1664063930511475e-02  -3.9974402636289597e-02  -1.8463087081909180e-01   1.4433802664279938e-01   2.4267019331455231e-01  -1.7257298529148102e-01  -2.4752909317612648e-02  -6.5155014395713806e-02   1.4232301153242588e-02
