  -1.4958092570304871e-01  -3.2967507839202881e-01  -7.9471133649349213e-02  -1.9149056077003479e-01  -5.7122749090194702e-01  -2.2879040241241455e-01  -1.7390778660774231e-01  -2.1289590001106262e-01  -1.4419674873352051e-01  -1.4242309331893921e-01   2.0361401140689850e-01   4.5826379209756851e-02  -2.6693397760391235e-01  -4.1476398706436157e-02   1.7483127117156982e-01  -8.8580571115016937e-02   3.7332128733396530e-02   2.1530760824680328e-01  -1.4953671395778656e-01   1.2142454273998737e-02   3.3760618418455124e-02  -3.9688420295715332e-01  -2.8248432278633118e-01  -2.1247984841465950e-02  -1.2892454862594604e-01   2.7954447269439697e-01   2.5705459713935852e-01  -9.1298572719097137e-02  -5.4526589810848236e-02   8.5311392322182655e-03  -1.7188660800457001e-01  -1.2166500091552734e-01  -1.5765990316867828e-01  -1.2360063940286636e-01   8.3423055708408356e-02  -5.8807861059904099e-03  -2.3257933557033539e-01  -7.1539483964443207e-02   4.6126700937747955e-02  -1.3531547784805298e-01   7.0825868844985962e-01   1.0877522826194763e-01  -1.2087371945381165e-01   1.5245324373245239e-01   5.1435105502605438e-02  -1.1996597796678543e-01   4.4141730666160583e-01  -6.8869687616825104e-02   2.1169014275074005e-01  -5.7058680057525635e-01  -5.8607559185475111e-04  -1.5307265520095825e-01   4.2573538422584534e-01   6.1821449548006058e-02   4.2057242989540100e-01   4.3475676327943802e-02   2.8613141179084778e-01  -3.7827485799789429e-01  -2.2234848141670227e-01   7.9056575894355774e-02  -1.7924222350120544e-01  -2.8843450546264648e-01  -8.1611879169940948e-02  -1.9017308950424194e-01  -3.2540854066610336e-02   2.2049957886338234e-02   4.5504546165466309e-01  -3.3358279615640640e-02   1.7923443019390106e-01   1.6004489734768867e-02  -1.7799495160579681e-01  -5.8989703655242920e-02  -1.8097022548317909e-02   6.5528683364391327e-02  -2.4785039946436882e-02  -9.7251413390040398e-03   1.0183687508106232e-01  -3.6239124834537506e-02   2.2068830206990242e-02   7.1955233812332153e-02  -6.5354250371456146e-02  -4.8188377171754837e-02  -9.8211348056793213e-02  -1.3310175389051437e-02  -7.6241940259933472e-02   5.7247489690780640e-01  -1.3426136970520020e-01   4.4552650302648544e-02  -1.9725970923900604e-01   1.1426331847906113e-01   3.5257643461227417e-01  -1.8365649878978729e-01  -7.1467280387878418e-02   1.4456477761268616e-01   3.2452854514122009e-01  -2.7359259128570557e-01  -1.9276037812232971e-02  -1.7510350048542023e-01  -8.8408365845680237e-02   1.4968787133693695e-01   3.9523124694824219e-02   1.7117424309253693e-01   7.2039909660816193e-02   3.2829776406288147e-01   1.1759228073060513e-02   9.6587233245372772e-02  -1.7745600640773773e-01  -1.1568821966648102e-01  -2.4811241775751114e-02   1.4365659654140472e-01  -9.1814503073692322e-02  -1.5143790841102600e-01   2.5195303559303284e-01  -3.2260909676551819e-02   1.1991652101278305e-01   6.9905264535918832e-04  -7.6801605522632599e-02  -5.7473827153444290e-02  -4.1553875803947449e-01  -9.1506570577621460e-02   3.6014351248741150e-01   2.4094575643539429e-01   1.7393489181995392e-01  -8.2401283085346222e-02   1.5963022410869598e-01   1.1187650263309479e-01  -7.3877081274986267e-02  -1.1959302425384521e-01   5.8809805661439896e-02  -1.9094109535217285e-01  -3.4704974293708801e-01  -9.5296025276184082e-02  -6.3433177769184113e-02   1.4124968089163303e-02   6.9318935275077820e-02   5.8618132025003433e-02  -1.3492131233215332e-01  -5.6026048958301544e-02  -1.0492012649774551e-01   7.5733684003353119e-02  -4.7563141561113298e-04   5.5803459137678146e-02   2.1735545247793198e-02   5.9907894581556320e-02   9.8235800862312317e-02  -3.7383514642715454e-01   1.6208662092685699e-01  -4.4422391802072525e-02   2.2009834647178650e-01  -1.4756111800670624e-01  -8.0457828938961029e-02  -9.8259091377258301e-02  -2.5775948166847229e-01   2.7829954028129578e-01   2.3297628760337830e-01   2.1374076604843140e-01  -2.8256252408027649e-01  -1.3468660414218903e-01   6.9355494342744350e-03  -5.8647036552429199e-02   3.0768480896949768e-01  -6.7806481383740902e-03   1.2537983059883118e-01   2.2760462760925293e-01   1.1012132465839386e-01  -2.4101255834102631e-01   1.8688322603702545e-01  -7.1403294801712036e-02  -3.0519725754857063e-02  -1.3542553782463074e-01  -2.8198136016726494e-02   6.1293859034776688e-02  -4.7831171751022339e-01   1.3065199553966522e-01   1.8448203802108765e-01   3.4913800656795502e-02  -1.0209598392248154e-01  -9.5580302178859711e-02   1.2122946232557297e-01  -1.4982292056083679e-01   4.1873741149902344e-01   1.1278440803289413e-01   5.2838870324194431e-03  -1.5083698928356171e-01   1.2179403305053711e+00   1.2431617081165314e-01   1.2398208677768707e-01   2.7035704255104065e-01  -1.5958026051521301e-02  -1.4959232509136200e-01   2.8298583626747131e-01  -7.7561959624290466e-02  -2.5077468156814575e-01   4.6052974462509155e-01   5.0870250910520554e-02  -2.2939823567867279e-01   2.4427746236324310e-01   1.5447385609149933e-01   4.7203335911035538e-02   1.4547212421894073e-01  -1.9620770588517189e-02   2.4690601229667664e-01  -2.1983234584331512e-01   7.1311123669147491e-02   3.5758182406425476e-02   1.1143843829631805e-01   1.9930528476834297e-02   5.4128076881170273e-02  -2.1618266403675079e-01  -6.3848182559013367e-02   1.0354105383157730e-01   2.5140417739748955e-02   2.0770312845706940e-01  -1.4648911310359836e-03  -2.4897309020161629e-02   6.0631271451711655e-02  -1.1435001343488693e-01  -1.8734097480773926e-01  -1.2692372500896454e-01  -1.1736473441123962e-01  -4.0375000238418579e-01  -1.7462094128131866e-01  -1.5212133526802063e-01  -8.0957919359207153e-02  -9.9417969584465027e-02   8.1177622079849243e-02   1.6047322750091553e-01   4.0527727454900742e-02   1.5403176844120026e-01   3.2787901163101196e-01   1.5477572381496429e-01   4.0410347282886505e-03  -1.8272672593593597e-01   1.9603875279426575e-01  -6.3854701817035675e-02  -9.3383766710758209e-02   1.5976475551724434e-02  -5.1159191131591797e-01  -3.0676263570785522e-01   3.6821763962507248e-02  -1.1170852184295654e-01  -7.6888683252036572e-03   1.5713541209697723e-01   1.0264972224831581e-02  -1.9989550113677979e-01   1.6204574704170227e-01  -2.4815641343593597e-01  -2.6222535967826843e-01  -2.2492063045501709e-01  -4.8158410936594009e-02  -1.4669109880924225e-01  -1.0714667290449142e-01  -8.2132108509540558e-02  -1.4757938683032990e-01  -1.1693739145994186e-01   2.1399512887001038e-01   3.3962768316268921e-01   1.5640830993652344e-01   7.5776681303977966e-02   2.4798983335494995e-01   1.3959872722625732e-01  -4.7339364886283875e-02   1.5359522402286530e-01   1.3334129750728607e-01   1.3898979872465134e-02   4.7897603362798691e-03   1.6816770657896996e-02   4.0969215333461761e-03   1.2709634006023407e-01   7.0300772786140442e-03   1.1419860273599625e-01  -1.4984683366492391e-04  -2.4762824177742004e-02   1.0303098708391190e-02   5.4681371897459030e-02   8.2820996642112732e-02   1.9137382507324219e-02  -2.0363040268421173e-01   1.6509203240275383e-02  -4.2802672833204269e-02  -1.2822400033473969e-01   2.0402491092681885e-02   2.1569742262363434e-01  -4.9579790234565735e-01  -6.0800621286034584e-03   2.3947577923536301e-02  -1.6617169976234436e-01  -1.1845403909683228e-01   3.4823004156351089e-02   1.0872348397970200e-01   1.9009852781891823e-02   1.6763333976268768e-01   8.5678741335868835e-02   9.9157445132732391e-02   9.2202581465244293e-02   9.2570312321186066e-02   2.0450538024306297e-02  -5.0738770514726639e-02   8.5492841899394989e-02   8.3953201770782471e-02  -1.4146515727043152e-01   7.1914142370223999e-01   1.0125300846993923e-02  -9.3677127733826637e-03  -1.1036934703588486e-01   3.9366003125905991e-02  -1.9187439233064651e-02  -3.4380596131086349e-02  -1.2476539611816406e-01   5.0956014543771744e-02   6.4407366514205933e-01  -1.0378867387771606e-01  -4.1517868638038635e-02  -2.3012992739677429e-01  -2.6871303096413612e-02   1.5713089704513550e-01   1.3319364190101624e-01   8.8834218680858612e-02   1.3862319290637970e-01  -3.6385512351989746e-01  -1.3233430683612823e-01   7.8402720391750336e-02  -9.6431054174900055e-02  -2.0035721361637115e-01  -6.4660526812076569e-02  -1.7957967519760132e-01  -7.7151104807853699e-02  -1.7694441601634026e-02  -1.7418219149112701e-01  -1.3615590333938599e-01  -2.7227172628045082e-02  -1.2665662169456482e-01  -1.0289570689201355e-01  -3.2742775976657867e-02   1.8512031435966492e-01   2.8062557801604271e-02   1.0914086550474167e-01  -1.2790675275027752e-02   3.6469331383705139e-01   9.0608097612857819e-02   9.6752180252224207e-04  -2.5654854252934456e-02  -3.8087978959083557e-02  -3.0898740515112877e-02   3.4682109951972961e-02  -1.5581713616847992e-01  -4.5735540986061096e-01  -4.5466426759958267e-02  -3.9528492838144302e-02  -4.6646758913993835e-02  -1.6182757914066315e-02   1.0941492766141891e-01  -3.4301443956792355e-03   1.3027060776948929e-03  -6.0487806797027588e-02  -4.6517133712768555e-01  -2.2656072676181793e-01   3.6702040582895279e-02   1.2117915786802769e-02  -4.9475759267807007e-02  -1.4464811980724335e-01  -3.9115622639656067e-02   2.0275650545954704e-02  -4.9544021487236023e-02   4.1219773888587952e-01   6.6635899245738983e-02  -1.0748210363090038e-02  -2.0719146728515625e-01   8.8869728147983551e-02  -9.5129147171974182e-02   2.3387476801872253e-01   8.0403693020343781e-02   3.0059382319450378e-01  -2.9244577884674072e-01  -1.9173702597618103e-01  -1.4274424314498901e-01   3.3835869282484055e-02   2.6256242394447327e-01  -5.9428248554468155e-02   1.1687410622835159e-01  -6.8108774721622467e-02   6.2925070524215698e-02  -2.2515380382537842e-01  -1.4539720118045807e-01  -1.5304785221815109e-02  -3.7931284308433533e-01  -4.0705274790525436e-02  -6.4298026263713837e-02  -1.3714513182640076e-01   2.7812626212835312e-03   2.4034835398197174e-02   4.6052393317222595e-01   2.3001475259661674e-02  -1.9171324372291565e-01  -8.6508095264434814e-02  -3.1054496765136719e-02  -2.5585549883544445e-03   5.4538838565349579e-02   1.8533961847424507e-02   1.1306358873844147e-01  -9.6278022974729538e-03   1.8741790205240250e-02   1.3366188108921051e-01   1.3027472794055939e-01   1.1163506656885147e-01   5.3147163242101669e-02   2.2720605134963989e-02  -2.3052947595715523e-02  -4.8770695924758911e-02   9.1890551149845123e-02  -1.5126764774322510e-01   6.0727335512638092e-02  -2.7460636571049690e-02  -4.4995412230491638e-02  -4.9949549138545990e-03  -3.5567658487707376e-03  -1.3859474658966064e-01   1.1945132911205292e-01   1.0594604015350342e+00  -3.8650881499052048e-02   4.2598992586135864e-02   8.3917438983917236e-02   1.8121460452675819e-02   9.6860937774181366e-02   2.9765245318412781e-01   1.6331445425748825e-02   5.3894974291324615e-02  -5.4005622863769531e-01  -1.0715168714523315e-01  -1.3776139356195927e-02  -2.1748034656047821e-01  -1.1898006498813629e-01   1.8692294135689735e-02  -2.3873198777437210e-02  -5.5934354662895203e-02   8.8771857321262360e-02   1.0262529551982880e-01   2.4379093199968338e-02   5.4727651178836823e-02   7.3690086603164673e-02  -1.0605915449559689e-02   6.7833133041858673e-02   6.0141816735267639e-02   2.4848675727844238e-01   2.3014414310455322e-01  -1.4397093653678894e-01   2.7279189229011536e-01   1.6609886288642883e-01   2.9643020033836365e-01   6.3931472599506378e-02   9.1113649308681488e-02  -6.7063704133033752e-02   1.3887486420571804e-02   2.1340298652648926e-01   5.6939172744750977e-01   3.7364576011896133e-02   1.4335834980010986e-01   4.8792768269777298e-02  -2.0835133269429207e-02  -4.4907625764608383e-02  -1.8366448581218719e-02  -1.2886218726634979e-01   2.9547326266765594e-02   1.2764206528663635e-01  -1.0305829346179962e-02  -1.8575720489025116e-02   1.1262439191341400e-01   2.1747410297393799e-02   4.7603569924831390e-02   8.5523031651973724e-02   3.6861777771264315e-03   4.3377950787544250e-02  -1.4134415984153748e-01  -6.6890478134155273e-02  -1.9796490669250488e-02  -1.8490932881832123e-01  -1.0849527269601822e-01   1.1187849938869476e-01  -5.2615571022033691e-01   3.9455354213714600e-02  -3.4892845153808594e-01   6.0983687639236450e-01  -1.9722355902194977e-01   6.9046698510646820e-02   4.7749120742082596e-02  -9.4409950077533722e-02   2.4050876498222351e-02  -1.2510582804679871e-01  -1.1450807750225067e-01  -5.2111279219388962e-02   3.2904037833213806e-01   2.3486052453517914e-01   1.9847838580608368e-01   1.2383010983467102e-01   3.8135282229632139e-03  -6.1085689812898636e-02   1.5008622407913208e-01  -1.5740278363227844e-01  -6.7685686051845551e-02   1.7967568337917328e-01   1.6006441414356232e-01   1.1092695407569408e-02  -1.3863537460565567e-02   3.6472804844379425e-02  -6.2872461974620819e-02  -1.0349596291780472e-01  -9.4896830618381500e-02  -2.2612358629703522e-01   2.5124299526214600e-01  -1.4021864533424377e-01  -7.6712474226951599e-02  -1.6026183962821960e-01  -1.0046306997537613e-01   4.1484486311674118e-02  -8.6889550089836121e-02  -1.3619193434715271e-01   1.7775379121303558e-01  -1.2620582245290279e-02   4.0867310017347336e-02   6.8264581263065338e-02   3.2312028110027313e-02  -5.1415707916021347e-02   1.2161634862422943e-02   1.0451819002628326e-01   6.5485022962093353e-02  -2.9926618933677673e-01   1.2321678549051285e-01   3.1032096594572067e-02  -1.6415370628237724e-02   2.2031109035015106e-01   9.9170841276645660e-03  -1.5779994428157806e-01   5.8277640491724014e-02   2.5074197910726070e-03   3.4477010369300842e-02  -3.0096647143363953e-01   8.4396891295909882e-02   8.3916567265987396e-02  -6.1890106648206711e-02  -6.1322529800236225e-03   3.4302167594432831e-02   3.2665225863456726e-01   1.8617250025272369e-01  -3.5309921950101852e-02   3.4462824463844299e-01   1.7282133921980858e-02  -2.3464770987629890e-02   3.1732968986034393e-02   9.9831573665142059e-02  -9.7306594252586365e-02  -2.3041145503520966e-01  -2.5444447994232178e-02  -1.0917755216360092e-01   4.7609243541955948e-02  -6.7651458084583282e-02  -1.2247963994741440e-01  -2.4785749614238739e-01  -2.4143776297569275e-01   6.9351844489574432e-02   1.9083960354328156e-01   1.0224766097962856e-02   2.3255336284637451e-01  -2.6896312832832336e-02   2.8410004451870918e-02   1.6202630475163460e-02   8.1875562667846680e-02  -2.6597796007990837e-02   6.1773989349603653e-02   1.8474806845188141e-01   1.5290275216102600e-01   1.7106954753398895e-01   2.6672223210334778e-01   1.2076613306999207e-01   3.3360667526721954e-02   1.8534745275974274e-01   8.7582543492317200e-02   6.4756549894809723e-02  -1.1887200921773911e-01  -3.1530898064374924e-02  -4.2523533105850220e-02  -1.6559596359729767e-01  -6.9420531392097473e-02  -1.0141245275735855e-01  -2.5755983591079712e-01  -1.9222174584865570e-01   2.6425130665302277e-02   1.2355013191699982e-01   3.6769278347492218e-02  -1.7118299379944801e-02   5.2544288337230682e-02   1.1361975967884064e-01   1.3655290007591248e-01   3.0954331159591675e-01  -4.1198134422302246e-02  -2.9181718826293945e-01   4.7071337699890137e-02   4.7728135250508785e-03   5.3168568760156631e-02   5.7242745161056519e-01  -8.2618184387683868e-02  -1.3493372127413750e-02   2.8375715017318726e-02   7.0633157156407833e-03   1.6403415799140930e-01  -5.1856812089681625e-02   9.2322587966918945e-02  -6.9533109664916992e-02   2.5515568256378174e-01  -6.4023405313491821e-02   8.2570694386959076e-02   1.7916966974735260e-01   1.3650804758071899e-02   7.2649195790290833e-02  -6.5447360277175903e-02   9.5373223302885890e-04  -1.5753895044326782e-01  -1.3625268638134003e-01   5.6759198196232319e-03  -2.4332858622074127e-01   1.4371305704116821e-01   5.9761427342891693e-02   2.8664508834481239e-02   1.4123921096324921e-01   1.2536041438579559e-01   8.9007638394832611e-02  -3.5038736462593079e-01   3.5138659179210663e-02  -2.1637652534991503e-03   1.1227399855852127e-01  -8.6292112246155739e-04  -1.9094286859035492e-01  -1.9118979573249817e-01  -3.7095930892974138e-03  -3.2101694494485855e-02  -9.4185250997543335e-01   3.1458813697099686e-02  -4.6995494514703751e-02   8.9944742619991302e-02   2.8087221086025238e-02  -9.0435378253459930e-02   1.4201988233253360e-04   3.9924778044223785e-02  -5.4655570536851883e-02   2.5624999403953552e-01   4.1234944015741348e-02   5.0153728574514389e-02   2.2008989751338959e-01   8.4124431014060974e-02  -9.2277862131595612e-02  -1.7512667179107666e-01  -1.8710559234023094e-02  -7.4887573719024658e-02  -2.9273483157157898e-01  -6.7302122712135315e-02  -8.2826130092144012e-02  -1.0087838023900986e-01  -1.5063107945024967e-02  -1.2304475903511047e-01  -3.2239332795143127e-01   1.2139295786619186e-01  -7.5093030929565430e-02   7.3488261550664902e-03   2.6774585247039795e-01   5.4247517138719559e-02   4.6785123646259308e-02   2.0242980122566223e-01  -9.6494473516941071e-02   7.7426205389201641e-03  -4.2521946132183075e-02  -2.4059683084487915e-01   4.9443575739860535e-01   5.9732541441917419e-02  -7.9157583415508270e-02  -7.6162368059158325e-03   2.9913727194070816e-03  -7.0560991764068604e-02  -7.9050056636333466e-02  -5.1690671592950821e-02  -1.1411993205547333e-01  -8.5422001779079437e-02   2.2336818277835846e-01  -7.4167147278785706e-02  -2.2503744065761566e-01  -3.5379398614168167e-02  -9.6813715994358063e-02   5.8923520147800446e-02  -8.7280593812465668e-02   2.1863946318626404e-01  -6.4169639348983765e-01   6.7285507917404175e-02   1.1904675513505936e-01   2.6594445109367371e-01   1.4935611188411713e-01   1.4066554605960846e-02  -3.7321075797080994e-01   2.0342385768890381e-01  -2.2433379292488098e-01   3.9769437909126282e-01   8.9035615324974060e-02   4.8589881509542465e-02  -1.0225187987089157e-01  -1.7860898375511169e-01  -8.8758289813995361e-02  -3.1456161290407181e-02  -1.4763699471950531e-01  -2.6133127510547638e-02  -3.9630725979804993e-01  -3.6664435267448425e-01  -5.7811811566352844e-02  -2.2152826189994812e-02   9.7832186147570610e-03  -7.2442583739757538e-02  -2.6069149374961853e-02  -7.6917268335819244e-02  -1.3958589732646942e-01  -1.0425850003957748e-01  -8.5057139396667480e-02   1.1447160691022873e-01   3.5441103391349316e-03  -1.0590165108442307e-01  -2.3034056648612022e-02   2.1216312423348427e-02  -1.7830379307270050e-02   1.5780772268772125e-01  -3.7682303786277771e-01   1.0893178731203079e-01   2.6487346738576889e-02   4.1200779378414154e-02  -2.5133864954113960e-02  -1.3328541815280914e-01   2.5773517787456512e-02  -5.8864101767539978e-02  -3.4157957881689072e-02   1.3840247690677643e-01   2.2248351573944092e-01  -3.4065056592226028e-02   1.9441838562488556e-01   2.5501837953925133e-02   2.7098055928945541e-02   2.6036900281906128e-01   4.7584097832441330e-02   1.0945692658424377e-01   7.9664021730422974e-01   4.6521365642547607e-02  -4.1852723807096481e-02  -3.3268103003501892e-01  -4.9491047859191895e-02   1.1273816227912903e-01  -2.3872840404510498e-01  -1.1212689429521561e-01  -1.1452213674783707e-01  -5.4103636741638184e-01  -7.3519997298717499e-02   2.3138510063290596e-02   2.9176874086260796e-02  -1.5071390569210052e-01  -5.4683565394952893e-04   1.3856972754001617e-01   1.0932582616806030e-01  -6.0845565050840378e-02   1.1469303071498871e-01   2.2455061972141266e-01  -6.3656270503997803e-02  -5.4297365248203278e-02   6.0716573148965836e-02  -1.0191714763641357e-01   3.1337615847587585e-01  -1.4060014486312866e-01  -2.3283429443836212e-01   6.4538158476352692e-02   5.0289906561374664e-02  -3.2694074325263500e-03   1.8766026198863983e-01  -9.4934292137622833e-02   5.1598984748125076e-02  -6.2983781099319458e-02   7.8299924731254578e-02   1.9290868937969208e-01   1.1125642061233521e-01  -1.5983218327164650e-03  -1.2319090776145458e-02  -9.6415109932422638e-02  -1.5230549871921539e-01   7.7461139298975468e-03   6.6259261220693588e-03   2.7875430881977081e-02  -6.5344154834747314e-02   8.5951089859008789e-02   1.1017688363790512e-01   8.0165669322013855e-02  -4.0779221802949905e-02  -1.0075381025671959e-02   2.6883907616138458e-02   1.8758560717105865e-01  -1.0037709772586823e-01  -7.1895167231559753e-02  -4.8747617006301880e-01  -9.9960580468177795e-02  -9.7231395542621613e-02  -1.0764901340007782e-01  -9.7675390541553497e-02   4.7340054064989090e-02  -3.3520840108394623e-02  -1.1775606870651245e-01   1.5827713534235954e-02   5.9911895543336868e-02   1.2962375581264496e-01  -1.3691717386245728e-01   2.5320523977279663e-01  -7.4843101203441620e-02   3.1483802944421768e-02  -9.0426944196224213e-02  -7.6849855482578278e-02  -2.4926578626036644e-03   3.5081547498703003e-01  -3.0495006591081619e-02  -2.7107104659080505e-02   7.1993306279182434e-02   8.5117526352405548e-02   1.6237613558769226e-01   1.0180741548538208e-01   1.3312315940856934e-01   1.4742023311555386e-02   5.0601355731487274e-02  -6.4509026706218719e-02   8.1981591880321503e-02   1.5240086615085602e-01   1.4698393642902374e-01   3.4917149692773819e-02  -2.3592989891767502e-02  -8.4920443594455719e-02  -3.0964973568916321e-01   1.9462411105632782e-01  -4.2816501110792160e-02   2.1731186658143997e-02   1.0978994518518448e-01   1.3375866413116455e-01  -4.5884076505899429e-02   3.2116603106260300e-02   3.9910092018544674e-03  -4.6477999538183212e-02  -1.8344952166080475e-01  -2.3222682997584343e-02   6.6066302359104156e-02   8.9587233960628510e-02   6.8068817257881165e-02   3.4341603517532349e-02   2.3237152025103569e-02  -1.3007231056690216e-01   6.4157597720623016e-02  -7.3618906736373901e-01   4.7734428197145462e-02   2.6310864835977554e-02   2.8519507497549057e-02   1.6018139198422432e-02  -5.3466834127902985e-02  -2.3119969666004181e-01   2.5715491175651550e-01  -9.3490600585937500e-02   2.3024557530879974e-01   1.4016303420066833e-01   3.0166275799274445e-02  -1.8264306709170341e-02   1.3919274508953094e-01  -9.1880142688751221e-02  -9.4089940190315247e-02  -5.8212973177433014e-02   9.8116220906376839e-03   1.0932041704654694e-01   1.4634914696216583e-01   5.6831795722246170e-02  -1.2745267152786255e-01  -7.4886590242385864e-02   1.3841092586517334e-01   8.3019159734249115e-02   3.1631812453269958e-01  -1.0973141342401505e-01  -1.0215859860181808e-01  -9.3602135777473450e-02  -4.1364543139934540e-02  -1.4673839509487152e-01   1.5651455521583557e-01  -5.7387854903936386e-02   7.8596100211143494e-02  -3.6174766719341278e-02  -1.2862980365753174e-01  -3.9346429705619812e-01  -1.3100104033946991e-01  -1.5179727971553802e-01  -1.7456814646720886e-01  -2.1331702172756195e-01   2.4865468963980675e-02  -3.8987062871456146e-02   1.2229709327220917e-01   3.1592138111591339e-02  -8.7200500071048737e-02  -4.8506767489016056e-03   2.3840138688683510e-02  -9.6425466239452362e-02  -1.0717055201530457e-01  -1.3264996930956841e-02  -2.5116157531738281e-01   5.6978049688041210e-03   1.3652530312538147e-01   6.5408337116241455e-01  -1.3976019620895386e-01  -3.1212689355015755e-02   2.2790902853012085e-01  -1.8448126316070557e-01   3.0333691835403442e-01   2.4173447489738464e-01  -3.0819088220596313e-01  -3.1703445315361023e-01  -5.0543475151062012e-01  -6.6934220492839813e-02   4.7046050429344177e-02   3.9443401619791985e-03  -1.1796796321868896e-01   3.1974110752344131e-02   4.0070850402116776e-02   3.0060207843780518e-01  -8.0542258918285370e-02   1.8491756916046143e-01  -3.3843231201171875e-01  -1.8770633265376091e-02   1.2383006513118744e-01  -8.4794536232948303e-02  -1.8281742930412292e-01  -3.9611095190048218e-01   1.3445820659399033e-02  -6.2790393829345703e-02   7.0227354764938354e-02  -8.0303445458412170e-02  -5.3269136697053909e-02  -3.2783248461782932e-03   1.2690563499927521e-01   1.4947062730789185e-01   1.0973295196890831e-02   7.1996740996837616e-02  -2.8658915311098099e-02  -6.6079163551330566e-01  -1.5279561281204224e-01  -4.6857293695211411e-02  -4.0193310379981995e-01  -3.5331749916076660e-01  -1.8239828944206238e-01   2.7101239562034607e-01  -2.3473736655432731e-04   2.0819079875946045e-01   1.3214749284088612e-02  -1.0335619747638702e-01  -1.3417367637157440e-01  -1.8822860717773438e-01  -2.4661760032176971e-01   2.3775078356266022e-02  -1.1191727221012115e-01   1.2906751036643982e-01  -9.8894350230693817e-02   1.9560925662517548e-01  -1.0442060418426991e-02   1.1617162823677063e-01  -1.2983720004558563e-01   1.0345113277435303e-01   4.6248733997344971e-03   8.3502218127250671e-02  -6.0638538561761379e-03   8.0446405336260796e-03  -4.0511265397071838e-01  -8.2935877144336700e-02  -6.1456739902496338e-02  -2.3949825763702393e-01   3.9280973374843597e-02  -4.4667493551969528e-02  -4.0305234491825104e-02  -4.3194843456149101e-03  -4.0372893214225769e-02  -8.4055535495281219e-02  -3.3616717904806137e-02  -3.5117216408252716e-02  -6.4382493495941162e-02  -2.3601517081260681e-02  -2.0268898457288742e-02   2.9574593529105186e-02   2.9836190864443779e-02  -2.6429399847984314e-02  -3.8870514836162329e-03  -4.5848559588193893e-02  -1.3656205497682095e-02  -9.6007704734802246e-02   8.6195416748523712e-02  -3.9610150270164013e-03   6.2730148434638977e-02  -2.1136114373803139e-03  -1.0596779733896255e-01   3.2976824045181274e-01  -8.5790930315852165e-03   1.0046828538179398e-03  -4.3327827006578445e-02  -4.7196432948112488e-02   2.3386470973491669e-02  -2.6368949562311172e-02   3.7288885563611984e-02  -1.2637833133339882e-02  -1.9962806254625320e-02   4.5317076146602631e-03   1.5441015362739563e-02  -9.7540460526943207e-02  -8.8415918871760368e-03  -3.4509968012571335e-02  -1.5588574111461639e-02   1.3920799829065800e-02   4.4591547921299934e-03   1.9333066046237946e-01  -9.7421212121844292e-03  -1.0487831896170974e-03   1.0851404815912247e-01  -9.1225625947117805e-03  -2.3971233516931534e-02   4.8828829079866409e-02  -1.4371840516105294e-03  -2.9576675966382027e-02   5.9919383376836777e-02  -4.9028486013412476e-02   3.4636747092008591e-02  -5.9557855129241943e-02  -1.7253205180168152e-02   2.5451239198446274e-02   8.4693677490577102e-04   2.9288118705153465e-02  -9.1794822365045547e-03  -2.1244317758828402e-03  -1.2498340569436550e-02  -1.2683221139013767e-02   1.0390218347311020e-02  -1.3489966280758381e-02  -1.5750305028632283e-03  -7.7874541282653809e-02   2.0638875663280487e-02   5.1244501024484634e-02   6.1760507524013519e-03   3.3926919102668762e-02  -7.8841149806976318e-03   4.3298371136188507e-02   7.8049986623227596e-03  -3.6953337490558624e-02   6.6022776067256927e-02  -1.2110902927815914e-02  -8.4216464310884476e-03   1.9178509712219238e-02   8.6978925392031670e-03   1.7290871590375900e-02  -5.2979871630668640e-02  -2.7636663988232613e-02   7.6156798750162125e-03  -1.8852677196264267e-02   3.5543043166399002e-02  -2.2968493402004242e-02   2.6932114362716675e-01  -6.5541632473468781e-02   6.0282074846327305e-03  -1.0476429015398026e-01  -2.4925110861659050e-02   2.5761431083083153e-02  -3.8662031292915344e-02  -2.8475193306803703e-02  -1.7873374745249748e-02   1.0627923011779785e+00  -3.8541462272405624e-03   3.0825436115264893e-02  -3.4782323986291885e-02  -5.3014922887086868e-02  -5.3057870827615261e-03   4.1272696107625961e-02  -2.0305558573454618e-03  -4.0426276624202728e-02   1.4441387727856636e-02  -1.5463968738913536e-02  -8.4782711928710341e-04   2.2593494504690170e-02  -7.0585901848971844e-03   4.1986368596553802e-03  -2.6582177728414536e-02  -4.6451301313936710e-03   8.0535799264907837e-02   1.6074417531490326e-01   1.6685213148593903e-01  -5.5970460176467896e-02  -1.8494948744773865e-01  -3.6360051482915878e-02  -2.5666886940598488e-02  -1.3682356476783752e-01  -1.1804139241576195e-02   2.1295132115483284e-02  -6.5143689513206482e-02   1.3580033183097839e-01  -6.7334197461605072e-02  -1.3909541070461273e-01   1.5132486820220947e-01  -2.0442609675228596e-03  -1.3389920815825462e-02   3.0340174213051796e-02  -1.7502970993518829e-02  -2.5525704026222229e-01  -1.5667223930358887e-01  -4.3328726291656494e-01  -3.2628062367439270e-01  -6.0608502477407455e-02  -5.0954654812812805e-02  -6.6003225743770599e-02   3.3925008028745651e-02  -1.8848174810409546e-01  -2.7160579338669777e-02   2.4674609303474426e-02  -1.3639424741268158e-01  -3.4535069018602371e-02  -7.6440319418907166e-02   1.1182174831628799e-01  -1.0261300206184387e-01   1.5723280608654022e-02   9.8598152399063110e-03   5.3509873151779175e-01   2.6944451965391636e-03   1.6479325294494629e-01  -4.8337187618017197e-02  -5.8645617216825485e-02  -3.3432129770517349e-02  -3.0863972380757332e-02   1.9871859252452850e-01  -2.3415492847561836e-02   2.7557894587516785e-02   2.5898577645421028e-02  -1.0494487732648849e-01   3.5670053958892822e-01  -3.3638834953308105e-02   6.7697182297706604e-02   1.3210539519786835e-01  -6.6030792891979218e-02  -1.6440227627754211e-02   1.3887640833854675e-01  -2.7017244696617126e-01  -1.4720833301544189e-01   3.2036179304122925e-01   9.4144633039832115e-03  -3.6252815276384354e-02  -1.2662427127361298e-01   2.9312686994671822e-02  -1.0229424387216568e-01   5.2099287509918213e-01  -1.0855200886726379e-01   3.1102977693080902e-02   3.1311661005020142e-01  -3.3932041376829147e-02  -1.1354751884937286e-01  -2.4330104887485504e-01   3.2220405410043895e-04  -2.8447368741035461e-01  -1.2411332130432129e-01   2.1733544766902924e-02   3.1703863292932510e-02  -2.5944364070892334e-01  -1.0689260065555573e-01  -9.5695026218891144e-02   1.1707531660795212e-01  -2.7786897495388985e-02  -3.3549498766660690e-02   1.4979137480258942e-01   2.0436571538448334e-01  -3.0171418562531471e-02   3.6064782738685608e-01  -2.8447275981307030e-02  -7.0323538966476917e-04  -7.7682167291641235e-02  -1.0260448604822159e-01   2.3264969885349274e-01   2.5952089577913284e-02  -7.7616237103939056e-02  -2.7334246039390564e-01  -1.1606697738170624e-01  -6.5346628427505493e-02  -2.5281779468059540e-02   1.6950771212577820e-01  -7.7637813985347748e-02  -7.6918751001358032e-02  -3.3520391583442688e-01   9.0073600411415100e-02   2.5574299693107605e-01   1.1127431690692902e-01  -2.8866345528513193e-03  -1.9997219741344452e-01  -1.6338767111301422e-01   8.4599770605564117e-02  -2.5796133279800415e-01  -4.1890421509742737e-01  -2.9408556222915649e-01  -1.7482884228229523e-01  -3.5088658332824707e-01  -1.7456899583339691e-01  -2.0991437137126923e-01   8.9382126927375793e-02   1.3644167780876160e-01  -4.2462381720542908e-01   2.3595294356346130e-01   2.2779370844364166e-01  -1.4432480931282043e-01  -4.0952894836664200e-02   4.8205260187387466e-02   5.4571345448493958e-02   2.4159918725490570e-01   3.4722857177257538e-02  -6.0661606490612030e-02   2.2213877737522125e-01  -5.2380181849002838e-02  -3.5236857831478119e-02  -3.8217747211456299e-01  -1.2359373271465302e-01   1.3947474956512451e-01  -1.6193658113479614e-01   1.2610897421836853e-01   1.6426728665828705e-01  -1.6437171399593353e-01   2.8718382120132446e-02   6.3099920749664307e-02  -2.9146680235862732e-01  -1.2417554110288620e-01  -2.2217176854610443e-01  -2.0134367048740387e-01   6.7536658607423306e-03  -2.9835560917854309e-01  -4.0778097510337830e-01  -8.2599883899092674e-03  -4.1109427809715271e-02   1.2927980720996857e-01  -6.7440658807754517e-02  -5.1696628332138062e-02   1.2251653522253036e-01   1.3716146349906921e-01  -1.6212691366672516e-01   3.2339257001876831e-01  -2.4163082242012024e-01   2.0035070180892944e-01  -2.2657494246959686e-01  -6.5307110548019409e-02   6.2839344143867493e-02   5.9832133352756500e-02   9.7045652568340302e-02  -3.8495540618896484e-02  -2.3093706369400024e-01   1.8880534917116165e-02   7.3823072016239166e-02   9.5322780311107635e-02  -8.9396297931671143e-02   2.5045491755008698e-02  -4.5362282544374466e-02  -7.3748946189880371e-02   1.8652428686618805e-01  -1.4738513529300690e-01   8.0287694931030273e-02  -1.0308907181024551e-01   1.5751470625400543e-01  -1.0494011454284191e-02  -1.2334854155778885e-01   2.1128991246223450e-01   8.6535334587097168e-02  -2.9715491458773613e-02   2.5317326188087463e-01   6.7223653197288513e-02   4.7647885978221893e-02  -1.3999934494495392e-01  -7.3631957173347473e-02   1.0943881422281265e-01  -9.3644864857196808e-02   9.6660777926445007e-02  -8.4555849432945251e-02  -1.1221245676279068e-01  -5.4364511743187904e-03   4.9372654408216476e-02  -4.3218505382537842e-01  -2.5997078418731689e-01   1.4345347881317139e-01  -2.1252462267875671e-01   1.8169260025024414e-01   1.9605955481529236e-01  -3.3067917823791504e-01  -6.9327935576438904e-02  -3.6777298897504807e-02  -2.1413302421569824e-01   1.1950165778398514e-01  -1.0812878608703613e-01  -5.8197516947984695e-02  -2.1947143599390984e-02  -1.6575321555137634e-01  -1.0412487387657166e-01  -5.5757548660039902e-02   9.8440751433372498e-02   1.2698162347078323e-02  -2.6950137689709663e-02
