  -5.2354894578456879e-02   7.6634334400296211e-03   1.6364978626370430e-02  -5.8720115572214127e-02   6.5299175679683685e-02  -7.6556950807571411e-02   4.5367527753114700e-02   2.5756476446986198e-02   1.4270773157477379e-02  -5.3379863500595093e-02   1.9758673012256622e-01   1.9552733749151230e-02   3.2769843935966492e-02   3.3485081512480974e-03   6.3128419220447540e-02   6.5889306366443634e-02  -3.6335039883852005e-02  -2.1456347778439522e-02   5.2317664027214050e-02  -1.1129318177700043e-01  -4.4291932135820389e-02   9.8667163401842117e-03  -5.9596351347863674e-03   5.7740133255720139e-02  -1.2329581379890442e-01  -1.2843871116638184e-01   6.5211668610572815e-02  -5.6942207738757133e-03  -1.0918872430920601e-03   9.1301105916500092e-02  -3.0634375289082527e-02   5.6583154201507568e-01   5.4179720580577850e-02  -4.1165068745613098e-02   1.9776588678359985e-01  -1.9147801212966442e-03  -5.6207709014415741e-02   2.7391216158866882e-01   1.8180396407842636e-02   3.0670357868075371e-02  -2.3694083094596863e-01   6.7806549370288849e-02   9.6669167280197144e-02  -4.1637398302555084e-02   1.5014785341918468e-02   1.1497970670461655e-01   2.1139321848750114e-02   1.3661175966262817e-02   6.8090692162513733e-02   1.4881400763988495e-01  -3.9027442689985037e-03   4.0317460894584656e-02  -3.3956762403249741e-02  -5.2040223032236099e-02   1.6993059217929840e-01   3.6064267158508301e-01  -3.2076023519039154e-02   6.1653777956962585e-02  -3.0956649780273438e-01   1.2102606147527695e-01   9.8958663642406464e-02  -1.2145652621984482e-01   3.5121567547321320e-02  -1.1139530688524246e-01   4.8514768481254578e-02   4.1977711021900177e-02   1.6330954432487488e-01   7.0499539375305176e-02  -3.0151450634002686e-01   4.1248019784688950e-02   2.9928120970726013e-01  -4.5060303062200546e-02  -2.7276483178138733e-01  -2.0321145653724670e-01  -1.5923698246479034e-01  -4.3792396783828735e-02   5.9505157172679901e-02  -2.0589293539524078e-01  -3.7109605967998505e-02   9.4739854335784912e-02   3.7088967859745026e-02  -7.2488404810428619e-02  -2.3973353207111359e-01  -1.6400896012783051e-02   2.7152361348271370e-02   2.7102923393249512e-01  -1.3180279731750488e-01  -1.2543870136141777e-02  -6.3365332782268524e-02  -3.5655066370964050e-02   5.8961477130651474e-02  -7.1170747280120850e-02  -2.3089065216481686e-03   6.3601329922676086e-02  -1.9894169643521309e-02   4.2642280459403992e-03   2.1314008161425591e-02  -1.9254736602306366e-02   1.9223101437091827e-02   9.9948167800903320e-02  -2.4908588826656342e-01  -3.5045302938669920e-03   3.0780648812651634e-02  -5.0015640258789063e-01   2.0869442820549011e-01   6.8196728825569153e-02  -2.9002466797828674e-01   3.9973724633455276e-02   1.1739602684974670e-01   5.4792061448097229e-02   1.0312285274267197e-01   8.3974627777934074e-03  -4.2730718851089478e-02   9.5929212868213654e-02   7.9168215394020081e-02   1.2579315900802612e-01  -1.2404255568981171e-02   5.9247706085443497e-02  -2.4227635562419891e-01   9.6174888312816620e-03   1.0967825353145599e-01   3.1879520416259766e-01  -4.5206155627965927e-02  -4.1414570063352585e-02  -1.3788945972919464e-01  -9.6061579883098602e-02  -2.4037635326385498e-01   1.4689111709594727e-01  -1.0169250518083572e-01   2.2546185180544853e-02   5.4704260826110840e-01  -1.4636604487895966e-01  -6.2108837068080902e-02  -2.3529891669750214e-01   4.8681367188692093e-02   6.6168596968054771e-03  -4.5800447463989258e-02   1.7086984217166901e-01  -2.0397068560123444e-01  -5.6736552715301514e-01   5.9250924736261368e-02   7.5831778347492218e-02   2.8844380378723145e-01   1.9863693043589592e-02  -1.8087301403284073e-02  -3.5123765468597412e-01   2.9114030301570892e-02  -1.2042130529880524e-01  -2.1330863237380981e-01   9.1349333524703979e-02  -1.1934842914342880e-01  -8.6207695305347443e-02   5.5855732411146164e-02  -2.7227737009525299e-03  -1.6515356302261353e-01   1.0338722914457321e-01   5.3973805159330368e-02  -1.3105420768260956e-01   9.2649601399898529e-02   6.7101225256919861e-02   1.9257250428199768e-01  -5.2515875548124313e-02  -6.6145062446594238e-02  -1.3562965393066406e-01   6.7381128668785095e-02   1.1081708967685699e-01   2.7504777908325195e-01   3.7561945617198944e-02   3.6682148929685354e-03   5.7682752609252930e-02  -2.3405969142913818e-02  -1.8704369664192200e-01  -9.3497589230537415e-02  -1.5615387819707394e-02   1.1066026985645294e-01  -4.2457950115203857e-01  -3.8043305277824402e-02  -6.7141547799110413e-02   9.5542028546333313e-02  -1.2816512584686279e-01  -9.6983931958675385e-02   4.4749322533607483e-01   4.2078964412212372e-02  -1.0088381171226501e-01  -7.6512628793716431e-01  -1.2461895495653152e-01  -4.6586915850639343e-02  -7.7174901962280273e-02  -1.5285809338092804e-01  -6.2015477567911148e-02   2.0755922794342041e-01  -1.9520634412765503e-01   3.3158786594867706e-02   4.2893722653388977e-01  -2.0725040137767792e-01  -1.4483243227005005e-01  -2.0200310647487640e-01  -2.9298759996891022e-02   2.7462180703878403e-02  -2.9158502817153931e-01  -4.0023529529571533e-01  -3.7194706499576569e-02   7.5577378273010254e-02   1.1043567210435867e-01  -3.4285053610801697e-02  -1.0023661702871323e-01   1.2214009463787079e-01   1.5321226790547371e-02  -9.0181507170200348e-02  -1.0727915912866592e-02  -3.7426695227622986e-01   4.7417029738426208e-01  -3.7772744894027710e-02  -2.7288621291518211e-02   9.4399392604827881e-02  -5.2275378257036209e-02  -1.3954798877239227e-01  -1.9647313281893730e-02  -4.3762490153312683e-02  -8.4803238511085510e-02  -8.4647089242935181e-02  -9.5266677439212799e-02  -2.0351052284240723e-02  -6.1496663838624954e-02  -2.9256409034132957e-02   1.7897689715027809e-02   6.0511257499456406e-02  -2.8109112754464149e-03   2.4909426271915436e-01  -8.7204530835151672e-02   1.1692759394645691e-01   5.9923678636550903e-02   9.5649272203445435e-02   1.4868038706481457e-02   2.8565153479576111e-01  -3.0130850151181221e-02   1.3351310789585114e-01   3.5459925420582294e-03   1.0452558100223541e-01  -1.2184565514326096e-01   3.6768767237663269e-01   1.0771174728870392e-01  -5.4856162518262863e-02  -1.4097616076469421e-01  -1.1131384223699570e-01  -3.4067802131175995e-02  -1.9102523103356361e-02  -6.9843895733356476e-02  -1.0071584582328796e-01  -2.2457693517208099e-01  -1.9182030111551285e-02   1.6924981027841568e-02   1.4729630947113037e-01  -1.5656816959381104e-01  -5.5148456245660782e-02   3.5828521847724915e-01   1.9543841481208801e-01  -1.3207392394542694e-01   1.7531546950340271e-01  -1.2465128302574158e-01  -8.7665498256683350e-02  -1.7073895037174225e-01   4.5053754001855850e-02  -1.3263243250548840e-02   9.8386518657207489e-02   6.6593986749649048e-01  -8.6818337440490723e-02   8.8614769279956818e-02  -3.3213123679161072e-02   5.1676586270332336e-02  -2.1100465953350067e-01  -2.1505929529666901e-01  -5.2848625928163528e-02   8.3747178316116333e-02   1.5386214852333069e-01  -3.6699149757623672e-02   3.7194460630416870e-02   2.5193795561790466e-02   1.9894447177648544e-02   6.8628571927547455e-02  -6.2515243887901306e-02  -1.0224793851375580e-01   4.8288498073816299e-02   6.5910065174102783e-01   2.5940236449241638e-01  -7.6980426907539368e-02  -2.5285932421684265e-01   1.1453272402286530e-01   2.2414548695087433e-01  -1.3311858475208282e-01  -5.8895215392112732e-02  -1.5549343824386597e-01   4.5593845844268799e-01   1.1858473718166351e-01  -1.9498695433139801e-01   1.5056334435939789e-01   4.7496438026428223e-02   2.0944733917713165e-01   2.9905018210411072e-01   1.2687745690345764e-01   2.6028490066528320e-01  -4.5506879687309265e-01   2.0356984436511993e-01   5.6456863880157471e-02   7.9423636198043823e-02   7.5433939695358276e-02   1.4351701736450195e-01   3.0402451753616333e-01   2.3079378902912140e-01   2.3558636009693146e-01  -1.3825061917304993e-01   2.3916387930512428e-02   2.9462881386280060e-02   8.0720260739326477e-02  -7.4615508317947388e-02   1.6964691877365112e-01   3.0672484636306763e-01   1.9841009378433228e-01  -1.8129543960094452e-01  -1.5596473217010498e-01   1.9792740046977997e-01   1.4999381266534328e-02   3.9597316645085812e-03   7.1161270141601563e-02  -7.5052738189697266e-02  -5.4758593440055847e-02   9.8806861788034439e-03  -1.1614234000444412e-01  -5.8721221983432770e-02  -1.5655522048473358e-01  -3.9707794785499573e-02  -2.2406455874443054e-01  -1.4533524215221405e-01   1.5488880686461926e-02   1.5886709094047546e-02   4.7354146838188171e-02   4.0516465902328491e-02   2.2302336990833282e-01  -1.8211973831057549e-02   1.1516326107084751e-02   8.2437194883823395e-02   8.9606426656246185e-02   9.3085229396820068e-02  -3.5822503268718719e-02   4.6672873198986053e-02   2.5267593562602997e-02  -3.4792965650558472e-01   3.3815699815750122e-01   8.0688856542110443e-02   2.5222277641296387e-01   6.5931797027587891e-02   4.0864691138267517e-02   2.3851517587900162e-02  -1.0447254031896591e-01   9.8980575799942017e-02   3.9497086405754089e-01  -3.3507955074310303e-01  -3.6588601768016815e-02  -3.8949957489967346e-01   1.8131213262677193e-02  -3.7022728472948074e-02   1.0205985978245735e-02   2.4755357299000025e-03  -3.9087194949388504e-02   5.5338466167449951e-01   3.6115989089012146e-02   9.4439402222633362e-02   2.3374535143375397e-01  -9.5834713429212570e-03  -1.8938716500997543e-02  -1.0976158082485199e-01   2.1902419626712799e-02   3.2215837389230728e-02   4.7731515765190125e-01   1.2705586850643158e-01   7.8685067594051361e-02   7.3175035417079926e-02  -5.6534606963396072e-02  -5.4896526038646698e-02  -2.6447117328643799e-01  -1.3663037121295929e-01  -3.4858465194702148e-02  -4.2550638318061829e-02  -2.6139825582504272e-01   2.1059033274650574e-01   2.4160471558570862e-01   6.9563671946525574e-02   7.6241074129939079e-03   3.5010680556297302e-01  -9.5320306718349457e-03  -8.3098942413926125e-03   1.9237923622131348e-01  -2.3305751383304596e-01  -1.2223607301712036e-01  -1.4937956631183624e-01   7.8591875731945038e-02   4.0829177945852280e-02   2.5518274307250977e-01   2.2842625156044960e-02  -3.1253807246685028e-02   3.0199304223060608e-01   6.1532072722911835e-02  -3.5631578415632248e-02  -1.0784552991390228e-01   8.8520929217338562e-02   4.3349497020244598e-02   3.3749172091484070e-01   2.2349943220615387e-01   7.9352572560310364e-02  -1.5137290954589844e-01   4.7457394003868103e-01   6.4513012766838074e-02   3.5282778739929199e-01   4.8108257353305817e-02  -4.8957113176584244e-02   8.7175771594047546e-02   6.1469472944736481e-02  -1.0695520788431168e-01   2.8049096465110779e-01   2.6303939521312714e-02  -4.4042434543371201e-02   1.1176203936338425e-01  -2.9237264767289162e-02  -1.5377818606793880e-02   2.7868473529815674e-01   1.3707092404365540e-01   2.0490817725658417e-01   1.6956672770902514e-03   8.6608149111270905e-02   1.8533651530742645e-01   4.1547548770904541e-01  -7.9151339828968048e-02   1.0762737691402435e-01  -2.2174255549907684e-01   8.8073372840881348e-02   2.8871512413024902e-01  -3.5267189145088196e-01   3.4494094550609589e-02  -1.0953651368618011e-01   7.3820494115352631e-02   1.8828716874122620e-01  -1.4096938073635101e-01  -2.0364995300769806e-01  -4.1534867137670517e-02  -7.8139357268810272e-02  -2.0231279730796814e-01  -1.7868323624134064e-01   1.6097100451588631e-02  -1.7412739992141724e-01  -6.9069802761077881e-02  -1.5924836695194244e-01   6.7363426089286804e-02  -3.2460376620292664e-01  -2.1513870358467102e-01  -6.0184168815612793e-01   1.4040216803550720e-01   1.7758229374885559e-01  -2.1192580461502075e-02  -9.7777880728244781e-02  -1.6103286296129227e-02  -1.4367547631263733e-01   9.3970268964767456e-02   2.9506674408912659e-01   7.5442835688591003e-02   5.0314337015151978e-02  -8.9855290949344635e-02  -9.6282981336116791e-02  -1.5161797404289246e-01   1.3632910326123238e-02  -2.3437920212745667e-01   9.9344998598098755e-03   2.2083394229412079e-01  -3.4412976354360580e-02   4.0684500709176064e-03  -8.3776652812957764e-02   2.3248860239982605e-01   4.9659185111522675e-02  -5.5307477712631226e-02  -1.4400954544544220e-01   8.6219117045402527e-02   8.1758834421634674e-02  -5.8748883008956909e-01  -2.7713105082511902e-01  -7.9653613269329071e-02   1.4753224328160286e-02  -5.8741569519042969e-02   4.0405575186014175e-02   9.6965283155441284e-02   1.3524812459945679e-01  -3.2146960496902466e-01   8.6918669939041138e-01  -4.4321587681770325e-01   2.2698813118040562e-03   1.0727071017026901e-01  -6.3820719718933105e-02   1.7909948527812958e-01   1.0828305967152119e-02  -4.8547897487878799e-02   4.0450078248977661e-01  -2.2015441954135895e-01  -1.9228735566139221e-01  -2.1142294630408287e-02   2.6288986206054688e-02  -3.8062762469053268e-02   1.4236654341220856e-01   3.3844274282455444e-01   1.1844502761960030e-02   2.5721642374992371e-01   1.4462345838546753e-01  -1.8165366351604462e-01   3.8977536559104919e-01   7.5366094708442688e-02   1.9943593069911003e-02  -8.5582934319972992e-02   2.0423924922943115e-01  -1.8490882217884064e-01  -8.2891479134559631e-02  -2.0294255018234253e-01  -3.1069483608007431e-02   1.3728757202625275e-01  -1.3405989110469818e-01   5.3265132009983063e-03   2.5662976503372192e-01  -3.5284927487373352e-01   1.0680854320526123e-01   1.9358846545219421e-01  -5.2249139547348022e-01   2.9240399599075317e-01  -5.0237961113452911e-02   2.2686045616865158e-02  -2.6388362050056458e-02  -1.0423117876052856e-01  -1.9148364663124084e-01   7.7245995402336121e-02   8.7822131812572479e-02  -5.8567868545651436e-03  -4.7419484704732895e-02  -1.8337997794151306e-01   7.3066376149654388e-02  -1.2597361207008362e-01   7.4624449014663696e-02  -4.7990504652261734e-02  -3.7130840122699738e-02   3.3396933227777481e-02   4.8498526215553284e-02   1.8758619204163551e-02  -8.7682373821735382e-02  -5.1224134862422943e-02   1.3371538370847702e-03  -3.3216033130884171e-02  -1.9710702821612358e-02   1.1994177475571632e-02  -3.2725709024816751e-03   1.3167249038815498e-02  -3.2993096858263016e-02   4.7285068780183792e-02   2.8974151238799095e-02  -3.2016210258007050e-02  -4.2233262211084366e-02   1.2056142091751099e-01  -3.8213357329368591e-02   2.4324668571352959e-02   9.3001440167427063e-02  -9.7735568881034851e-02   2.0127741619944572e-02   1.7025116831064224e-02  -2.6228372007608414e-02   6.1355335637927055e-03  -5.0121854990720749e-02   1.0048672556877136e-02  -6.7184008657932281e-02  -3.5642111301422119e-01   1.2824410200119019e-01   3.5022273659706116e-02   6.8440750241279602e-02  -2.1679401397705078e-02  -5.1835078746080399e-02  -1.0712178051471710e-01   1.1279102414846420e-02  -5.2056487649679184e-02   7.8506901860237122e-02  -1.7172269523143768e-02   1.4689886942505836e-02   1.1255817860364914e-01  -1.2429757043719292e-02  -2.7575090527534485e-02  -2.8957009315490723e-02  -4.0623214095830917e-02  -8.8274121284484863e-02   3.9041739702224731e-01  -1.9408266991376877e-02   9.4425044953823090e-03   4.3091955594718456e-03   7.2977063246071339e-03  -4.7040946781635284e-02  -2.3032300174236298e-02   3.7279341369867325e-02  -1.3813240826129913e-01   1.0885927826166153e-02   3.6510258913040161e-02   1.5301626175642014e-02   3.8342326879501343e-02   2.5105339009314775e-03   3.6312010139226913e-02  -2.3407168686389923e-02   2.7403632178902626e-02  -4.5342955738306046e-02   5.7079877704381943e-02   4.5437142252922058e-02  -1.7318805679678917e-02  -5.8296348899602890e-02  -6.8811066448688507e-02   2.3115264251828194e-02  -3.6222245544195175e-02   6.8274857476353645e-03  -1.2654168531298637e-02  -3.0203333497047424e-01   1.0645708441734314e-01   2.1695572882890701e-02   3.7610042840242386e-02  -1.4089469611644745e-01  -4.7843564301729202e-02   1.5913378447294235e-02  -1.5111267566680908e-02  -5.9957881458103657e-03   9.8585647344589233e-01  -1.2191193550825119e-01   5.2403710782527924e-02  -2.0971636474132538e-01   3.2457280904054642e-02  -6.7562013864517212e-02  -4.7176568768918514e-03  -4.3718345114029944e-04  -1.4664771966636181e-02   1.7060549929738045e-02  -1.2987802736461163e-02   6.4145661890506744e-03  -5.8255661278963089e-02   3.0112070962786674e-02  -2.9717966914176941e-02   6.6109374165534973e-02  -3.2055880874395370e-02   4.5651536434888840e-02  -6.6393077373504639e-01   1.1019799858331680e-01   6.5666124224662781e-02  -1.3989091850817204e-02   5.6357778608798981e-02  -3.1580381095409393e-02   1.4321936760097742e-03  -5.2474860101938248e-02   1.1259084939956665e-01  -2.1828782558441162e-01  -2.0730534195899963e-01   6.6068895161151886e-02   1.2946279346942902e-01   5.2725184708833694e-02  -2.9915200546383858e-02   1.6814605891704559e-01  -2.8092848137021065e-02  -3.2449241727590561e-02   1.7370508611202240e-01   3.7608865648508072e-02   4.7671739012002945e-02  -1.5262058377265930e-01  -3.4857843071222305e-02   2.3355679586529732e-02  -1.2575165927410126e-01  -4.8415482044219971e-02  -1.9943059980869293e-01   4.1256269812583923e-01  -5.6619446724653244e-02   4.2705845087766647e-02  -3.0225273966789246e-01  -7.0982263423502445e-03   9.5553755760192871e-02  -4.1733428835868835e-02   1.3316321186721325e-02  -1.4130876958370209e-01   2.4098403751850128e-01   1.3994894921779633e-01  -3.2304421067237854e-02   2.1536420285701752e-01   1.8302936106920242e-02   1.1331210844218731e-02   1.9160878658294678e-01   9.6675626933574677e-02  -1.0861619561910629e-01   4.9596756696701050e-01  -5.0558699294924736e-03  -4.8955562524497509e-03  -2.5149804353713989e-01  -5.4689273238182068e-02   5.7184495031833649e-02   1.2324459105730057e-01   1.5312069654464722e-01   2.2429169714450836e-01   1.2518760561943054e-01  -2.1164202690124512e-01   7.3119945824146271e-02  -2.2197356447577477e-02   5.8715496212244034e-02  -7.0001378655433655e-02  -5.1433317363262177e-02  -9.7994506359100342e-02   2.2573857009410858e-01   6.2828069925308228e-01   2.5183618068695068e-01   1.7066655680537224e-02  -6.6528782248497009e-02   3.1158594414591789e-02   1.7903201282024384e-01  -9.3876067548990250e-03  -1.5492626465857029e-02   1.7943969368934631e-01   5.6693948805332184e-02  -7.2416625916957855e-02   3.3159665763378143e-03   1.2480825930833817e-01   2.2180344909429550e-02  -6.3332371413707733e-02   1.4949111640453339e-01  -2.9698820784687996e-02  -1.8301874399185181e-01  -9.3529865145683289e-02  -9.4252035021781921e-02  -7.8979745507240295e-02   5.5309541523456573e-02  -2.8962826356291771e-02   2.0131582394242287e-02   7.1278428658843040e-03   1.2601616978645325e-01   3.2354228198528290e-02   4.4329449534416199e-02  -2.3649795353412628e-01  -5.7500969618558884e-02  -1.8095491826534271e-01   1.8723994493484497e-02  -1.6241727396845818e-02   1.4054732024669647e-01   8.5565552115440369e-02   2.7196023147553205e-03   4.6502105891704559e-02  -9.4501174986362457e-02   5.4461758583784103e-02  -1.1903147399425507e-01   5.6777894496917725e-02  -3.2931741327047348e-02   1.6631868481636047e-01   1.4867848716676235e-02   2.3211093619465828e-02  -3.3828932046890259e-01   1.3630159199237823e-01   2.4808460846543312e-02  -3.3060777187347412e-01   1.5369558334350586e-01   1.0753927379846573e-01   2.0425172150135040e-01   1.9258935749530792e-01   1.9738996028900146e-01   1.4664654433727264e-01   1.5126538276672363e-01   7.3095723986625671e-02  -2.5181416422128677e-02   6.3286975026130676e-02  -2.9815563466399908e-03  -5.6241299957036972e-02   1.5146590769290924e-01   5.6284025311470032e-02   7.9458273947238922e-02  -1.4994365163147449e-02  -1.8690017983317375e-02  -4.1001681238412857e-02   1.1525809019804001e-01  -3.0148437619209290e-01  -2.8879466652870178e-01  -2.2400400042533875e-01  -3.0268597602844238e-01   1.1752835512161255e+00   2.8169715404510498e-01  -1.6153837740421295e-01   3.6684086918830872e-01  -5.2028577774763107e-02  -5.6439414620399475e-02  -5.8639489114284515e-02   1.4796155691146851e-01  -1.5682721138000488e-01   4.5154222846031189e-01  -3.3738974481821060e-02   6.7347832024097443e-02  -9.2042520642280579e-02  -8.3999514579772949e-02  -7.6518341898918152e-02   1.6929717361927032e-01   1.9814747571945190e-01  -5.4108747281134129e-03  -8.8657617568969727e-02   3.8045540452003479e-02  -9.8829209804534912e-02  -5.0376346334815025e-03   6.1619661748409271e-02  -9.4595499336719513e-02   5.7405862957239151e-02  -3.6299124360084534e-02   4.9297917634248734e-02  -1.1809910647571087e-02  -6.7504458129405975e-02   6.7845240235328674e-02   1.5589168667793274e-01  -6.3692219555377960e-02   8.1716626882553101e-02   2.5612097978591919e-01   1.7480683326721191e-01   1.8775606527924538e-02  -6.0050364583730698e-02  -1.1292439699172974e-01   3.7307225167751312e-02   1.6635146737098694e-01  -8.5861057043075562e-02   9.2416502535343170e-02   1.4162226021289825e-01  -1.4909006655216217e-01   2.3582218587398529e-01  -2.0945601165294647e-02  -3.1321582198143005e-01  -1.3474507629871368e-01  -1.5293273329734802e-01  -2.0271433889865875e-01  -4.7382574528455734e-02   4.3456610292196274e-02  -1.9422978162765503e-01  -2.6448851823806763e-01   5.0783300399780273e-01   1.9930349290370941e-01  -5.8193106204271317e-02   1.3339708745479584e-01  -1.1517829447984695e-01  -4.3461479246616364e-02  -2.4806305766105652e-01  -3.5707053542137146e-01  -6.6298842430114746e-02  -1.1496792733669281e-01  -1.4067280292510986e-01  -5.1791433244943619e-02   1.6807839274406433e-02   2.1830350160598755e-03   2.5695033371448517e-02   2.3308390378952026e-01  -7.9036533832550049e-02   8.7921172380447388e-02  -1.5657901763916016e-01   8.1204436719417572e-02  -6.1737474054098129e-02   1.1302906274795532e-01  -4.3284486979246140e-02  -2.9166992753744125e-02  -2.5644978880882263e-01  -1.9666865468025208e-01  -6.3320174813270569e-02  -2.8765574097633362e-01  -4.5046222209930420e-01   4.2190060019493103e-02  -1.3195496052503586e-02   1.2580250203609467e-01   1.9294573366641998e-01   4.0302608162164688e-02  -3.4174524247646332e-02   3.0654534697532654e-01   3.3420339226722717e-01  -1.9025599956512451e-01  -1.0221234709024429e-01  -1.9032177515327930e-03  -7.9126559197902679e-02  -1.5417471528053284e-01  -9.3401573598384857e-02   9.7305759787559509e-02   2.8100246563553810e-02  -7.5130857527256012e-02  -2.3426622152328491e-01   1.4474679529666901e-01  -1.7191024497151375e-02  -3.8478446658700705e-03   5.0348620861768723e-02   4.0217766165733337e-01  -8.1154763698577881e-02  -2.1749393641948700e-01  -1.8942493945360184e-02   8.2552403211593628e-02  -5.2232895046472549e-02  -1.1689764261245728e-01   8.2373954355716705e-02  -1.4565262198448181e-01   5.9633110649883747e-03   6.6063322126865387e-02  -2.4786348640918732e-01  -1.7834873497486115e-01   2.1909785270690918e-01   1.2318667769432068e-01  -2.7661044150590897e-02  -6.6788576543331146e-02  -1.0443929582834244e-01   6.3831932842731476e-02   5.7636287063360214e-02  -1.7862638831138611e-01   1.6827213764190674e-01   7.7270604670047760e-02  -2.0520865917205811e-02   1.4387890696525574e-01  -4.1626963764429092e-02   1.4589258469641209e-02   8.5410676896572113e-02   9.5913060009479523e-02   1.6457432508468628e-01  -1.1335239559412003e-01   1.6501983627676964e-02   1.2105880677700043e-01   1.6039133071899414e-01   6.7211054265499115e-03  -8.9364759624004364e-02   4.3752249330282211e-02  -1.0169669054448605e-02  -1.6784030199050903e-01   2.8890037909150124e-02   3.3334600925445557e-01   3.6844572424888611e-01   5.7123370468616486e-02   1.5302899479866028e-01   1.8893389031291008e-02   1.1828417330980301e-01   3.1571146845817566e-01  -7.1256764233112335e-02   7.5658440589904785e-02   1.6014456748962402e-02   2.0884623751044273e-02  -1.3659229874610901e-01   5.9398442506790161e-02  -9.5775097608566284e-02  -6.8819485604763031e-02  -7.4047096073627472e-02  -1.2443057447671890e-01   2.3240135982632637e-02  -6.8134409375488758e-03   1.1760048568248749e-02  -2.5121816992759705e-01  -7.7258511446416378e-03   2.8220528736710548e-02  -2.0597733557224274e-01   3.4175362437963486e-02  -3.4506163001060486e-01  -2.1141251921653748e-01  -3.7596222758293152e-01  -1.3584067113697529e-02   1.5237035229802132e-02   9.1317586600780487e-02  -6.3340708613395691e-02  -9.4875805079936981e-02   6.7100837826728821e-02   3.6543302703648806e-03  -1.4392925798892975e-01   2.7954081073403358e-02  -1.3323901593685150e-01   3.8835052400827408e-02   4.5273374766111374e-02  -1.1178728193044662e-01  -2.0104718208312988e-01   1.1494913697242737e-01   1.7004199326038361e-02   1.0361976921558380e-01   2.1814587712287903e-01   1.9117033481597900e-01   1.8845514953136444e-01  -2.2456318140029907e-02   2.0271936058998108e-01  -5.8870658278465271e-02  -2.6340700685977936e-02   2.3597291111946106e-01  -1.7866432666778564e-01   1.0643319785594940e-01  -2.0959581434726715e-01  -5.8604568243026733e-02   2.4927543476223946e-02  -6.0646001249551773e-02   5.7957261800765991e-02   9.5991171896457672e-02  -1.0812103748321533e-02  -5.0997636280953884e-03   1.2194409966468811e-01   1.5616647899150848e-01   1.2710794806480408e-01  -7.9344645142555237e-02   4.0940832346677780e-02  -6.3078992068767548e-02  -9.7302086651325226e-02   3.8366533815860748e-02   7.1318000555038452e-02  -3.5102647542953491e-01   1.6932979226112366e-01  -7.2940558195114136e-02   1.6583982110023499e-01  -6.8558663129806519e-02   6.6834665834903717e-02   7.3561142198741436e-03  -1.8853905797004700e-01  -2.1840444207191467e-01   1.8242755532264709e-01   1.7224384471774101e-02   7.2240985929965973e-02  -9.2447683215141296e-02  -1.8882542848587036e-01  -6.6493349149823189e-03  -3.0962493270635605e-02  -1.0389089584350586e-01  -1.2117943167686462e-01   4.5825161039829254e-02   1.1243829131126404e-01   2.0651154220104218e-01   1.1248414218425751e-01  -5.8495968580245972e-02   1.5558415651321411e-01  -1.2975266575813293e-01  -1.7104840278625488e-01   3.7431585788726807e-01  -2.8047319501638412e-03  -1.4562292024493217e-02  -4.3594059534370899e-03  -1.0595377534627914e-01   6.2555700540542603e-02   7.1838609874248505e-02  -2.3587734904140234e-03  -5.8782488107681274e-01   2.3015569150447845e-01  -2.6756039261817932e-01  -5.6385498493909836e-02   1.2851049005985260e-01  -1.3188414275646210e-01  -2.0323015749454498e-02   1.2330394983291626e-01  -4.1294433176517487e-02  -1.5454822778701782e-01  -7.9228412359952927e-03   1.7215330898761749e-01   8.2440320402383804e-03   2.6729974895715714e-02  -1.1564870178699493e-01  -1.5103691816329956e-01   1.4532811939716339e-01   9.0498298406600952e-02  -5.6240137666463852e-02   3.9711740612983704e-01  -9.2932850122451782e-02   9.0072438120841980e-02   1.3576810061931610e-01  -1.1784543842077255e-01  -2.4413621425628662e-01  -2.5843882933259010e-02  -3.9640333503484726e-02  -6.2945269048213959e-02  -7.7472174167633057e-01   1.5357470512390137e-01   1.5280790627002716e-01  -5.6028112769126892e-02  -3.6207329481840134e-02  -4.9647890031337738e-02  -1.0973163694143295e-01  -1.1498558521270752e-01  -2.0602628588676453e-02  -6.8742215633392334e-02   1.5369614958763123e-01   2.5187307037413120e-03  -1.1781060136854649e-02   6.3494637608528137e-02  -6.7693553864955902e-02  -6.1385873705148697e-03  -5.7478208094835281e-02   2.5030776858329773e-01   2.4099175631999969e-01   1.7048662900924683e-01  -5.5849280208349228e-02   4.2838414083234966e-04  -1.1662876605987549e-01   6.7974157631397247e-02   9.5826737582683563e-02   1.3862128555774689e-01   2.3523788154125214e-01   9.1781422495841980e-02   1.2708275020122528e-01   7.8000605106353760e-02   1.5598943829536438e-01   1.1786004900932312e-01  -1.6412033140659332e-01  -4.6827346086502075e-02   8.0134160816669464e-03  -2.6757800579071045e-01  -1.7394773662090302e-01  -7.8684359788894653e-02  -4.7439843416213989e-02  -5.5652219802141190e-02  -7.3090167716145515e-03   6.0784565284848213e-03   1.7154774069786072e-01  -9.6443817019462585e-02  -4.2929083108901978e-02   8.8704332709312439e-02  -1.6691732406616211e-01   6.9083802402019501e-02  -2.7911224961280823e-01  -2.2947989404201508e-01  -1.3050171732902527e-01  -2.3356597125530243e-01   3.9031788706779480e-02  -3.7016183137893677e-01  -5.2525734901428223e-01   9.8878070712089539e-02  -2.7221348136663437e-02   2.4312724173069000e-01   4.3523266911506653e-02  -5.5509798228740692e-02   4.6468056738376617e-02   4.9096025526523590e-02   5.4121628403663635e-02  -2.1195356547832489e-01   3.1402908265590668e-02   1.1415382474660873e-01  -1.1431090533733368e-01  -2.0391906145960093e-03   4.5539936982095242e-03   9.3425050377845764e-02   1.7008233070373535e-01   5.6155499070882797e-02  -4.9737825989723206e-02   1.7625038325786591e-01   6.2662929296493530e-02   8.6562536656856537e-02   8.7548986077308655e-02   8.8718563318252563e-02   2.1766470372676849e-01   7.9623259603977203e-02   2.3364262282848358e-01   1.1575745046138763e-01   1.2440244853496552e-01   2.6817081496119499e-02  -7.6456852257251740e-02  -3.8516618311405182e-02  -2.9761049151420593e-01   1.5339136123657227e-01   1.9337177276611328e-01  -2.8511875867843628e-01   2.2325648460537195e-03  -5.5607914924621582e-02   2.0526108145713806e-01   9.2628568410873413e-02  -1.1992524378001690e-02   1.6260161995887756e-01   1.1328310519456863e-01   5.9139717370271683e-02  -1.7485636472702026e-01  -2.2427123785018921e-01   9.6139587461948395e-02   4.1809979826211929e-02   1.5210397541522980e-01   6.7194677889347076e-02  -5.2158076316118240e-02  -1.5894672274589539e-01  -1.3506251573562622e-01  -2.2875502705574036e-01   5.2385735511779785e-01  -2.6682785153388977e-01  -4.6415444463491440e-02  -2.7733749151229858e-01  -9.3874959275126457e-03  -1.9006995856761932e-01   2.3121851682662964e-01  -7.6841883361339569e-02   1.7619785666465759e-01  -2.8892442584037781e-01   4.8274572938680649e-02  -8.8358912616968155e-03  -9.1472439467906952e-02  -2.2021800279617310e-02  -1.7837908864021301e-01  -3.7491086125373840e-01  -3.1145873665809631e-01  -1.1376929283142090e-01  -7.0776030421257019e-02  -1.3717488944530487e-01  -8.7488055229187012e-02  -3.6200675368309021e-01  -1.0070449672639370e-02   4.1394930332899094e-02   1.1030974984169006e-01   7.6677151024341583e-02   2.1540918946266174e-01   5.1948916167020798e-02   3.4184947609901428e-02   5.8357547968626022e-02   1.1949871480464935e-01   2.7149368077516556e-02  -1.8177928868681192e-03  -8.7404720485210419e-02   3.7011981010437012e-02  -4.1597992181777954e-02  -1.2170403450727463e-01   2.2697949782013893e-02  -3.0537502840161324e-02  -1.9316166639328003e-02   1.0508365929126740e-02   6.6358752548694611e-02   2.1980507299304008e-02  -4.4693462550640106e-03   1.4594404958188534e-02  -3.8177290558815002e-01   5.4111097007989883e-02   8.5877832025289536e-03   1.7860224470496178e-02  -1.4472340233623981e-02  -1.5015502274036407e-01   2.2252734750509262e-02   4.9978844821453094e-02  -1.6825814545154572e-01   4.4721055030822754e-01  -3.2135851681232452e-02   8.9430175721645355e-02  -8.9507535099983215e-02   1.1190790683031082e-02   3.4930724650621414e-02   2.5836765766143799e-02   4.5800939202308655e-02  -6.3706234097480774e-02  -1.9996622204780579e-01  -1.8736002966761589e-02  -4.9900814890861511e-02  -8.5484512150287628e-02   3.1864158809185028e-02   6.7207306623458862e-02   5.0950184464454651e-02   3.7597443908452988e-02   1.1688958108425140e-01  -4.9444207549095154e-01  -5.9577543288469315e-02  -3.1240722164511681e-03   2.0457189530134201e-03  -8.4314443171024323e-02   6.5171249210834503e-02   1.4116594195365906e-01   1.1148723959922791e-01  -9.9805928766727448e-02   2.0315442979335785e-01  -4.3429974466562271e-02  -8.5472576320171356e-02  -4.8957541584968567e-02   7.4181081727147102e-03  -1.3176162540912628e-01   1.3041503727436066e-01   1.1951286345720291e-01  -2.2852186113595963e-02   5.4006416350603104e-02   1.1954107880592346e-01  -3.4962836652994156e-03  -2.4004176259040833e-02   1.6757065057754517e-01  -2.4400970339775085e-01   4.9373146146535873e-02  -6.1880934983491898e-02  -1.1477531492710114e-01   2.6212021708488464e-01   5.2739415317773819e-02   1.1473004706203938e-02  -1.0190543532371521e-01   3.0827982351183891e-02  -8.5801795125007629e-02   8.9542254805564880e-02  -1.1784126609563828e-01   1.2468030303716660e-01  -3.9942529052495956e-02   5.2216783165931702e-02  -1.0286286473274231e-01   1.7118087038397789e-02  -2.9417026787996292e-02   8.5490234196186066e-02   2.0286731421947479e-02  -5.9047009795904160e-02  -1.9658319652080536e-02  -1.9174525141716003e-01   2.0202117040753365e-02  -5.4073877632617950e-02   6.2130875885486603e-02  -1.1234957724809647e-02  -7.8221686184406281e-02  -4.8063331842422485e-01  -5.2479680627584457e-02  -8.6060956120491028e-02  -3.3213639259338379e-01  -1.3206587731838226e-01  -2.0591947436332703e-01   1.7703479528427124e-01  -8.7322555482387543e-02
