   1.2487807124853134e-01   4.8890486359596252e-01  -5.1383465528488159e-02  -3.4788879752159119e-01  -2.0418883860111237e-01   2.7476841211318970e-01  -4.6918433904647827e-01  -3.5096082091331482e-01  -1.2541788816452026e-01  -2.9447084665298462e-01   3.7179479002952576e-01   2.4889381229877472e-01   3.3606460690498352e-01   4.3548792600631714e-01  -1.3801965117454529e-01  -4.3119926005601883e-02   2.5540541857481003e-02  -3.1290808320045471e-01  -3.3999836444854736e-01  -1.8922762572765350e-01  -1.7206504940986633e-01  -2.3519791662693024e-02  -3.4384456276893616e-01   1.7226234078407288e-01  -3.5217511653900146e-01  -2.1046318113803864e-01  -1.3650652766227722e-01   9.3965716660022736e-02   3.6540620028972626e-02  -9.1747278347611427e-03   1.9455455243587494e-01  -2.7827292680740356e-01  -1.9585843384265900e-01  -7.7440492808818817e-02  -1.0591297596693039e-01   3.8451233506202698e-01   2.1821260452270508e-01   1.6192545881494880e-03   7.7840626239776611e-02  -1.5317414700984955e-01  -2.8512632846832275e-01   1.9723387062549591e-01  -4.9699731171131134e-02   3.9932435750961304e-01  -3.2706347107887268e-01  -1.6422035172581673e-02   4.6522432565689087e-01  -2.1989864110946655e-01   1.5404181182384491e-01  -8.9995332062244415e-02  -9.6629962325096130e-02   9.7534283995628357e-03  -2.8923285007476807e-01  -6.1531122773885727e-03  -1.2395291030406952e-01   3.2590419054031372e-01  -5.2332299947738647e-01   1.3019167818129063e-02   3.5457298159599304e-01  -9.9539212882518768e-02   1.9456771016120911e-01   2.1974653005599976e-01   1.3481384515762329e-01   9.0455383062362671e-02   2.1709598600864410e-01  -2.0527033135294914e-02  -9.9587328732013702e-02  -2.2197185456752777e-01   1.4182436466217041e-01  -5.2448904514312744e-01  -1.2613981962203979e-01   1.5910848975181580e-01  -1.8558591604232788e-01  -4.4729895889759064e-02  -5.8864373713731766e-02  -3.4221317619085312e-02   5.5531397461891174e-02   1.8789424002170563e-01  -1.2818019837141037e-02  -3.6179351806640625e-01   4.0077990293502808e-01   5.5420338176190853e-03  -5.5462278425693512e-02  -7.1356788277626038e-02  -3.5370928049087524e-01  -2.4762693047523499e-01  -3.3483883738517761e-01   2.0382938906550407e-02   1.7988884449005127e-01  -1.8903422355651855e-01  -6.1454623937606812e-02  -3.8120913505554199e-01  -2.0788234472274780e-01  -4.1325762867927551e-01   3.7979722023010254e-01  -1.7077070474624634e-01   2.9318181797862053e-02   4.7371634840965271e-01   2.2282199561595917e-01  -5.0191950798034668e-01   3.3406037092208862e-01   2.4986257776618004e-02   2.2730606794357300e-01   1.6692133620381355e-02  -9.2176042497158051e-02   7.0698730647563934e-02  -8.0835990607738495e-02   6.2323480844497681e-02   2.9060307145118713e-01  -4.2191979289054871e-01  -4.8461234569549561e-01  -4.4473129510879517e-01   4.4261106848716736e-01   1.6086007654666901e-01   2.1531945466995239e-01   1.3962602615356445e-01  -3.4313451498746872e-02   1.4914461970329285e-01  -2.9416024684906006e-01   1.9924610853195190e-01   2.1209949627518654e-02   4.6641003340482712e-02  -1.0620115697383881e-01   1.6319072246551514e-01   1.2866407632827759e-01  -6.2426990270614624e-01  -2.8730356693267822e-01   2.8335374593734741e-01   1.4762800931930542e-01  -6.2128167599439621e-02  -5.5274881422519684e-02   3.1184273958206177e-01  -3.1682267785072327e-01   9.8967269062995911e-02  -5.3999189287424088e-02  -9.4332814216613770e-02  -2.1103657782077789e-01   2.7708247303962708e-01  -1.4172638952732086e-01  -2.5332796573638916e-01   2.1920719742774963e-01   2.5486907362937927e-01   2.6740620378404856e-03  -7.5807362794876099e-02   1.8139166757464409e-02  -1.3776825368404388e-01  -7.0272952318191528e-02   1.8033565953373909e-02   9.7007147967815399e-02  -1.8576048314571381e-01   7.7211767435073853e-02   2.0030803978443146e-01   1.0643187910318375e-01  -1.0130053758621216e-01  -3.6185763776302338e-02   3.4848589450120926e-02  -7.3525182902812958e-02  -1.2422275543212891e-01   2.3405759036540985e-01  -3.5048791766166687e-01   8.2372888922691345e-02   5.7302218675613403e-01   5.5205005407333374e-01  -9.6926972270011902e-02   1.1095014959573746e-01  -3.0156335234642029e-01   1.2894426286220551e-01  -1.4692123234272003e-01  -2.4261815845966339e-01   6.0967322438955307e-02  -1.0945826768875122e-01  -6.0725737363100052e-02   1.3515363633632660e-01   3.6119300127029419e-01  -5.6436531245708466e-02   1.4034621417522430e-01  -3.3715772628784180e-01   1.8228259682655334e-01  -3.0481106042861938e-01  -2.5110363960266113e-01  -1.5284216403961182e-01  -3.4817138314247131e-01  -2.5779810547828674e-01   2.4967959150671959e-02  -1.8761880695819855e-01  -1.2499035149812698e-01   5.6832905858755112e-02  -8.4325380623340607e-02   1.4369017444550991e-02  -1.0641057044267654e-01   1.3357017934322357e-01  -2.6696094870567322e-01  -1.5764355659484863e-01  -1.6182194650173187e-01  -1.5395639836788177e-01   8.6610145866870880e-02   1.9795209169387817e-01  -6.4759963424876332e-04   8.0555394291877747e-02  -4.8255094885826111e-01   2.9197895526885986e-01  -1.4618785679340363e-01  -1.8647861480712891e-01  -2.1622310578823090e-01   3.3115930855274200e-02   2.8057117015123367e-02   1.3662923872470856e-01   2.1354040503501892e-01   5.1554852724075317e-01   2.7380239963531494e-01  -3.7182539701461792e-02  -2.7601420879364014e-01  -1.3028225302696228e-01  -1.2646198272705078e-02   1.8674318492412567e-01  -1.0700664669275284e-01  -2.2677956521511078e-01  -2.5865909457206726e-01  -3.2903176546096802e-01  -1.5296383202075958e-01  -1.6687992215156555e-01   8.8514536619186401e-02  -1.9842434674501419e-02  -1.9237686693668365e-01   2.5772890448570251e-01   9.4114020466804504e-02   3.4745953977108002e-02  -2.2983151674270630e-01   2.1637672185897827e-01   1.7494031786918640e-01   1.8570308387279510e-01   1.7691481858491898e-02   2.4278480559587479e-02  -2.3654752969741821e-01  -7.8798688948154449e-02   5.3688836097717285e-01  -4.6357807517051697e-01   6.4109787344932556e-02   1.8064263463020325e-01   3.0959305167198181e-01  -5.5575177073478699e-02   2.4323697388172150e-01   3.3564880490303040e-02  -8.1478774547576904e-02  -5.9303164482116699e-02   3.8139027357101440e-01   5.8560594916343689e-02  -4.9194416403770447e-01  -1.5159776806831360e-01   9.9573247134685516e-02  -3.2950150966644287e-01   6.0964536666870117e-01   1.7581552267074585e-01   1.2417072430253029e-02  -4.8653998970985413e-01  -1.2917098402976990e-01  -2.4422869086265564e-01   3.0030322074890137e-01  -3.9802351593971252e-01  -4.8081871867179871e-01  -2.5169771909713745e-01  -1.8250109255313873e-01  -1.7266042530536652e-01   5.3233605623245239e-01   8.4201902151107788e-02   1.2841475009918213e-01   1.9833193719387054e-01   2.4884551763534546e-01   4.9121835827827454e-01   1.4810267090797424e-01   1.1852511204779148e-02  -2.0975174009799957e-01  -1.8872073292732239e-01  -7.0149935781955719e-02   1.6173410415649414e-01   1.8050079047679901e-01  -1.3011520728468895e-02   9.4244696199893951e-02  -4.4422918558120728e-01  -4.0656730532646179e-01   2.3844042420387268e-01   5.7722359895706177e-02  -1.8349403142929077e-01  -2.4814184010028839e-01  -6.4782559871673584e-01   7.4190491437911987e-01   3.4744840860366821e-01  -1.1322686076164246e-01   8.3741515874862671e-02  -1.5820677578449249e-01   3.5901721566915512e-02   1.8955789506435394e-02  -1.4169801771640778e-01   2.3801919817924500e-01  -5.4562538862228394e-02   1.3049170374870300e-01   3.9379930496215820e-01  -1.9041772186756134e-01   2.2107622027397156e-01  -1.6264423727989197e-01   2.8341066837310791e-01   2.9882371425628662e-01   6.0150027275085449e-02  -2.9867559671401978e-01  -1.3907827436923981e-01   3.6497402191162109e-01  -2.9488238692283630e-01   1.9036222994327545e-01   7.8798525035381317e-02  -4.4832244748249650e-04   1.1511537432670593e-01  -1.7363643273711205e-03   1.6711225733160973e-02   3.1199225783348083e-01   2.7185732126235962e-01   1.3910449109971523e-02   9.8649889230728149e-02  -1.9760714471340179e-01  -1.6504928469657898e-01   2.4866256117820740e-01  -1.1988935875706375e-04  -6.5499492920935154e-03   2.6863607764244080e-01  -2.4428255856037140e-01   1.5160109102725983e-01   5.3184375166893005e-02   1.3564065098762512e-01  -2.0099254325032234e-02  -2.7401056885719299e-01  -2.0437200367450714e-01   1.9937381148338318e-02  -2.2409254312515259e-01   5.1816746592521667e-02   1.4056320488452911e-01   5.1301103830337524e-01   3.7876539863646030e-03  -2.0995751023292542e-01   1.1765750497579575e-01   2.4527247250080109e-01   1.9778909161686897e-02  -1.1020412296056747e-01  -7.5864076614379883e-02  -1.6864313185214996e-01  -1.5631836652755737e-01   3.0040812492370605e-01   6.4315065741539001e-02   3.2432609796524048e-01  -1.0059098154306412e-01   3.2605695724487305e-01  -2.0338517427444458e-01  -2.1906645596027374e-01   5.2183024585247040e-02  -9.2102378606796265e-02  -2.5409892201423645e-01   4.2255707085132599e-02   2.7751123905181885e-01  -4.9195224046707153e-01  -5.5774180218577385e-03  -6.1529908329248428e-02   1.1540428549051285e-01  -5.8601092547178268e-02  -2.7037778496742249e-01  -1.4609728753566742e-01   1.6424197703599930e-02  -3.8555294275283813e-01   1.3247369229793549e-01   2.1778738498687744e-01  -1.2201064825057983e-01   6.6377393901348114e-02   1.6708064079284668e-01  -2.0201356709003448e-01  -1.9118335843086243e-01   2.0718120038509369e-01   4.5716983079910278e-01   7.6086260378360748e-02  -2.6393559575080872e-01   1.0779951512813568e-01   4.4300484657287598e-01   9.0081125497817993e-02  -6.4767301082611084e-01  -4.0151613950729370e-01   6.5871275961399078e-02  -1.5214528143405914e-01  -3.4937861561775208e-01   7.7859520912170410e-02  -2.8035667538642883e-01   5.1895737648010254e-02  -5.4269146174192429e-02  -1.7007809132337570e-02  -1.5880611538887024e-01   4.0136164426803589e-01  -1.0180655121803284e-01   1.5469025075435638e-01   5.9675641357898712e-02   2.0699796080589294e-01   9.3235011445358396e-04   2.3226330056786537e-02  -8.0425955355167389e-02  -3.9050185680389404e-01  -4.8639100790023804e-01  -2.3858098685741425e-01  -1.1822447925806046e-01  -3.1626477837562561e-02   5.0269052386283875e-02   1.8238263204693794e-02  -2.7775603532791138e-01  -1.7146069556474686e-02   4.5059684664011002e-02  -5.0761554390192032e-02   1.0402741283178329e-01  -8.7365560233592987e-02  -4.5805931091308594e-02   3.2376813888549805e-01  -3.5121732950210571e-01  -9.8240874707698822e-02  -5.6037802249193192e-02   2.9919809103012085e-01   1.2820295989513397e-01  -2.7262219786643982e-01   2.5984278321266174e-01  -3.6831220984458923e-01  -7.6165944337844849e-02  -1.3443240523338318e-01  -1.5585169196128845e-01  -4.3556869029998779e-02   4.8952639102935791e-01  -2.2518038749694824e-01   1.1329582333564758e-01   1.2109814211726189e-02  -1.9266003370285034e-01   2.6265880465507507e-01   1.6309337317943573e-01  -4.0245819091796875e-01   4.6438661217689514e-01   2.1541337668895721e-01  -6.7210182547569275e-02  -7.5779639184474945e-02  -1.6180315613746643e-01   1.2625578045845032e-01  -4.8329672217369080e-01  -4.5821034908294678e-01  -2.2503063082695007e-01   7.4361987411975861e-02   2.4174824357032776e-01   1.1584857106208801e-01   8.2545660436153412e-02  -1.7413303256034851e-02   2.7454647421836853e-01   3.7654089927673340e-01   3.0271211266517639e-01  -2.2387970983982086e-01  -3.9203268289566040e-01  -1.6183251142501831e-01  -3.4411460161209106e-02   1.3641013205051422e-01  -1.4415486156940460e-01  -2.6092231273651123e-01   8.1516362726688385e-02  -2.7088649570941925e-02   2.5696793571114540e-02   6.5223120152950287e-02   2.2911836206912994e-01  -2.0675761997699738e-01   1.5409052371978760e-01  -1.7178736627101898e-01   1.1949552595615387e-01   7.4259087443351746e-02  -3.6721229553222656e-01  -4.2135715484619141e-02  -6.8048506975173950e-02   2.1509851515293121e-01   2.4364583194255829e-01   2.0832434296607971e-01   3.8694182038307190e-01   1.2772117555141449e-01  -3.5289645195007324e-01   7.4868947267532349e-02  -1.9527287781238556e-01   5.2787158638238907e-02  -1.6751089692115784e-01  -2.0926028955727816e-03   3.3429212868213654e-02   1.9918588921427727e-02  -3.7797309458255768e-02   1.3931734859943390e-01  -4.3338519334793091e-01  -1.4120723307132721e-01   5.2481189370155334e-02   2.0906205475330353e-01   2.0482654869556427e-01  -1.9136717915534973e-01   2.5004878640174866e-01  -3.2176917791366577e-01   5.4424826055765152e-02   1.1421845853328705e-01   2.0281569659709930e-01   1.0455138981342316e-02  -3.9840745925903320e-01   2.0459172129631042e-01  -2.7271378040313721e-01  -3.4241399168968201e-01  -2.7148344088345766e-04  -1.0261246003210545e-02   2.4958062567748129e-04   1.0095342248678207e-01   1.8290162086486816e-01  -2.9914239421486855e-02  -1.7637543380260468e-02   1.1393152922391891e-01   1.5070838853716850e-02   1.0392411053180695e-01   1.6632238030433655e-01  -6.5539777278900146e-01  -2.4108000099658966e-01   7.9639796167612076e-03   4.6645764261484146e-02  -4.4081440567970276e-01   2.4614225327968597e-01   1.2647399306297302e-01   4.0961470454931259e-02  -1.0156344622373581e-02   2.0961797237396240e-01  -1.9349309802055359e-01  -8.8654629886150360e-02   7.7057510614395142e-02   7.3276840150356293e-02   2.2923441603779793e-02  -9.6271067857742310e-02   3.1576015055179596e-02   1.9737240672111511e-01  -2.2115540504455566e-01  -8.6747926473617554e-01   3.1877255439758301e-01  -5.0555042922496796e-02   1.2745112180709839e-01   1.1767300218343735e-01  -4.3700616806745529e-02  -3.5766527056694031e-01   1.0953501611948013e-01  -3.2797560095787048e-02   1.3001702725887299e-01   2.5096765160560608e-01  -3.4921318292617798e-02  -4.1065460443496704e-01   2.8426519036293030e-01  -6.4862124621868134e-02  -7.8498475253582001e-02   8.4873296320438385e-02  -8.1339627504348755e-02  -2.2378021478652954e-01   2.1957804262638092e-01  -4.8549795150756836e-01   4.2712584137916565e-01  -1.0131520777940750e-01  -1.7197588086128235e-01  -2.1293179690837860e-01   9.5389090478420258e-02  -1.5980972349643707e-01   1.2492571258917451e-03  -2.5371369719505310e-01   1.4466659724712372e-01  -2.5346547365188599e-01   3.1670644879341125e-01  -2.9746871441602707e-02   2.4998195469379425e-01   7.1744240820407867e-02   1.7208528518676758e-01   3.1538599729537964e-01  -3.0472886562347412e-01   2.0354022085666656e-01  -1.3389608822762966e-02  -1.9454203546047211e-01  -9.8078414797782898e-02   1.6668492555618286e-01  -1.9741398096084595e-01  -3.5773184895515442e-01   1.0479770600795746e-01  -3.0822113156318665e-01   2.4480554461479187e-01  -9.8525792360305786e-02   7.7406438067555428e-03   6.4371392130851746e-02  -1.6536431014537811e-01  -1.7848584055900574e-01   1.0984154045581818e-01   5.6356228888034821e-02  -8.5393741726875305e-02   2.0017793402075768e-02  -2.1173170208930969e-01  -2.7506667375564575e-01  -2.2629381716251373e-01  -3.8163110613822937e-01   2.9924750328063965e-02   3.3592084050178528e-01   1.8258740007877350e-01  -6.0030028223991394e-02  -2.6183801889419556e-01   2.3133340477943420e-01   4.5207598805427551e-01  -2.9413938522338867e-01   2.1523369848728180e-01  -7.1784786880016327e-02  -8.6145378649234772e-02  -1.6345061361789703e-01   1.7903968691825867e-01  -3.5871446132659912e-01   3.3487525582313538e-01  -3.0411314964294434e-01  -1.5578824281692505e-01   1.5918587148189545e-01  -1.6849733889102936e-02   1.3568300008773804e-01  -1.0724872350692749e-01  -4.2261876165866852e-02   2.2349964082241058e-01  -1.5466724336147308e-01   1.3181522488594055e-01  -1.3232019543647766e-01  -2.9481646418571472e-01   8.0711171030998230e-02  -1.9505162537097931e-01  -5.3029753267765045e-02  -5.5274958722293377e-03   8.2913540303707123e-02  -7.3398187756538391e-02   1.5617030858993530e-01   4.9721334129571915e-02  -5.2164930850267410e-02   1.8951654434204102e-01  -1.9762195646762848e-01  -1.8052066862583160e-01  -5.0796601921319962e-02   4.8512044548988342e-01  -8.4578581154346466e-02  -5.3960159420967102e-03   1.0757490992546082e-01  -3.2092401385307312e-01   2.6403841376304626e-01   1.8245294690132141e-01  -4.0722310543060303e-02   7.3235996067523956e-02  -2.4778569117188454e-02  -1.6785982251167297e-01  -1.5242211520671844e-01   2.8531545400619507e-01  -1.8598173558712006e-01   1.9031634926795959e-01   3.7138454616069794e-02   3.0571702122688293e-01  -8.7950803339481354e-02  -2.5754408910870552e-02   2.1399810910224915e-01  -3.0995619297027588e-01   3.2691130042076111e-01   4.0051594376564026e-02  -1.1341068893671036e-01  -4.5020005106925964e-01   5.6053172796964645e-02  -3.0127668753266335e-02  -3.5277059674263000e-01   4.8169243335723877e-01   2.0585620403289795e-01  -3.1693913042545319e-03  -1.3733534514904022e-01  -1.7012773454189301e-01  -3.3144304156303406e-01  -1.0736116021871567e-01  -3.0003905296325684e-01   4.3622490018606186e-02   3.4727897495031357e-02   2.4965155124664307e-01   1.4695939421653748e-01
