  -6.3852808671072125e-04  -8.0851308302953839e-04   1.4248732477426529e-03  -8.5590156959369779e-04  -3.8075449410825968e-03  -6.4288694411516190e-03  -5.6790979579091072e-03  -7.3045459575951099e-03   4.3605209793895483e-04   6.6018901998177171e-04  -1.3667611638084054e-03  -1.7141194548457861e-03  -9.8824268206954002e-04  -2.3332857526838779e-03  -2.0573392976075411e-03   7.0641464553773403e-03   2.1027126349508762e-03   4.1947909630835056e-03   2.7791643515229225e-03   4.1654924862086773e-03  -1.8285552505403757e-04  -1.3066046813037246e-04   1.3719223439693451e-02   1.9214626401662827e-02   2.2575080394744873e-02   3.8555448409169912e-03   6.4891190268099308e-03  -4.9879809375852346e-04   1.0857666347874328e-04   1.0469207772985101e-03   9.2860190197825432e-03   1.1848046444356441e-02  -3.0534439720213413e-03  -7.8821368515491486e-03  -8.4733003750443459e-03   5.0918878987431526e-03  -3.0285471584647894e-03  -3.8559827953577042e-03  -4.5104920864105225e-03  -2.3965407162904739e-02  -6.5801925957202911e-02  -5.3084541112184525e-02  -3.4505994990468025e-03  -1.0020113550126553e-02  -4.8639788292348385e-03   4.4851847924292088e-03   4.8390547744929790e-03   2.2149889264255762e-03   1.6140732914209366e-02   6.0263920575380325e-02   6.2616080045700073e-02   2.7114309370517731e-02   2.1020830608904362e-03   4.9896538257598877e-03  -9.5775024965405464e-04  -1.4312515268102288e-03   2.6020153891295195e-03   1.6512505710124969e-02   1.8601320683956146e-02  -1.1602704413235188e-02  -1.6083804890513420e-02  -4.8560071736574173e-03   1.8790576141327620e-03  -9.1802107635885477e-04   1.8121604807674885e-03  -4.6820496208965778e-03  -2.1727111190557480e-02  -2.2234225645661354e-02  -1.3488308526575565e-02  -1.1055630166083574e-03   6.7385281436145306e-03   3.5296624992042780e-03   3.0118217691779137e-03  -2.1785912103950977e-03  -4.8787342384457588e-03  -4.4395888107828796e-04   3.4162660595029593e-03  -1.7378854099661112e-03   4.2401460814289749e-04   2.4678688496351242e-03  -3.2403611839981750e-05   1.7239077715203166e-03   3.1746348831802607e-03   3.1990488059818745e-03   4.5853299088776112e-03   8.7091065943241119e-03   8.4254480898380280e-03  -9.9588162265717983e-04  -2.8148391284048557e-03   1.9811828678939492e-04  -1.7427074490115047e-03  -1.3056667521595955e-03  -1.1919473763555288e-03  -3.5649945493787527e-03  -5.8226226828992367e-03  -2.7838586829602718e-03  -3.0766583513468504e-03  -1.4844958204776049e-03  -2.4726507253944874e-03  -4.8759588971734047e-03   3.5148549359291792e-03   3.3859584946185350e-03  -1.0542363859713078e-02  -1.9741576164960861e-02  -1.6141019761562347e-02  -2.9820464551448822e-03   1.5139051247388124e-03  -2.2137276828289032e-03  -5.4541537538170815e-03   6.6091427579522133e-03   1.3994593173265457e-02   7.5256428681313992e-04   1.8431367352604866e-02   1.2110704556107521e-02  -4.8651153338141739e-04  -1.0160682722926140e-03  -2.1372761111706495e-03  -7.1337088011205196e-03   4.5968396589159966e-03   1.7422573640942574e-02  -4.4661667197942734e-03   1.5599986538290977e-02   6.4725711941719055e-02   8.9475270360708237e-03  -1.2988211587071419e-02  -1.2067866045981646e-03  -2.2282747086137533e-03   1.8518118886277080e-03   5.6166728027164936e-03  -8.1268148496747017e-03  -5.7797797024250031e-02  -2.8805390000343323e-02   2.2866795770823956e-03  -4.1776881553232670e-03  -1.6216700896620750e-04   5.7423091493546963e-03   2.3248379584401846e-03  -5.8948807418346405e-03   1.2932119891047478e-02   1.3521329499781132e-02  -1.9393784925341606e-02  -5.8525321073830128e-03   1.1342677753418684e-03  -1.4095026999711990e-03   4.3770587071776390e-03  -4.2480570264160633e-03  -1.2876851484179497e-02   1.3400627067312598e-03   1.7387153580784798e-02   1.4979189261794090e-02   7.8092627227306366e-03   3.5555721260607243e-03  -2.1892741788178682e-03   1.2223244411870837e-03   1.0348042706027627e-03  -3.2734912820160389e-03  -1.1208694195374846e-03  -6.5577928908169270e-03  -6.5511395223438740e-04   9.7191473469138145e-04   1.1291682021692395e-03  -1.0036148596554995e-03   2.0721890032291412e-03   5.6137121282517910e-04   2.5338628329336643e-03  -8.2657142775133252e-04   2.0994946826249361e-03   2.5273486971855164e-03   2.6916221249848604e-03  -4.0607214905321598e-03  -7.2211900260299444e-04   1.1428025318309665e-03  -6.2589836306869984e-04  -1.5257836785167456e-03  -3.6556243430823088e-03  -2.0989894401282072e-03  -1.2152359122410417e-03   4.6998400648590177e-05   2.2833237890154123e-03   1.1420472292229533e-03   3.0714403837919235e-03  -5.8197113685309887e-04  -9.7721824422478676e-03  -1.4995906502008438e-02  -1.5920653939247131e-02  -3.3095416147261858e-03   6.4457743428647518e-03   6.2000844627618790e-03   2.1645426750183105e-03   3.8825671654194593e-03   1.0332952952012420e-03   4.5531036448664963e-05   5.3242188878357410e-03   2.3563113063573837e-02   1.6072113066911697e-02  -6.9626444019377232e-03   6.3087390735745430e-03   3.9278022013604641e-03   5.2934638224542141e-03  -7.0167903322726488e-04  -1.0420154780149460e-02   2.1970316767692566e-02   6.6832624375820160e-02  -2.0300464238971472e-03  -2.1839257329702377e-02   1.9808260258287191e-03  -3.7304048892110586e-03   3.9150877855718136e-03  -2.2048526443541050e-03  -1.2966200709342957e-02  -2.0400702487677336e-03  -2.2017103619873524e-03  -3.0747232958674431e-02   7.5010489672422409e-03   1.5956368297338486e-02   4.1426680982112885e-03  -1.1999887647107244e-04   9.4592389359604567e-05   2.5092354044318199e-03  -1.6143747780006379e-04   1.4488101005554199e-03  -2.8748344630002975e-04   8.2187876105308533e-03   9.0776085853576660e-03   5.6449449621140957e-03  -1.4552689390257001e-03   3.7352014333009720e-03   1.1916474904865026e-03   4.6827080659568310e-03   1.6115792095661163e-02  -3.5565132275223732e-03  -1.3754207640886307e-02  -9.7399707883596420e-03  -3.7453018594533205e-03   2.2984351962804794e-03   1.1021215468645096e-03  -1.3639965327456594e-03   2.0744483917951584e-03   1.8812040798366070e-03  -3.4533212892711163e-03   3.3352635800838470e-03   6.8818009458482265e-04   1.3906093081459403e-03   2.3745750077068806e-03  -2.7134831179864705e-04   4.4367191730998456e-04   8.1209436757490039e-04   6.3948389142751694e-03   8.1615796079859138e-04   1.9350798102095723e-03  -5.3806457435712218e-04  -2.5986288674175739e-03   2.0741184707731009e-03  -1.9186785211786628e-03  -1.7225940246134996e-03  -3.0144525226205587e-03   2.4940294679254293e-03  -6.7948841024190187e-04   6.7011557985097170e-04  -3.0952258966863155e-03  -3.9692069403827190e-03   1.4490884495899081e-03  -3.2343543134629726e-03  -3.6174478009343147e-03  -8.4066819399595261e-03  -2.2717440500855446e-02  -1.9024966284632683e-02  -8.3806356415152550e-03  -3.0821266118437052e-03   2.3469768930226564e-03   1.8966709030792117e-03   2.5142405647784472e-03   1.0126421228051186e-02   3.7449602968990803e-03   2.7247028425335884e-02   6.6841444931924343e-03   2.3722994956187904e-04   8.2712583243846893e-03   2.4695771280676126e-03   1.9225728465244174e-03  -1.9690504996106029e-04   7.2187338955700397e-03  -2.6678780093789101e-02   3.5939589142799377e-03  -2.2862745448946953e-02  -8.1398282200098038e-03   5.7682418264448643e-03   3.5766046494245529e-03   3.4512020647525787e-03   1.9575974438339472e-03   6.9920797832310200e-03  -1.6105539398267865e-03  -1.0609051212668419e-02  -2.0215110853314400e-03   7.7415956184267998e-03  -4.1572777554392815e-03   7.3332025203853846e-04   6.2910956330597401e-04   6.4732506871223450e-04   4.1766427457332611e-03  -1.0568093508481979e-02   5.9048961848020554e-03   4.2613572441041470e-03  -6.6502592526376247e-03  -1.4657162828370929e-03  -4.5662108459509909e-04   1.0366471251472831e-03   4.9441360170021653e-04   3.5434726160019636e-03  -9.7493798239156604e-04   1.2859424576163292e-02   3.3111760858446360e-03  -7.0426252204924822e-04  -4.1865650564432144e-04   3.4996045287698507e-03   3.8122863043099642e-03  -2.3427568521583453e-05   1.8613309657666832e-04  -2.1208557300269604e-03   7.2105219587683678e-03  -1.3688548933714628e-03   1.5879326965659857e-03   2.6545149739831686e-04   1.6020889161154628e-03  -3.0143526382744312e-03  -1.5283089596778154e-03   3.4511805279180408e-04   1.4220211887732148e-03  -1.6645177674945444e-04  -3.1450111418962479e-03  -9.6276943804696202e-04  -2.3277273867279291e-03   1.4044519048184156e-04   1.3110422296449542e-03   6.7972030956298113e-04  -1.0629026219248772e-03   2.1218549227342010e-04   1.4523443533107638e-03   2.7675477322191000e-03   2.0874796900898218e-03   3.1235772185027599e-03   3.2191942445933819e-03   1.5518275322392583e-03  -1.2498814612627029e-03  -7.1836924180388451e-03  -4.0017408318817616e-03   1.5751324826851487e-03  -1.6694972873665392e-04  -1.1357198236510158e-03   1.3879481703042984e-03   1.2320842361077666e-03  -2.9770474066026509e-04  -1.6566306585446000e-03  -4.8048873431980610e-03   6.6825090907514095e-03  -1.4133813790977001e-02  -7.0857768878340721e-03   1.4938210370019078e-03  -3.5019093193113804e-03  -1.4235791750252247e-03  -1.6644157003611326e-03  -2.8085778467357159e-03   1.0459896875545382e-03  -5.3645940497517586e-03   1.0121904313564301e-02   1.0397877544164658e-02  -7.1342056617140770e-04   1.1999835260212421e-03  -3.7608284037560225e-03  -2.6791007257997990e-03   4.0726538281887770e-04   5.7414942421019077e-03  -4.1643250733613968e-03  -1.7938500270247459e-02  -9.5760906115174294e-03  -3.6992453970015049e-03   3.5267015919089317e-03   3.8628957699984312e-03  -2.7644939254969358e-03   1.3718884438276291e-03   3.6805341951549053e-03   9.0659194393083453e-04  -1.5724285040050745e-03   3.9404461858794093e-05  -6.1820973642170429e-03   4.4326633214950562e-03   4.9726692959666252e-03  -3.6078470293432474e-03   6.0660135932266712e-04   1.3291835784912109e-03  -4.8967609182000160e-03  -1.1360842036083341e-03   8.3553940057754517e-03  -3.7240458186715841e-03  -1.2963723565917462e-04   3.8810147088952363e-04  -1.7949822358787060e-03   2.7947308262810111e-04  -5.1633955445140600e-04   1.3329436769708991e-03  -5.8605307713150978e-03  -1.8215697491541505e-03  -1.1759045301005244e-03  -4.0635131881572306e-04   7.3371687904000282e-04  -2.0405012182891369e-03  -7.5200194260105491e-04   2.6070859748870134e-03   3.6862441338598728e-03   2.9407141264528036e-03  -2.3074394557625055e-03  -4.7077261842787266e-03   1.7379546770825982e-03   1.4937220839783549e-03  -2.4747401766944677e-05   1.0091168805956841e-03   6.8528921110555530e-04  -6.5757299307733774e-04   3.7449838127940893e-03   3.3979399595409632e-03  -3.5810130648314953e-03  -2.5205246638506651e-03  -2.2440419998019934e-03   1.8815193325281143e-03  -2.5014362763613462e-03   2.3286000359803438e-03  -8.8703222572803497e-03  -9.2640621587634087e-03   4.5161326415836811e-03   5.5301641114056110e-03   1.5847134636715055e-03  -1.1432253522798419e-03   6.8165635457262397e-04  -3.9630471728742123e-03  -6.0350280255079269e-03   6.9918399676680565e-03  -3.8305660709738731e-03  -4.4814199209213257e-03   6.5776391420513391e-04  -3.0202651396393776e-04  -3.0549126677215099e-03  -4.1337689617648721e-04  -2.6052419561892748e-03  -4.3490130337886512e-04   6.4626275561749935e-03   1.8411451950669289e-02   7.4581126682460308e-03  -3.8254790706560016e-04  -4.6238922514021397e-03  -5.0709242932498455e-03   3.5809976980090141e-03   1.6935960156843066e-03   9.2098992317914963e-03  -3.2439153641462326e-02  -5.0626412034034729e-02   2.4637756869196892e-02   1.5310268849134445e-02  -5.9362822212278843e-03  -1.6341868322342634e-03   1.4994069933891296e-03  -7.6039810664951801e-03   1.0454472154378891e-02   2.8930935077369213e-03  -2.2711060941219330e-02   9.0115349739789963e-03   2.2007701918482780e-03  -7.2157275862991810e-03   2.0860729273408651e-04   5.8709057047963142e-03  -1.2441799044609070e-03  -2.3397393524646759e-03  -3.0193973798304796e-03   1.5045520849525928e-02   1.1408155784010887e-02  -1.6603170661255717e-03  -6.9993678480386734e-03  -3.1847516074776649e-03   2.2073510626796633e-04  -2.2232949268072844e-03  -4.0177381597459316e-03  -9.0431692078709602e-03   2.0888675935566425e-03   5.0018646288663149e-04  -1.9255670486018062e-03  -3.8013784214854240e-03  -2.9162487480789423e-03  -2.6713488623499870e-03   3.1385666807182133e-04   5.5030768271535635e-04  -2.0179576240479946e-03   1.4411065494641662e-03  -1.3575245393440127e-03   1.3865446671843529e-03  -1.5586712397634983e-03   3.2430437859147787e-03   1.9797224013018422e-05   1.6173336189240217e-03   2.5387498317286372e-04  -7.6119722798466682e-03  -3.1907630618661642e-03  -3.3021196722984314e-03  -1.3380824821069837e-03  -2.4928027414716780e-04   1.3433517888188362e-03  -1.2117045698687434e-03   4.2978683486580849e-03   2.5139625649899244e-03  -4.8689520917832851e-03  -6.9766340311616659e-04  -1.1681578122079372e-02   9.2667038552463055e-04   8.0664191045798361e-05  -1.9947835244238377e-03  -5.2457023411989212e-04   9.3900470528751612e-04   8.1808137474581599e-04  -1.0378794744610786e-02  -1.6161806881427765e-02  -4.7324500046670437e-03   1.3661338016390800e-02  -7.1487366221845150e-03  -6.0810162685811520e-03  -5.5930665694177151e-03  -1.0612503392621875e-03   2.2460420150309801e-03  -1.7262654379010201e-02   3.3672004938125610e-02  -2.8172038495540619e-02   2.1868972107768059e-02  -3.9056784589774907e-04  -3.7202502135187387e-03   7.8179489355534315e-04   3.3584493212401867e-03   3.8638983387500048e-03  -3.6893116775900126e-03   6.1762973666191101e-02  -1.1253119446337223e-02   9.6905296668410301e-03  -3.0627427622675896e-03  -5.8918702416121960e-03   6.9427862763404846e-04   2.1345692221075296e-03   4.8893443308770657e-03  -9.4609139487147331e-03  -1.2099968269467354e-02  -9.5314607024192810e-03  -1.0643001878634095e-03  -3.6494436208158731e-03  -6.5179285593330860e-03  -2.1843466674908996e-04   3.3268001861870289e-03   7.4042617343366146e-03  -1.6726718749850988e-03   1.4358746819198132e-02  -3.2305771019309759e-03   3.2299782615154982e-03   5.4097957909107208e-03  -1.0549246799200773e-03   6.2117871129885316e-04   2.7778688818216324e-03   5.4159481078386307e-03  -4.7975187189877033e-03  -7.6899041232536547e-06  -4.5296871103346348e-03  -3.2395829912275076e-03  -2.4766784626990557e-03   2.1798012312501669e-03   2.3540682159364223e-03  -5.2834802772849798e-04  -1.9978648051619530e-03  -8.5290940478444099e-04   8.1302838225383312e-05  -2.9530335450544953e-04  -1.1519490508362651e-03  -4.1418187320232391e-03  -2.7077354025095701e-04   1.7459052614867687e-03  -6.5482861828058958e-04   2.3040738888084888e-03   3.3774112816900015e-03  -4.3535493314266205e-03  -3.3987783826887608e-03   4.3288539163768291e-03  -1.9321893341839314e-03  -5.7294359430670738e-04  -3.2034721225500107e-03  -8.3582050865516067e-04  -3.6405608989298344e-03  -3.5082069225609303e-03  -1.4498175121843815e-02  -5.9923101216554642e-03   4.0699611417949200e-03   3.0962564051151276e-03   6.1215233290567994e-04   5.2547629820764996e-06  -2.4741478264331818e-03  -1.1344884522259235e-02   1.0997904464602470e-02   3.0981656163930893e-02  -1.7832037061452866e-02  -1.3916363008320332e-02   8.4326919168233871e-03   5.8871568180620670e-03   4.2279232293367386e-03  -3.3593720290809870e-03  -8.7916897609829903e-03   3.8096196949481964e-02   3.0037308111786842e-02  -3.0933752655982971e-02  -1.1816317215561867e-02  -2.4130514357239008e-03   1.4687415678054094e-03   1.1463096598163247e-03  -5.4035959765315056e-03  -1.2702457606792450e-03  -9.2789083719253540e-03  -3.8260053843259811e-02   1.5687553212046623e-02   2.1495789289474487e-02  -1.2014151550829411e-02   5.2688217692775652e-05  -7.4287893949076533e-04  -2.0749703980982304e-03   1.2121899053454399e-03  -1.2768326327204704e-02  -2.2506872192025185e-02   2.3497706279158592e-02   3.8389642722904682e-03  -9.8666790872812271e-03   4.7826911322772503e-03   3.4826417686417699e-04  -1.1663560289889574e-03   6.4565259963274002e-03   1.4271290972828865e-02  -3.3993835095316172e-03   3.5951896570622921e-03  -4.4108149595558643e-03  -3.5710717202164233e-04   5.3507857955992222e-03  -1.1124132433906198e-03  -1.8298499053344131e-03   5.9867692179977894e-03   5.1697846502065659e-03  -5.8346507139503956e-03  -2.2460552863776684e-03  -9.6868287073448300e-04   1.1394586181268096e-03   5.4882565746083856e-04  -3.7352830986492336e-04  -1.7661066958680749e-03  -5.4453068878501654e-04  -2.2849438246339560e-03  -8.7077543139457703e-03   8.7559368694201112e-04  -1.0637853993102908e-03  -5.2188633708283305e-04   3.2101860269904137e-03   6.3387898262590170e-04   3.0340923694893718e-04   7.8176660463213921e-04  -3.3945038449019194e-03  -9.0085938572883606e-03   8.9604863896965981e-03   3.4963649231940508e-03  -2.8311260975897312e-03   1.7916653305292130e-03   5.7666832581162453e-03  -2.4266464170068502e-03  -4.6415752731263638e-03  -5.0726989284157753e-03  -9.2787249013781548e-03   3.3231193083338439e-04   8.6958603933453560e-03  -6.8321186117827892e-03   1.8074274703394622e-04   2.2331895306706429e-03  -3.6167134530842304e-03   1.8287332495674491e-03   1.0488234460353851e-02  -3.2450031489133835e-02   1.8836693838238716e-02   2.1531010046601295e-02  -2.2979918867349625e-02  -1.9279147963970900e-03  -3.2655289396643639e-03  -3.8012049626559019e-03   1.8105851486325264e-02  -6.2966467812657356e-03  -6.7854337394237518e-02   7.0064142346382141e-02   1.6993338242173195e-02  -2.0201511681079865e-02  -1.0905151721090078e-03   2.2675772197544575e-03   2.4743229150772095e-03   1.2815481983125210e-02  -2.6922492310404778e-02  -3.8640778511762619e-03   1.8103132024407387e-02  -1.3615530915558338e-02  -2.2905312944203615e-03   8.8759645586833358e-04   1.0633948259055614e-03   1.8717340426519513e-03  -7.7773984521627426e-03  -5.1088449545204639e-03   2.9587784782052040e-02  -1.4373151585459709e-02  -4.4763763435184956e-03   3.7898365408182144e-03  -3.7808744236826897e-03   1.7292214324697852e-03  -3.4468683879822493e-03  -7.5072809122502804e-03   7.3236473836004734e-03   5.4361661896109581e-03  -5.2408454939723015e-04   5.4682246409356594e-03   5.5549144744873047e-03  -1.6685271402820945e-03   2.2574733011424541e-03  -2.2300030104815960e-03   8.4398331819102168e-04   2.1607805974781513e-03  -3.0868269968777895e-03  -9.8551472183316946e-04  -1.1524077126523480e-04   3.2497369829798117e-05   1.1008904548361897e-03   2.6481194072403014e-04  -1.0488550178706646e-03  -5.0981570966541767e-03  -5.3303102031350136e-03   1.6597231151536107e-03   5.5875568650662899e-03   7.7414144761860371e-03   4.4271992519497871e-03   3.2027528504841030e-04   4.3033136171288788e-04  -5.5080262245610356e-04   2.2384435869753361e-03   3.2688754145056009e-03   3.0960142612457275e-03   3.2504808623343706e-03  -2.6631853543221951e-03  -5.3273662924766541e-03  -6.2440987676382065e-04  -4.9781231209635735e-03   7.5275631388649344e-04   1.0597156360745430e-02   2.4529970251023769e-03  -1.1920721270143986e-02  -1.3054694980382919e-02  -8.6010796949267387e-03  -3.4651644527912140e-03   5.3847982781007886e-04  -4.9658021889626980e-03   2.2025264333933592e-03   1.6894162399694324e-03  -2.1479655057191849e-02  -2.2696115076541901e-02   9.1153886169195175e-03   8.6937388405203819e-03  -2.7239208575338125e-03   1.8744968110695481e-03   1.5884238528087735e-03   4.5242303167469800e-04  -8.2481484860181808e-03   3.6749616265296936e-03   6.1514303088188171e-02   6.0128975659608841e-02   1.3937091454863548e-02   2.8913018759340048e-03   5.6025027297437191e-03   5.0340808229520917e-04  -3.3315524924546480e-03   3.1315458472818136e-03   1.0832276195287704e-02  -2.1904991939663887e-02  -6.6266842186450958e-02  -2.6822827756404877e-02   8.7656071409583092e-03   4.1699456050992012e-03   7.2464981349185109e-04  -2.3192116059362888e-03  -5.1646344363689423e-03  -2.0286280661821365e-02  -2.4522611871361732e-02   1.2062964960932732e-02   1.7227765172719955e-02   2.7469736523926258e-03   2.5505616795271635e-03   5.5889936629682779e-04  -6.9213286042213440e-04   2.3055130150169134e-03   1.5439137816429138e-02   2.8097452595829964e-02   1.6994543373584747e-02  -5.8236070908606052e-03  -1.0610520839691162e-02  -1.5651393914595246e-03  -1.4328751713037491e-03  -3.2424635719507933e-04   2.7265085373073816e-03   6.0855434276163578e-03   4.6372278593480587e-03  -7.3815248906612396e-03  -6.9008651189506054e-03  -1.4971091877669096e-03   2.5286390446126461e-03   5.7378213386982679e-04  -5.1075743976980448e-04  -1.0106622939929366e-03   1.8707939889281988e-03  -1.3253892539069057e-03  -4.1991551406681538e-03   2.8095890302211046e-03   1.4937806408852339e-03   5.0706201000139117e-04  -1.1958782561123371e-03   3.9279791963053867e-05  -1.8195406300947070e-03   5.2492640679702163e-04   2.8496249578893185e-03   1.6650401521474123e-03   9.5623079687356949e-05   1.6005204524844885e-03   1.3615991920232773e-03   1.1257042642682791e-03  -4.2666285298764706e-04  -7.9201404005289078e-03   6.3292722916230559e-04   1.5870114788413048e-02   1.3713403604924679e-02   4.3132430873811245e-03   2.3647290654480457e-03   5.4535298841074109e-04  -3.1739121186546981e-04  -2.3106320295482874e-03  -1.0311914607882500e-02   2.0053542684763670e-03   8.5982121527194977e-03  -2.5284498929977417e-02  -5.3790756501257420e-03   6.9009885191917419e-03  -1.2383352732285857e-03   2.3682988248765469e-03  -4.3786177411675453e-03  -2.0808700472116470e-02   1.3334644027054310e-03   1.8214872106909752e-02  -4.6722523868083954e-02  -2.6020826771855354e-02   1.1245012283325195e-02  -5.5250064469873905e-03  -1.3204470742493868e-03  -5.0178005039924756e-05  -8.2127498462796211e-03  -4.3722810223698616e-03   2.2244231775403023e-02  -1.7711726250126958e-03  -3.5702064633369446e-03   1.8568636849522591e-02  -5.8523996267467737e-04  -3.7263820413500071e-03   2.3012605961412191e-03  -9.9540193332359195e-05  -1.9156552152708173e-03   9.0014459565281868e-03  -3.8480556104332209e-03  -7.3033152148127556e-03   8.9819105342030525e-03   4.2246369412168860e-04  -3.1081321649253368e-03   2.7434278745204210e-03   3.2619629055261612e-03  -1.5501939924433827e-03  -2.5257857050746679e-03  -9.6337329596281052e-03  -8.8092032819986343e-03  -3.3075979445129633e-03  -2.3810944985598326e-03  -3.6690736305899918e-04   2.4579674936830997e-03   1.3126108096912503e-03  -1.5820099506527185e-03   6.1479033902287483e-03  -9.9132652394473553e-04  -1.2191552377771586e-04   3.2854843884706497e-03   1.6585852717980742e-03   2.8787376359105110e-03  -9.1427573352120817e-05  -6.4205238595604897e-04   8.8403245899826288e-04  -5.3791230311617255e-04  -5.5298376828432083e-03   5.0684047164395452e-04  -1.7504894640296698e-03   2.1180401090532541e-03   2.5637571234256029e-03   4.2716492316685617e-04   1.0635207872837782e-03   1.4299243921414018e-03   4.0440284647047520e-03   1.8706239061430097e-03   1.4154675882309675e-03   1.0771297384053469e-03   3.0724788084626198e-03   4.0646754205226898e-03  -9.6242682775482535e-04  -2.4116567510645837e-04   2.4642013013362885e-03   7.6387077569961548e-03  -2.0539122633635998e-03  -2.8248026501387358e-03  -2.5242061819881201e-03  -6.9394585443660617e-04   2.3798771144356579e-04  -1.6507598338648677e-03   1.8412412609905005e-03   6.6423746757209301e-03   3.2621223945170641e-03  -5.8854296803474426e-03   1.2918716529384255e-03   1.2116889702156186e-03  -6.2387983780354261e-04   1.2464385945349932e-03  -5.5799717083573341e-03   6.1169115360826254e-04  -3.4818440675735474e-02  -5.4187525063753128e-02  -1.4921709895133972e-02  -1.0926291724899784e-04  -6.7272805608808994e-04  -5.8014048263430595e-03   4.7962067765183747e-04   4.2916373349726200e-03  -6.8513648584485054e-03   1.9897792488336563e-02   5.0332650542259216e-02  -2.1998228505253792e-02   7.6339454390108585e-03   4.7131879255175591e-03   2.9842357616871595e-03   1.9124758546240628e-04   4.1204881854355335e-03   3.6268350668251514e-03  -5.6463684886693954e-03  -1.2423714622855186e-02  -1.6182020306587219e-02  -3.1552677683066577e-05   6.0519375838339329e-03   1.3549230061471462e-03   3.0939973657950759e-04   6.2554543546866626e-05  -1.3324901228770614e-03  -1.0118900798261166e-02  -2.4470298085361719e-03  -1.4579149428755045e-03  -2.7410672046244144e-03   3.2282029278576374e-03  -5.0613982602953911e-04  -7.9997594002634287e-04  -2.0828076230827719e-04   5.1940843695774674e-04  -2.4982604663819075e-03   2.2940891794860363e-03  -8.2647922681644559e-04  -5.1753059960901737e-04   1.1283282656222582e-03   1.4441148377954960e-03   1.0105435503646731e-03   2.8290599584579468e-03   2.3975151125341654e-03  -3.1809983775019646e-03  -4.4475444592535496e-03   3.5353305283933878e-03   2.1787534933537245e-03  -1.3421149924397469e-03  -2.9664700850844383e-03   4.1429427801631391e-04   2.4991524405777454e-03   8.4779661847278476e-04  -6.0311297420412302e-04  -7.2201844304800034e-03  -4.5903753489255905e-03   3.7831524387001991e-03   9.5641205552965403e-04  -4.7546732239425182e-03  -1.5238688793033361e-03  -3.9989291690289974e-03  -7.6183779165148735e-03  -7.2086970321834087e-03  -2.7371337637305260e-02  -1.6264399513602257e-02   2.0685181953012943e-03  -6.7493841052055359e-03  -4.6498007141053677e-03   2.6689213700592518e-04   2.1506119519472122e-03   2.0111431367695332e-03   3.8621285930275917e-03   6.6595859825611115e-03   3.1571984291076660e-03  -6.3709579408168793e-03   3.2978223171085119e-03  -5.0562568940222263e-03  -5.2992943674325943e-03   4.7285296022891998e-03   1.7082793638110161e-02   5.9624575078487396e-03   4.8214461654424667e-02   2.6110265403985977e-02  -4.3201461434364319e-02  -4.6997398021630943e-04  -1.7463121563196182e-02   9.6121692331507802e-04   3.2293374533765018e-04   1.6624586656689644e-02  -1.2061474844813347e-02  -4.0846556425094604e-02  -3.7849060026928782e-04  -1.4537599869072437e-02  -1.1301341000944376e-03  -7.3230774141848087e-03   4.5035425573587418e-03  -4.0125488303601742e-03   1.3212906196713448e-02  -9.2155346646904945e-03  -3.3557537943124771e-02   2.6767039671540260e-03   5.5917160352692008e-04   7.3317548958584666e-04   3.3992137759923935e-03   1.9147533748764545e-05  -1.2902790913358331e-03   4.7957664355635643e-03   6.8723559379577637e-03   1.4440072700381279e-02   1.8688706681132317e-02  -2.3920874809846282e-05  -3.9738230407238007e-03  -7.8324007336050272e-04   7.1748427581042051e-04   7.4868422234430909e-04  -3.6360011436045170e-03  -3.9684455841779709e-03  -1.8199060112237930e-02  -8.3272140473127365e-03   8.9000044390559196e-03   3.1334504019469023e-03  -1.5246432740241289e-03   5.0516929477453232e-03   4.5202076435089111e-03   5.1875165663659573e-03   1.7544300062581897e-03  -4.4930875301361084e-03  -3.5612373612821102e-03  -1.5773691702634096e-03   3.3547859638929367e-03   4.1726031340658665e-03   1.0772775858640671e-03  -3.1825790647417307e-03  -1.9252251368016005e-03  -1.3216589577496052e-03  -3.9391737664118409e-04  -2.8882643673568964e-03  -5.2383826114237309e-03  -1.8817579839378595e-03   5.7679179008118808e-05   2.1765674318885431e-05  -3.1619884539395571e-03  -5.2790967747569084e-03  -5.5729062296450138e-03   3.8434760645031929e-03   1.9472947344183922e-02   7.0410412736237049e-03  -9.1043151915073395e-03  -2.5894141290336847e-03   8.2517648115754128e-03  -1.7306749941781163e-04   3.4638359211385250e-03   9.3442965298891068e-03  -1.5518820844590664e-02  -1.8318237736821175e-02   1.6408814117312431e-02  -4.2255228618159890e-04  -2.8538859914988279e-03   2.3755175061523914e-03  -8.6799525888636708e-04   9.8513637203723192e-04   1.5699863433837891e-02   1.7015190795063972e-02  -5.4272428154945374e-02  -2.1948983892798424e-02   2.0386217162013054e-02   3.8831853307783604e-03   1.4390829019248486e-03   1.6794739349279553e-04  -2.5191591121256351e-03  -2.3489676415920258e-02   2.2679325193166733e-03   4.4328097254037857e-02  -4.1503594256937504e-03   3.0915807001292706e-03  -1.1555055389180779e-03  -6.3947017770260572e-04   1.1571691138669848e-03   9.2389173805713654e-03  -4.6867588534951210e-03  -1.0607356205582619e-02   1.8208088353276253e-02   1.4368800446391106e-02  -5.0690113566815853e-03  -1.9445241196081042e-04   2.1358667872846127e-03  -1.0291521903127432e-03   9.7625572234392166e-03   7.3383906856179237e-03   6.3905371353030205e-03  -7.2715394198894501e-03  -2.7076874393969774e-03  -8.5949171334505081e-03  -7.1529747219756246e-04   1.8332364270463586e-03  -2.3744879290461540e-03   2.3943486157804728e-03  -1.3558942591771483e-03   1.3249440817162395e-03  -1.2685591354966164e-03  -9.7742618527263403e-04  -5.7238205336034298e-03   1.3945678947493434e-03   1.2183069484308362e-03   1.9561601802706718e-03   1.6192186158150434e-03   2.1878064144402742e-03   2.0108909811824560e-03   6.2508392147719860e-03   4.3001892045140266e-03   2.7778374496847391e-03   8.0493488349020481e-04  -3.6254379665479064e-04  -1.9121066434308887e-03  -1.8071832600980997e-03   5.6081084767356515e-04  -3.0856737866997719e-03  -7.2284037014469504e-04  -2.5029783137142658e-03  -2.1550287492573261e-03  -1.6089653363451362e-03   1.6864488134160638e-04   7.9920288408175111e-04   4.4952374882996082e-03   7.5633183587342501e-04  -6.0972063802182674e-03  -6.5545551478862762e-03  -7.4509358964860439e-03  -3.8770195096731186e-03   1.6542262164875865e-04  -6.5105494286399335e-05   1.2203035876154900e-03   1.8251471919938922e-03   2.7016657404601574e-03   8.9503834024071693e-03   1.1807355098426342e-02   5.2626160904765129e-03   1.9354114774614573e-03   3.1182968523353338e-03   7.1746069006621838e-03  -2.2801442537456751e-03  -1.5120037831366062e-02   7.1610161103308201e-04   1.4788848347961903e-03  -1.1717827059328556e-02   3.2599272672086954e-03   4.0515214204788208e-03  -2.3067446891218424e-03   6.4806062728166580e-03  -1.8510255031287670e-03  -1.2698709033429623e-02   1.0233469307422638e-02   5.3709438070654869e-03  -4.0243148803710938e-02  -2.4919262155890465e-02   4.8318277113139629e-03  -3.7083567585796118e-03   4.2488295584917068e-03   2.4730321019887924e-03   4.6107107773423195e-03   4.3779499828815460e-03   1.1319559067487717e-02  -1.3106554979458451e-03  -2.8971221763640642e-03   1.2924075126647949e-02   7.7109894482418895e-04   1.0724270250648260e-03  -2.5303345173597336e-03   3.2066805288195610e-03  -4.1446131654083729e-03   5.8871014043688774e-03  -3.6833733320236206e-03  -2.6576924137771130e-03   1.0806173086166382e-02  -1.0238306131213903e-03   3.3198529854416847e-03  -1.6591011444688775e-05   5.8555128052830696e-03   1.0548189311521128e-04  -2.8594937175512314e-03  -1.9668661989271641e-03  -4.3486838876560796e-06  -8.8050065096467733e-04  -1.5771134349051863e-04  -3.4260470420122147e-03  -8.4227620391175151e-04   6.0190581716597080e-03   5.7289814576506615e-03  -4.3565300293266773e-03  -2.7993468102067709e-03   2.6065702550113201e-03   2.4267961271107197e-03   1.7106403829529881e-03  -1.6713146760594100e-04   1.6284598968923092e-03   3.9713499136269093e-03  -2.4771122261881828e-03   1.6394109698012471e-03   3.3258863259106874e-03   2.4300981312990189e-03  -1.5838274266570807e-03  -5.6645902805030346e-04  -1.5941330639179796e-04   3.4249534364789724e-03   7.4553648009896278e-03   6.3965236768126488e-03   1.4599768444895744e-02   6.7777344956994057e-03  -2.6755797443911433e-04  -2.7595218271017075e-03   5.4473769851028919e-03  -3.3804946579039097e-03  -1.7587011680006981e-03   1.6018729656934738e-02  -8.4757065633311868e-04  -9.0355314314365387e-03  -5.2642473019659519e-03  -7.4563577072694898e-04  -1.7851169686764479e-03   1.2451785150915384e-03  -6.6309128887951374e-03   3.8118043448776007e-03   1.5349294990301132e-02  -4.9404706805944443e-02   6.3270735554397106e-03   9.0205557644367218e-03  -1.4567723264917731e-03   1.1986062861979008e-02   6.9652833044528961e-03  -7.0557864382863045e-03   6.4936410635709763e-03   6.2231835909187794e-03  -1.0148827917873859e-02   3.8031972944736481e-02  -1.0617937892675400e-02  -2.0466195419430733e-02   2.0962439477443695e-02   5.1919603720307350e-03   5.0286110490560532e-03   3.6603442858904600e-03   1.2371753109619021e-03   8.8966833427548409e-03   1.5277076512575150e-02  -1.0676271282136440e-02  -1.1558434925973415e-02   1.0717199184000492e-02  -2.9991003684699535e-03   3.6024171859025955e-03  -3.9907223545014858e-03  -5.4734614677727222e-03  -1.6931470483541489e-02  -1.5140982577577233e-03  -6.0705696232616901e-03  -4.7633070498704910e-03   4.8711625859141350e-03   2.8890627436339855e-03   2.3820076603442430e-03  -1.4411006122827530e-04   8.9430628577247262e-04   1.0071570286527276e-03   2.9112969059497118e-03  -2.2723183501511812e-03  -4.3391818180680275e-03   2.0935802604071796e-04   1.5243821544572711e-03   8.5425877477973700e-04   1.9800686277449131e-03   3.5359285539016128e-04   2.4507605121470988e-04  -2.6874996256083250e-03  -3.0426515149883926e-04   1.1091178748756647e-03   4.1680363938212395e-03  -3.7390301004052162e-03  -2.2444073110818863e-03   2.4806773290038109e-03  -1.1320050107315183e-03   4.4584064744412899e-03   6.1076749116182327e-03  -7.2089192690327764e-04  -3.3205840736627579e-03   1.1773583246394992e-03  -2.6519221719354391e-03   1.7566261813044548e-03   4.5970734208822250e-03   4.9978843890130520e-03   1.7367472173646092e-03   9.8051559180021286e-03   5.5380174890160561e-03  -3.9712656871415675e-04   1.2603601440787315e-02  -3.7449758965522051e-03   2.9562015552073717e-03  -8.1441004294902086e-04  -1.6442504711449146e-03   2.7414946816861629e-03   4.8605784773826599e-02  -1.8907569348812103e-02  -4.6480447053909302e-04   8.7165767326951027e-03  -4.3331933557055891e-04   2.2053087595850229e-03  -4.6309671597555280e-04  -1.7832070589065552e-02   5.5216338485479355e-02   1.5418948233127594e-01  -1.0154181160032749e-02   6.2791244999971241e-05   5.9660435654222965e-03   2.6225950568914413e-03  -2.5799325667321682e-03  -3.7799659185111523e-03  -6.6149099729955196e-03  -2.6204898953437805e-02  -3.7872353568673134e-03  -1.1454113759100437e-02  -9.5323855057358742e-03   9.5303738489747047e-03   1.1912647169083357e-03  -3.4764646552503109e-03   5.7685901992954314e-05  -9.2724254354834557e-03   3.8631591014564037e-03   1.4853861182928085e-02  -6.1383834108710289e-03   3.2690202351659536e-03   5.4325410164892673e-03   2.9784126672893763e-03   9.8799099214375019e-04  -9.4407744472846389e-04  -2.1783026750199497e-04   5.3834989666938782e-03  -7.4255233630537987e-03  -5.0022993236780167e-03  -3.6936604883521795e-03  -3.7400915753096342e-03   3.1157417688518763e-03  -4.0234497282654047e-04  -7.5804389780387282e-04  -3.9215316064655781e-04   1.5831838827580214e-03   3.3879219554364681e-03   2.8227930888533592e-03  -1.0447314707562327e-04   6.3037395011633635e-04  -5.3657288663089275e-04   3.3804678241722286e-04   6.0423887334764004e-03   3.8419349584728479e-03   6.5192137844860554e-04   2.1931396331638098e-03  -3.9468053728342056e-03   1.1917175725102425e-03   1.4689954696223140e-03   2.1063401363790035e-03  -2.1343205589801073e-03   1.0738255223259330e-03  -1.5123550838325173e-04  -8.2300149369984865e-04   7.1130450814962387e-03   5.4933130741119385e-04   3.6202063784003258e-03   9.5722259720787406e-04   8.9979934273287654e-04   2.2891068365424871e-03  -5.0222370773553848e-03  -9.7597762942314148e-03  -9.7403805702924728e-03   1.3041957281529903e-02   1.6158947721123695e-02   1.1637554503977299e-02  -1.8698127241805196e-03   1.4159450074657798e-04   1.8371222540736198e-03   3.1210186425596476e-03   3.6844857968389988e-03   1.6705746529623866e-03   9.6804631175473332e-04  -9.4387680292129517e-03  -5.1388614811003208e-03   4.0355143137276173e-03   3.6933477967977524e-03  -1.0450478876009583e-03   6.2863198108971119e-03  -2.5390347000211477e-03   1.2895827181637287e-02   1.5460534952580929e-02  -3.7093788385391235e-02  -1.6451302915811539e-02   1.4895460568368435e-02  -4.5480966218747199e-04   1.5402496501337737e-04   5.5226120166480541e-03  -2.5626171380281448e-02  -1.8555372953414917e-02   4.8327546566724777e-02  -6.5077207982540131e-03   4.0292190387845039e-03   1.0960079729557037e-02  -4.0213874308392406e-04  -2.7364592533558607e-03   5.1498394459486008e-03  -1.4847563579678535e-03  -1.7820227891206741e-02   9.9052032455801964e-03  -3.7207559216767550e-03   6.1312159523367882e-03   8.6615076288580894e-03   1.6441366169601679e-03   3.3284556120634079e-03   7.0009641349315643e-03   7.9941032454371452e-03   5.6107714772224426e-03  -3.9274590089917183e-03  -1.3596750795841217e-02  -1.9411195535212755e-03   4.5867506414651871e-03  -2.1500329239643179e-05   1.9193241605535150e-03   4.0153400041162968e-03   2.2263969294726849e-03  -2.9980815015733242e-03   1.2726633576676250e-03  -3.2155269291251898e-03  -1.3260134728625417e-03   1.5414780937135220e-03  -6.7006942117586732e-04  -2.8289754409343004e-03  -3.8359951577149332e-04  -1.1987042380496860e-03   3.8998865056782961e-03   2.3740117903798819e-03   5.7444493286311626e-03  -4.5744571834802628e-03  -1.3671575516127632e-06  -3.7593783345073462e-03  -3.7957692984491587e-04  -2.9039321816526353e-04  -3.9030010811984539e-03   7.1045104414224625e-03  -3.7030978128314018e-03   4.4057997874915600e-03  -3.5250307992100716e-03   2.0001237862743437e-04  -2.9857910703867674e-03  -8.3975978195667267e-03  -4.1906577534973621e-03  -1.1505791917443275e-02   1.9281653687357903e-02   1.3264756125863642e-04   6.6424012184143066e-03  -1.1330646229907870e-03  -1.6044517979025841e-03   8.0155063187703490e-04  -7.4666468426585197e-03   1.2971548130735755e-04  -6.7664952948689461e-03  -4.7564045526087284e-03   8.3349738270044327e-03   2.5150077417492867e-03  -1.2031786143779755e-02   5.6989223230630159e-04  -1.7497587250545621e-03  -6.6783241927623749e-03  -2.4348956067115068e-03  -1.0594526305794716e-02   2.6580967009067535e-02   3.3749759197235107e-02   1.0849076323211193e-02  -1.6323396936058998e-02   5.5907131172716618e-03  -4.6220398508012295e-03  -2.8331791982054710e-03  -1.5018406556919217e-03  -2.3123561404645443e-03   5.4054208099842072e-02   2.4243589490652084e-02   1.0753785260021687e-02  -1.6254736110568047e-02   6.2842550687491894e-03  -7.7332379296422005e-03  -1.7982593271881342e-03  -8.1695858389139175e-03  -3.2128486782312393e-03  -5.1658237352967262e-03  -1.1504638008773327e-02  -7.3058810085058212e-03  -2.4634163826704025e-02   9.2241715174168348e-04  -7.3079243302345276e-03   7.4403164908289909e-03   1.1233409168198705e-03  -1.1088004335761070e-02   1.6233153641223907e-02   4.4371844269335270e-03   3.7384927272796631e-03  -2.7009497862309217e-03   6.4248411217704415e-04  -8.2734518218785524e-04   3.7656365893781185e-03   2.8004054911434650e-04  -4.9291732721030712e-03   1.3821858912706375e-02   3.1069740653038025e-03   7.8359041363000870e-03   1.5253077726811171e-03   1.0136472992599010e-03  -2.9849100974388421e-04   3.0839464161545038e-03   6.4143963390961289e-04   3.0022654682397842e-03   2.3898342624306679e-04  -4.4131041504442692e-03   2.8803732711821795e-03   9.3741301679983735e-04  -3.5237062547821552e-05   2.0654802210628986e-03   2.2729451302438974e-03  -2.6569347828626633e-03   3.7019103183411062e-04   2.1163076162338257e-03  -1.9428157247602940e-03   1.3112002052366734e-03   5.0766523927450180e-03  -1.6294986708089709e-03   1.8092937534675002e-03   3.0432029161602259e-03  -4.4423202052712440e-03  -3.7725202273577452e-03   3.4123556688427925e-03   3.5875127650797367e-03   6.5979636274278164e-03   5.4165874607861042e-03  -2.7120073791593313e-03   6.6718566231429577e-03   1.8469159258529544e-03  -1.5988157247193158e-04  -1.7826734110713005e-03  -7.6606161892414093e-03  -4.1055973619222641e-02   8.0266920849680901e-03  -1.5440248535014689e-04  -4.9802893772721291e-03   3.4236891660839319e-03   5.1146689802408218e-03   8.8926162570714951e-03  -2.3968112654983997e-03   1.2650478631258011e-02  -3.7993121892213821e-02  -1.8578040180727839e-03   1.8842817516997457e-03  -5.9665869921445847e-03   3.1954157166182995e-03   4.5833238400518894e-03   4.8069536569528282e-04  -1.1130006052553654e-02  -2.1704838145524263e-03  -3.2064162194728851e-02  -1.4253343688324094e-03   8.1009007990360260e-03  -1.8498378340154886e-03   5.6402310729026794e-03   4.1105649434030056e-03   3.0664054793305695e-04  -6.7677316255867481e-03   1.2715876800939441e-03  -8.9791594073176384e-03   5.8991438709199429e-03   6.1383647844195366e-03  -2.5211370484612416e-06   2.9911864548921585e-03   1.8099774606525898e-03  -1.4726978261023760e-03  -2.9052598401904106e-03   6.9131478667259216e-03   4.7293948009610176e-03   4.0554678998887539e-03   1.5774091007187963e-03  -7.8889355063438416e-04  -1.1832555755972862e-03   1.9620312377810478e-03  -2.3381190840154886e-03  -2.0590194035321474e-03   2.7138236910104752e-03   1.1790529242716730e-04   2.4296308401972055e-03   2.4193818680942059e-03  -8.0723123392090201e-04  -9.5549289835616946e-04   1.5290061710402369e-03   9.2941283946856856e-04   1.0698175756260753e-03  -2.1743541583418846e-03   9.6380797913298011e-04   2.6423677336424589e-03   8.1004545791074634e-04   1.9043209613300860e-04   2.1812231279909611e-03  -1.0843212949112058e-03   2.4591591209173203e-03   3.8559255190193653e-03  -1.2001631548628211e-03  -6.8566558184102178e-04   1.3586141867563128e-03  -5.1549104973673820e-03   1.7715723952278495e-03  -4.4692581286653876e-04  -2.8264494612812996e-03   4.1989758610725403e-03   9.1702388599514961e-03  -4.2578135617077351e-03  -1.2220717035233974e-02   2.7885797317139804e-04  -1.0416476055979729e-02   1.9285284215584397e-03  -2.5995112955570221e-03  -4.2697577737271786e-03  -6.6647131461650133e-04   8.9728841558098793e-03  -9.0030739083886147e-03  -1.2686769478023052e-02   2.9874417930841446e-02  -1.6338860616087914e-02   3.8950697053223848e-03   3.0501722358167171e-03  -6.9490992464125156e-03   1.1367790866643190e-03   1.8946127966046333e-02  -1.5939075499773026e-02   6.2967003323137760e-03   2.4673575535416603e-02  -3.7047095596790314e-02   2.2052654996514320e-02   4.2132195085287094e-03   8.8926067110151052e-04   6.5502277575433254e-03  -1.1668514925986528e-03  -1.3592084869742393e-02   4.2153537273406982e-02  -3.5692606121301651e-02  -2.0234094932675362e-02   3.2071787863969803e-02  -8.9577882317826152e-04   7.6938718557357788e-03   2.1726414561271667e-03  -1.0715839453041553e-02   3.6009754985570908e-03   1.4255103655159473e-02  -2.9113348573446274e-02   9.3987706350162625e-04   9.2150159180164337e-03  -2.1212128922343254e-03   2.4845735169947147e-03  -5.6775985285639763e-03  -1.5250128926709294e-03   1.7827227711677551e-03   3.3602395560592413e-03   3.1581385992467403e-03  -6.3318936154246330e-03   2.7168417000211775e-04   4.4302903115749359e-03  -1.5110060339793563e-03  -1.2032355880364776e-03   2.4674365704413503e-05  -2.4171592667698860e-03   2.0836913026869297e-03  -2.0509269088506699e-03  -6.3356589525938034e-03   2.8350998181849718e-03   2.7950783260166645e-03   1.4268223894760013e-03   8.6666090646758676e-04  -2.7846426237374544e-03  -4.4754744158126414e-04   1.0355482809245586e-03  -1.0663729626685381e-03   3.4056974109262228e-03   1.1336798779666424e-03  -1.3390715466812253e-03  -8.3782634465023875e-04  -4.0060110040940344e-04  -1.7004109686240554e-03   4.0379422716796398e-03   2.6313895359635353e-03  -5.9905899688601494e-03  -2.1009275224059820e-03  -1.0173870250582695e-03  -2.0462276879698038e-03  -5.4933382198214531e-03   6.6191534278914332e-04   4.1385274380445480e-03   4.5230714604258537e-03  -3.3691902644932270e-03  -1.4538189861923456e-03  -7.7707623131573200e-03   2.9941166285425425e-03   1.5505991177633405e-03  -4.6691033057868481e-03   3.2089396845549345e-03   1.0405567009001970e-03  -1.4327879995107651e-02   1.1851769872009754e-02  -2.4768807925283909e-03  -1.6345294192433357e-02   1.9406052306294441e-02   1.1052282061427832e-03   5.9687616303563118e-03   2.3672142997384071e-03  -1.8944622948765755e-02  -9.5141762867569923e-03   6.1362203210592270e-02  -4.4769547879695892e-02  -4.9550305120646954e-03   2.3060062900185585e-02  -2.0545378793030977e-03   7.7559016644954681e-03  -2.0547264721244574e-03  -2.3478673771023750e-02   3.0127750709652901e-02   3.3167202025651932e-02  -5.7803232222795486e-02   1.0815188288688660e-02   1.7961398698389530e-03  -6.2137041240930557e-03   2.1525353658944368e-03  -4.9503031186759472e-03  -1.1048283427953720e-02   1.9356464967131615e-02  -6.7462073639035225e-03  -8.7032206356525421e-03   1.1355856433510780e-02  -6.4418339170515537e-03  -4.8502921126782894e-03   8.6539448238909245e-04   4.2033265344798565e-04  -6.7163836210966110e-03  -1.5280199004337192e-03  -9.0491846203804016e-03   6.4888410270214081e-03   2.3217385169118643e-03  -6.5357792191207409e-03  -5.5443722521886230e-04   6.5131718292832375e-04   1.7407743143849075e-04  -2.2978230845183134e-03   3.8271343801170588e-03  -3.5234817769378424e-03   5.9993057511746883e-03  -8.8998512364923954e-04  -1.7711436375975609e-03   4.6949327224865556e-04   9.1618206351995468e-04   1.3891605194658041e-03   1.7286046931985766e-04  -4.4679371640086174e-03   3.2698288559913635e-03  -7.6746154809370637e-04  -5.8309817686676979e-03   4.4765998609364033e-04   4.6736397780478001e-04  -1.2268555583432317e-03   1.4421888627111912e-03   3.2365145161747932e-03  -1.7388567794114351e-03   4.1006095707416534e-03  -4.6892520040273666e-03  -6.5995850600302219e-03   5.1828860305249691e-03   6.9980317493900657e-04   1.4087827876210213e-03   3.9454256184399128e-03  -2.8972055297344923e-03   1.8815496005117893e-03   8.7367910891771317e-03  -4.7428370453417301e-03  -2.5631925091147423e-03   7.9527767375111580e-03   9.9288579076528549e-04  -2.7107163332402706e-03   3.3486790489405394e-03  -2.9873675666749477e-03  -9.5879202708601952e-03  -2.6575181982479990e-04   1.0281796567142010e-03  -1.2066046707332134e-02   3.0917655676603317e-03   2.0150439813733101e-03  -6.0510206967592239e-03  -7.1375869447365403e-04   3.4150990541093051e-04  -4.1285086423158646e-02  -1.3958627358078957e-02   6.8637072108685970e-03  -1.4980742707848549e-02  -7.0134168490767479e-03  -3.5173352807760239e-03  -7.0432750508189201e-03   7.7340728603303432e-04   2.5593040511012077e-02  -2.0860845223069191e-02  -1.1915252543985844e-02   1.6938541084527969e-02  -6.2122773379087448e-03  -5.8432953665032983e-04  -5.7593802921473980e-04  -4.1831255657598376e-04   1.6818011645227671e-03   1.2038369663059711e-02  -1.0978364385664463e-02  -1.9137652125209570e-03   1.1913334950804710e-02   2.5916250888258219e-03   2.3670059163123369e-03   1.4233486726880074e-03  -5.2072303369641304e-03  -3.1549036502838135e-03  -3.6289261188358068e-03  -1.3034644536674023e-02  -6.3175251707434654e-03   3.8887469563633204e-03   2.8008776716887951e-03  -7.8013483434915543e-03  -5.6169764138758183e-03  -4.8885014839470387e-03   1.0010787518694997e-03  -1.1574239470064640e-03  -2.4106211494654417e-03  -1.3820292660966516e-03   1.9453569548204541e-03   2.7533078100532293e-03  -2.8657680377364159e-03  -5.1103355363011360e-03   3.8118166849017143e-03  -4.8455767682753503e-04  -4.2757773771882057e-03  -5.1700556650757790e-03  -7.5627677142620087e-04   1.6044091898947954e-03   7.0518901338800788e-04  -1.0403064079582691e-03  -5.3622759878635406e-04  -1.7383075319230556e-03   1.9939343910664320e-03   2.6074603665620089e-03   1.3332070084288716e-03  -9.2163175577297807e-04  -2.4860471021384001e-03   5.7314120931550860e-04   3.0535629484802485e-03   2.4831325281411409e-03  -1.5325428685173392e-03   5.7422567624598742e-04   9.6112946048378944e-03   7.6488917693495750e-03   2.8905244544148445e-03  -1.8994108540937304e-03  -1.8564257770776749e-03   3.7414233665913343e-03   6.4877714030444622e-03   1.1071483604609966e-03  -1.0188204469159245e-03   1.0495565948076546e-04  -9.4092069193720818e-03  -1.3101117685437202e-02   2.0470561459660530e-02   2.8813905082643032e-03  -8.0257784575223923e-03   3.0390691244974732e-04   6.4072310924530029e-03   2.2692358470521867e-04   2.3974058422027156e-05   1.1972541920840740e-02  -2.4451276287436485e-02   3.1897558365017176e-03   2.3853721097111702e-02  -3.0000279657542706e-03  -5.6879469193518162e-03   3.8756669964641333e-03  -3.2165376469492912e-03  -1.5394337475299835e-02   7.1021560579538345e-03   3.8024902343750000e-02  -3.3004153519868851e-02  -9.9163781851530075e-03   6.4304769039154053e-03   9.0793910203501582e-04  -1.2672191951423883e-04   5.8508198708295822e-03   4.8573561944067478e-03  -1.2846447527408600e-02   2.1004416048526764e-02   1.5721993520855904e-02  -9.5022302120923996e-03   6.9568972103297710e-03   2.2617387585341930e-03  -5.3312983363866806e-03  -5.4649374214932323e-04   1.0981785133481026e-02   2.6934635825455189e-03  -1.9772650673985481e-02  -1.4650399098172784e-03  -1.2965004425495863e-03   7.1772271767258644e-03   6.0020503588020802e-03   2.1103515755385160e-03  -3.8477703928947449e-03  -1.0429448448121548e-03   5.0854911096394062e-03  -3.7922870833426714e-03  -2.5879330933094025e-03   2.2387620992958546e-03   2.4375051725655794e-03   3.6668519023805857e-03  -1.6444764332845807e-03  -1.4105029404163361e-03  -1.4324828516691923e-03   5.3284462774172425e-04   4.6890266239643097e-03   8.6685558781027794e-03   1.4379314379766583e-03   2.7056315448135138e-03   3.6501553840935230e-03  -9.2758442042395473e-04  -2.1755378693342209e-03  -1.7615120159462094e-03   2.1658176556229591e-03   3.0345891136676073e-03  -2.2467647213488817e-03  -1.4569621998816729e-03   8.5121509619057178e-04   1.1634234106168151e-03  -3.7951094564050436e-03  -3.7198145873844624e-03   2.2637704387307167e-03   3.2087555155158043e-03  -2.7683887165039778e-03  -1.8194576725363731e-02   5.8996803127229214e-03   2.9079800006002188e-03  -3.7254532799124718e-03  -1.2561455368995667e-03   5.9777386486530304e-03   7.6238466426730156e-03  -3.9879186078906059e-03   1.7764804884791374e-02   2.3773605003952980e-02   1.0351739823818207e-02  -5.9661953710019588e-03   6.6010194132104516e-05  -6.4345290884375572e-03  -1.2363755377009511e-03  -9.2272385954856873e-03  -2.6499640196561813e-02  -2.3105723783373833e-02   9.7096534445881844e-03   1.3604115694761276e-02  -7.2347787208855152e-03   2.0416027400642633e-03  -4.0228883735835552e-03   2.2086154203861952e-03   6.1546820215880871e-03   5.7527655735611916e-03  -2.7418895115260966e-05  -2.5868838652968407e-02  -5.9455111622810364e-03  -3.3838194794952869e-03  -5.2860830910503864e-03  -6.5520512871444225e-03   1.3909543667978141e-05  -2.0006019622087479e-03   4.9697435460984707e-03   2.6585659012198448e-02   6.5775606781244278e-03  -7.2170938365161419e-03  -1.0129475034773350e-02  -2.1734701003879309e-03  -2.1867961622774601e-03   1.4939970569685102e-03   1.1421894887462258e-03  -2.9545540455728769e-03  -6.4123175106942654e-03  -4.9422779120504856e-03   8.4119923412799835e-03   8.7529486045241356e-03   5.9659243561327457e-03  -6.0981730930507183e-03  -3.5435103345662355e-03   1.6971548320725560e-03   4.3442123569548130e-03   1.5334347262978554e-03  -1.3324492610991001e-03   1.8793958588503301e-04   2.2323167650029063e-04   4.4754357077181339e-03  -1.8125496571883559e-03   2.1004599984735250e-03   1.7286196816712618e-03  -1.2943810725118965e-04  -7.8163441503420472e-04   2.6011120062321424e-03   7.0208925753831863e-03   7.0529510267078876e-03   9.0572534827515483e-04  -1.3590516755357385e-03   3.3216988667845726e-03   4.9825140740722418e-04   2.6092913467437029e-03   9.1375986812636256e-04  -2.6634579990059137e-04  -4.4844476506114006e-03   1.0260356475555454e-06   1.5521342866122723e-03   1.3949626591056585e-03   6.4719887450337410e-03   4.9287769943475723e-03   1.8846498802304268e-02   2.7390427887439728e-02   1.9747171550989151e-02  -7.1254358626902103e-03   6.1258790083229542e-04   1.9852262921631336e-03  -2.8568208217620850e-03  -3.4265618305653334e-03  -5.8841803111135960e-03  -3.8611681666225195e-03  -4.3973669409751892e-02  -1.4291087165474892e-02   4.3910020031034946e-03  -5.1160315051674843e-03  -5.7684388011693954e-03  -1.6638152301311493e-03   1.0059557855129242e-02   1.5412189997732639e-02  -2.8247440233826637e-02  -9.7725346684455872e-02  -1.1616327799856663e-02  -1.2189109111204743e-03  -7.8567247837781906e-03  -4.7374470159411430e-03  -4.8668994568288326e-03   6.3324585789814591e-04   3.5184908192604780e-03   1.3779981061816216e-02   2.1364662796258926e-02   4.6359561383724213e-02  -1.5281511878129095e-04  -5.3683416917920113e-03  -1.7018289072439075e-03   5.6885713711380959e-03   3.6616559373214841e-04  -8.7894899770617485e-03   5.7076429948210716e-03   2.1275021135807037e-03   3.6904080770909786e-03   2.7460015844553709e-03   5.4477248340845108e-03  -1.4302009949460626e-03   4.4573089107871056e-03  -9.2030176892876625e-04  -2.3935248609632254e-03  -7.3243961669504642e-03  -1.7477404326200485e-02  -1.5721695497632027e-02  -2.0521988626569510e-03   3.5065971314907074e-03   1.9199919188395143e-04   6.6505215363577008e-04   9.4876124057918787e-04   4.1680788854137063e-05  -2.9881880618631840e-04   4.3368218466639519e-03   1.8853734945878386e-03  -8.3605234976857901e-04  -2.1687711123377085e-03  -9.0253149392083287e-04  -3.0756364576518536e-03  -1.7580229905433953e-04   9.5602741930633783e-04  -1.7407350242137909e-04   3.4817515406757593e-03   3.0622293706983328e-03  -1.1745125520974398e-03   2.6671078521758318e-03   3.0686493846587837e-04  -1.1198172578588128e-03  -1.7741759074851871e-04   2.8752090292982757e-04  -2.0360607595648617e-04   1.0315767722204328e-03  -3.2191444188356400e-03  -2.3677486460655928e-03   9.9099683575332165e-04  -1.1883742408826947e-03  -1.9884039647877216e-03  -2.8342253062874079e-04   1.9273849902674556e-03   4.4320109300315380e-03  -3.4961921628564596e-03  -1.4978978782892227e-02  -5.8318679220974445e-03  -1.2923341710120440e-03  -4.3056714348495007e-03  -1.4885701239109039e-03  -2.5128140114247799e-03  -7.3206969536840916e-03   2.6460839435458183e-03   5.2559277974069118e-03  -2.3322075139731169e-03   4.2580012232065201e-03   4.1151763871312141e-03  -3.0973954126238823e-03   2.0658301655203104e-03  -6.7947042407467961e-04  -1.3926415704190731e-02  -8.0018851440399885e-04   7.1768588386476040e-03  -2.2014561109244823e-03   3.5744083579629660e-03   1.1650966480374336e-02  -2.6748382952064276e-03   3.8466155529022217e-03  -5.6169368326663971e-04  -1.3719522394239902e-02   1.3567027635872364e-02   1.5575304627418518e-02  -3.5852007567882538e-02  -1.1196623556315899e-02   5.3158849477767944e-03  -4.4061657972633839e-03   1.8977924482896924e-03  -3.4239429514855146e-03  -9.6555138006806374e-03   2.9550790786743164e-03   4.6595390886068344e-03  -1.0085071437060833e-02   2.6767475064843893e-03  -1.9991896115243435e-03  -1.3529356801882386e-03   1.2967470102012157e-03  -2.1625882945954800e-03  -3.8876826874911785e-03  -3.7113903090357780e-04   5.7515474036335945e-03   1.0846286080777645e-02   8.0753080546855927e-03   7.4422231409698725e-04   8.8256398157682270e-05  -1.6657421365380287e-03   3.3915821404661983e-05   4.5667539234273136e-04  -1.5810193726792932e-03  -5.8042031014338136e-05   1.9144897814840078e-03   1.6437636222690344e-03  -2.3132541682571173e-03  -2.6784241199493408e-03   2.1849535405635834e-03   2.6389479171484709e-03  -1.0816926369443536e-03   2.7504860190674663e-04  -3.1537651084363461e-03   2.5503553915768862e-03   8.2485433667898178e-03   6.5610590390861034e-03  -1.0195951908826828e-03  -1.6592121683061123e-03  -7.3744193650782108e-04  -2.0958040840923786e-03   9.8332914058119059e-04  -1.3971100270282477e-04   2.3500109091401100e-03  -4.5491405762732029e-03  -2.9201293364167213e-03  -4.5768488198518753e-03   4.0541752241551876e-03   6.3687324291095138e-04  -1.1196747422218323e-02  -5.5864620953798294e-03  -1.4088639989495277e-02  -2.7385854627937078e-03  -5.0517399795353413e-03  -8.1830220296978951e-03  -1.1729235760867596e-02  -2.4488498456776142e-03   3.6861689295619726e-04  -1.2256222544237971e-03   1.9627243746072054e-03  -3.5315684508532286e-03   1.7447281861677766e-03  -9.8354194778949022e-04   1.1126771569252014e-02  -1.7560969572514296e-03  -1.2630117125809193e-03  -2.9101243126206100e-04  -3.8662794395349920e-04   3.3393945544958115e-02   5.6622754782438278e-02   3.3874802291393280e-02  -1.5469043282791972e-03   2.5990169495344162e-02   2.4726556148380041e-03   2.4009749758988619e-03  -6.1788563616573811e-03  -1.6846109181642532e-02  -1.5484745614230633e-02  -4.7499306499958038e-02  -6.5539807081222534e-02  -3.8685306906700134e-02   7.4754995293915272e-03  -4.9805026501417160e-03   4.1929171420633793e-03  -1.2304773554205894e-03   2.7525133918970823e-04   3.9711776189506054e-03   7.2548179887235165e-03   2.6011351495981216e-02   9.6434326842427254e-03   1.7710203537717462e-03  -2.8153206221759319e-03  -7.3361377872060984e-05  -2.6281566824764013e-03  -2.5584604591131210e-03   6.3238351140171289e-04  -1.0506043210625648e-02  -3.5916345659643412e-03   3.2417671754956245e-03  -2.9949015006422997e-03  -8.5895014926791191e-03   1.2286227429285645e-03  -4.0623699896968901e-04   1.0665021836757660e-03  -4.8849256709218025e-03  -7.6757310889661312e-03   1.0287625482305884e-03  -3.3782783430069685e-03  -6.9598510162904859e-04  -7.4688247404992580e-03  -2.8455394203774631e-04   1.6965575050562620e-03   2.5411900132894516e-03  -2.1498962305486202e-03   1.2919307919219136e-03  -2.0573043730109930e-03  -3.4473586129024625e-04  -1.5123740304261446e-03  -7.3217239696532488e-04  -2.0605266036000103e-04   2.6350265834480524e-03   3.5658183041960001e-03  -1.1332869762554765e-03   2.3379062768071890e-03   1.6738107660785317e-04   1.5272205928340554e-03  -7.1789370849728584e-04   6.5771901063271798e-06   2.0547541789710522e-03   3.6732710432261229e-03   7.1803666651248932e-04   3.4446350764483213e-03   1.7431616783142090e-02   9.4706239178776741e-03   3.6810475867241621e-03  -1.5345138963311911e-03   3.3725542016327381e-03   7.1127475239336491e-03   9.8540808539837599e-04  -7.8039085492491722e-03   4.6703233383595943e-03   7.8831110149621964e-03  -1.0744017548859119e-02  -3.8385358639061451e-03   1.8119752639904618e-03   4.6953060664236546e-03   3.3156806603074074e-03   2.1473478991538286e-03  -3.3500303979963064e-03  -1.6625388525426388e-03  -2.2319579496979713e-02  -4.2601782828569412e-02  -3.1182035803794861e-02  -8.2276696339249611e-03   1.3559054350480437e-03   8.0843605101108551e-03   3.6612630356103182e-03   4.6285083517432213e-03   1.2761226389557123e-03   5.9066828340291977e-02   5.2036881446838379e-02   8.1523694097995758e-03   7.3195919394493103e-03   8.6356149986386299e-03   1.8684874521568418e-03   1.0012459242716432e-03   5.6471950374543667e-03  -1.6530511900782585e-02  -1.7539013177156448e-02  -1.2375617399811745e-02   5.4992316290736198e-04   1.1182975955307484e-02   4.0508778765797615e-03  -4.9604807281866670e-04   2.8542729560285807e-03   3.4245837014168501e-03   4.7121588140726089e-03   1.2752006761729717e-02   3.9818566292524338e-03  -6.3234763219952583e-03  -8.4540602983906865e-04   4.1606682352721691e-03   3.2256094273179770e-03   3.1110113486647606e-03  -5.4647424258291721e-03   4.7591212205588818e-03   1.1293390998616815e-03  -8.6634987965226173e-03   2.3437019262928516e-04  -1.3578833313658834e-03  -8.0373481614515185e-04   5.0873664440587163e-04   1.3370841043069959e-03  -6.5068004187196493e-04  -5.3506573749473318e-06   3.3038242254406214e-03   6.2026828527450562e-04  -2.0475417841225863e-03   1.7782299546524882e-03  -1.9509284757077694e-03  -9.2452467652037740e-04  -1.3796653365716338e-03   1.1005599517375231e-03   2.8623533435165882e-03   1.3361736200749874e-03  -1.8372470512986183e-03  -2.1907892078161240e-03  -1.3960840879008174e-03  -2.4480139836668968e-03  -1.7604073509573936e-03   4.4314786791801453e-03   7.6382863335311413e-03   8.6434781551361084e-03   1.5548400580883026e-02   1.4389870688319206e-02   3.3372461330145597e-03   1.8803931307047606e-03  -7.6032307697460055e-04  -3.9376149652525783e-04   1.7529714386910200e-03  -2.2656742658000439e-04   1.1082049459218979e-03   2.2496806457638741e-02   6.6364272497594357e-03  -1.3432733714580536e-02   6.3452110625803471e-03   4.2323390953242779e-03  -2.5419224402867258e-04  -3.7978761247359216e-04  -3.9601716707693413e-05   6.5000783652067184e-03  -1.2523883022367954e-02   4.4916788465343416e-04  -3.9444547146558762e-03   8.5352119058370590e-03  -2.1572154946625233e-03  -3.3893657382577658e-03  -1.9834213890135288e-03   5.2656112238764763e-03  -1.0542144998908043e-02   3.9405439049005508e-02   2.3156844079494476e-02  -1.3406094163656235e-02   2.5427697692066431e-03  -3.9395885542035103e-03  -2.0955938380211592e-03  -3.6551931407302618e-03  -2.4319696240127087e-03   2.6634826790541410e-03   1.4598974958062172e-02   1.5697665512561798e-02   5.2451719529926777e-03  -2.4984993506222963e-03  -7.5761083280667663e-04   1.3415694702416658e-03  -2.1748252038378268e-04  -5.3404201753437519e-03   4.8013641498982906e-03  -2.3086834698915482e-03  -1.5915348194539547e-04  -1.7136238748207688e-03  -4.6465084888041019e-03  -4.4759814627468586e-03  -4.5521385618485510e-04   1.1317859170958400e-03   7.2936213109642267e-04   5.3757750429213047e-03   2.8839234728366137e-03   5.2444944158196449e-03  -1.7938393284566700e-05  -3.3953031525015831e-03  -3.4347821492701769e-03   2.6912651956081390e-03   6.5964274108409882e-04  -8.5157097782939672e-04  -7.0220843190327287e-04   3.3185381907969713e-03  -1.6952585428953171e-03  -1.0498333722352982e-03  -3.0542821623384953e-03  -9.6029520500451326e-04   2.2518436890095472e-03  -1.2217108160257339e-03   2.0583192817866802e-03  -3.4480626345612109e-04   3.3425227738916874e-03  -1.3981445226818323e-03   1.2116685975342989e-03   1.3467013195622712e-04   8.7728963990230113e-05   3.9405389688909054e-03  -2.9593645595014095e-03   7.3629961116239429e-04  -9.0378168970346451e-03  -2.3113961797207594e-03   4.0431029628962278e-04   4.5469952747225761e-03   3.8505455013364553e-03   2.9000448193983175e-05   7.1929129771888256e-03   4.2923007276840508e-04   6.7679337225854397e-03  -8.0545747186988592e-04   2.7463585138320923e-03  -5.4313139989972115e-03  -3.4677877556532621e-03  -2.4840910919010639e-03   7.3602574411779642e-04   7.6693594455718994e-03  -2.1372947376221418e-03   1.4769776724278927e-02  -8.7903505191206932e-03  -1.8343463540077209e-02  -3.0283557716757059e-03   6.9087836891412735e-03  -1.2161091901361942e-02   1.9517960026860237e-03   2.5286951567977667e-03  -3.4727205056697130e-03   1.6255794093012810e-02  -2.6819290593266487e-02  -2.2508826106786728e-02   2.1877948194742203e-02   1.6080474480986595e-02  -1.5633981674909592e-02   1.0646749287843704e-03  -1.7658303258940578e-03   5.0199064426124096e-03   1.6121909022331238e-02  -1.3311254791915417e-02  -1.1875088326632977e-02   6.3121379353106022e-03   5.4535362869501114e-03  -5.7507166638970375e-03   7.4079603655263782e-04  -4.0656267665326595e-03   1.4902129769325256e-03   1.3145806267857552e-02  -2.2768080234527588e-03  -2.7746083214879036e-03  -1.1652066314127296e-04   3.2813108991831541e-03  -1.9807356875389814e-03  -1.1677490547299385e-03  -2.1753555629402399e-03  -1.4264348428696394e-03   4.0553137660026550e-03  -5.0146840512752533e-03  -1.2449744390323758e-03  -2.1000376436859369e-03   1.3698675902560353e-03  -5.1834987971233204e-05  -1.2697917409241199e-03   1.6521940415259451e-04  -9.4135326799005270e-04  -2.3006785195320845e-03   2.4256290635094047e-04  -1.6901368508115411e-03  -2.9444175306707621e-03  -2.3018016945570707e-03  -2.9774711001664400e-03   3.2639232813380659e-04   5.0968634895980358e-03  -2.2392391692847013e-03  -3.2721548341214657e-03   4.3600974604487419e-03   4.2708949185907841e-03   5.3152814507484436e-04  -2.0250345114618540e-03  -1.2992598931305110e-04   2.9496934730559587e-03   5.3610219620168209e-03  -2.5914108846336603e-03  -4.4839284382760525e-03   1.0733230970799923e-02   1.7373402370139956e-03  -1.8432326614856720e-03   5.6480229832231998e-03  -4.9666315317153931e-03  -1.2037070700898767e-03   5.3496588952839375e-03  -3.8170805200934410e-03  -2.0502282306551933e-02   2.0906087011098862e-02   1.1784140020608902e-02  -2.8930995613336563e-02   1.9339218735694885e-02  -4.1178860701620579e-03  -6.9416142068803310e-03   3.1980620697140694e-03   3.1690709292888641e-03  -1.6742277890443802e-02   1.2013316154479980e-02   6.0394678264856339e-02  -7.0669300854206085e-02   1.1826913803815842e-02   1.7943738028407097e-02  -5.2921281894668937e-04   1.1413692263886333e-03   3.1777112744748592e-03  -6.1586550436913967e-03  -2.4579200893640518e-02   5.1614999771118164e-02  -3.5142309963703156e-02  -1.6896011307835579e-02   2.7426181361079216e-02   3.2435248140245676e-03  -6.9636298576369882e-04   4.0305643342435360e-03   3.5085214767605066e-03  -1.3610765337944031e-02   1.3035544194281101e-02   8.8996728882193565e-03  -2.2241935133934021e-02   1.5040049329400063e-02  -3.2256275881081820e-03  -2.9948679730296135e-03  -1.9701142446137965e-04   2.7254095766693354e-03   5.3397315787151456e-04  -3.4516002051532269e-03   5.8857304975390434e-03  -8.0105951055884361e-03   1.1186822317540646e-02   5.0761923193931580e-04  -1.3200362445786595e-03  -1.8010612111538649e-03   1.3744446914643049e-04   2.2384878247976303e-03   2.0180286082904786e-04   1.9286212045699358e-04  -3.4215950872749090e-03   3.7352335639297962e-03   2.0501946564763784e-03  -6.0051621403545141e-04   4.7093638568185270e-04   3.2304627820849419e-03   4.0799528360366821e-03   2.1548448130488396e-03   5.4430839372798800e-04  -5.2371541969478130e-03  -5.3365901112556458e-03   1.5555068384855986e-03  -5.3149409359320998e-04   8.0286711454391479e-04  -5.7318434119224548e-04  -5.6742378510534763e-03  -7.9709952697157860e-03   1.2514659902080894e-03   6.8975724279880524e-03  -6.7352072801440954e-04   2.7823483105748892e-03  -5.6445347145199776e-03   2.3793857544660568e-03  -2.6915627531707287e-03  -1.6012856736779213e-02  -1.5169851481914520e-02  -5.2210730500519276e-03   6.6018039360642433e-03   6.0157119296491146e-03   5.3411796689033508e-03  -3.9367815479636192e-03   7.1208677254617214e-03   9.3559864908456802e-03   1.4534392394125462e-02   2.3257549852132797e-02   6.7718760110437870e-03  -4.2661844054237008e-04  -5.8658430352807045e-03  -5.3112460591364652e-05  -6.4834980294108391e-03   9.5258373767137527e-03   2.4977885186672211e-02  -1.8353298306465149e-02  -3.7207923829555511e-02   8.9488970115780830e-03   7.7398438006639481e-03  -1.6424709931015968e-02  -1.2917710701003671e-03  -9.6287280321121216e-03   4.4213486835360527e-03   1.3314652256667614e-02  -1.2219039723277092e-02  -1.4212356880307198e-02   2.8106871992349625e-02   2.4814141914248466e-02  -8.3345696330070496e-03   1.7530833138152957e-03   6.9279520539566875e-04   3.2060097437351942e-03  -1.1495775543153286e-02   5.0339316949248314e-03   9.4569958746433258e-03  -7.4640836101025343e-04   7.0649636909365654e-03   1.3684855075553060e-03   3.9499406702816486e-03   3.6379804369062185e-03   1.5062849270179868e-03  -1.0256730020046234e-02   1.3794564874842763e-03  -1.4428582973778248e-02  -1.4212802052497864e-02   3.9328089915215969e-03   1.4158689882606268e-03  -1.5214479062706232e-03  -1.6428210074082017e-03   3.7665371783077717e-03   3.6518566776067019e-03  -1.1313431896269321e-03  -7.7271275222301483e-04   1.4059626264497638e-03   6.3670617528259754e-03   1.7607053741812706e-03  -1.9693947251653299e-05   3.6165681667625904e-03   1.2171129928901792e-03  -2.3000591900199652e-03   4.4299527071416378e-03   3.5396141465753317e-03   5.4871006868779659e-03   1.3193418271839619e-03  -8.1058789510279894e-04  -1.9146675476804376e-03   3.0884661246091127e-03  -1.1452849721536040e-03  -4.0503344498574734e-03   4.0405839681625366e-03  -8.8753510499373078e-04  -1.7133672954514623e-03  -1.8057820852845907e-03  -1.8344277050346136e-03   5.6072871666401625e-04  -1.3201687252148986e-03  -1.1216826969757676e-03   4.0484238415956497e-03   9.9032381549477577e-03  -8.7454281747341156e-03  -1.0089179500937462e-02  -6.2467851676046848e-03  -2.3507738951593637e-03  -9.4438662927132100e-05   2.2928358521312475e-03  -1.2774782953783870e-03  -7.2745685465633869e-03   3.6982707679271698e-03  -3.7463821936398745e-03   5.0633107312023640e-03   5.7884557172656059e-03  -3.3629597164690495e-03  -4.1142650879919529e-03   3.5436591133475304e-03  -2.9923396650701761e-03  -2.5439389050006866e-02   2.1636804565787315e-02   8.2682876382023096e-05  -5.2197794429957867e-03   5.9224232099950314e-03  -8.9406222105026245e-03  -5.5893198587000370e-03   2.3230880033224821e-03  -4.8433882184326649e-03  -1.9887946546077728e-02   4.0801446884870529e-02  -1.7627596855163574e-02  -1.5132408589124680e-02   1.0946837719529867e-03  -8.1208115443587303e-03  -3.6327252164483070e-03   1.7073161434382200e-03  -4.0937406010925770e-03  -1.1092034168541431e-02   1.0809877887368202e-02  -1.2792343273758888e-02  -6.6695007262751460e-04   7.7891764231026173e-03  -6.7544905468821526e-03  -6.1921407468616962e-03   8.7745784549042583e-04  -1.0508298873901367e-03  -5.8878711424767971e-03   4.1712182573974133e-03   5.5238278582692146e-04  -8.4490922745317221e-04   5.1623024046421051e-03  -2.3010524455457926e-03  -5.1659904420375824e-03  -5.2655348554253578e-04  -9.5327099552378058e-04  -5.5825696326792240e-03   1.1877152137458324e-03   2.8441394679248333e-03   7.1039707399904728e-03   3.6722095683217049e-03  -1.0865408694371581e-03   7.7331751526799053e-05   1.2893670937046409e-03   1.8368818564340472e-03   7.8259996371343732e-04  -2.4273267481476068e-03  -6.0065835714340210e-03  -1.4265227364376187e-03   2.4195138830691576e-03   2.3167952895164490e-03   2.1498173009604216e-03  -1.1865500709973276e-04  -2.4247423280030489e-03   1.0893021244555712e-03   5.7813897728919983e-04   1.2947467621415854e-03   4.8847328871488571e-03   6.7730451701208949e-04   9.9930376745760441e-04  -2.4354849301744252e-04   2.1628160029649734e-03   2.7425715234130621e-03  -3.4396580304019153e-04  -4.1775908321142197e-03  -7.3134726844727993e-03  -1.7659128643572330e-03   3.8516470231115818e-03  -2.0995489321649075e-03  -6.1428775079548359e-03  -4.9397028051316738e-03   2.1956188138574362e-03   6.3454122282564640e-03  -4.2707747779786587e-03  -2.2709973156452179e-02   2.4729318916797638e-02  -1.5368687920272350e-02   3.8758487789891660e-04  -1.8888341728597879e-03  -4.1748792864382267e-03   2.0027915015816689e-03   2.2613692563027143e-03  -1.3598253950476646e-02  -2.9572907835245132e-02   7.7255204319953918e-02  -2.9363203793764114e-02  -4.5534563250839710e-03  -6.7873378284275532e-03  -4.6661724336445332e-03   3.3580644521862268e-03   6.0030403546988964e-03   3.6799691151827574e-03  -2.9646279290318489e-02  -2.2598624229431152e-02  -7.8825354576110840e-03  -4.1100592352449894e-03  -6.7529459483921528e-03   9.6317235147580504e-06   1.7594799282960594e-04   2.3378111654892564e-04   7.1673970669507980e-03  -4.8737376928329468e-03   1.4486442320048809e-02   7.1133226156234741e-03  -3.5550433676689863e-03  -3.7026316858828068e-03  -3.2831195276230574e-03  -1.3580435188487172e-03  -1.0076628997921944e-02  -6.0886698774993420e-03  -1.3470477424561977e-02  -3.1647499417886138e-04   6.2088491395115852e-03  -1.7513292841613293e-03  -4.0360526181757450e-03  -2.6947148144245148e-03   2.2411628160625696e-03  -1.5945030609145761e-03  -5.4481055121868849e-04  -4.2648524977266788e-03   8.1916209310293198e-03   2.6966794393956661e-03  -1.5307188732549548e-03  -3.1563427764922380e-03  -1.9773268140852451e-03  -2.6176373939961195e-03  -2.8107729740440845e-03  -2.2628644946962595e-03  -3.0765489209443331e-03  -3.5548878367990255e-03   2.1032642107456923e-03  -3.0512311495840549e-03  -9.5931143732741475e-04  -5.4001272656023502e-04   5.6097516790032387e-04   2.9191721696406603e-03  -3.3812090987339616e-04  -2.4503609165549278e-03   9.4703893410041928e-04   8.5957674309611320e-03  -9.8458118736743927e-04  -1.5484890900552273e-03  -5.1415147027000785e-04   1.6212469199672341e-03   5.4586585611104965e-03   6.6503197886049747e-03   1.2828043662011623e-02   1.7516652122139931e-02   1.5744863077998161e-02   1.8517103744670749e-03   2.8202084358781576e-03  -5.7569087948650122e-04  -4.2044732253998518e-04   5.5190907005453482e-05  -9.5091843977570534e-03  -9.8275849595665932e-03  -5.0079589709639549e-03  -2.2958733607083559e-03  -5.1173707470297813e-03   8.8718406914267689e-05   6.1229174025356770e-04  -2.8916720766574144e-03  -5.7965456508100033e-03  -4.3385378085076809e-03  -2.3796889930963516e-02  -3.5246457904577255e-02  -6.7401872947812080e-03  -1.4069335302338004e-03   1.6576782800257206e-03   2.8794750105589628e-03   9.7186380298808217e-04  -2.6429777499288321e-03   9.0349316596984863e-03   3.1404253095388412e-02   2.2747911512851715e-02   1.1486192233860493e-02   1.8764097476378083e-03   7.9950463259592652e-04   1.3015752192586660e-03   1.9669835455715656e-03   9.0226414613425732e-04  -5.6215198710560799e-03  -1.0870334226638079e-03   7.3789716698229313e-03   1.0332829318940639e-02   9.9199907854199409e-03   3.1204069964587688e-03   2.4287226551678032e-04  -9.5369054179172963e-05  -1.9952810835093260e-03  -5.5145570077002048e-03  -1.1805283837020397e-02  -1.6720233485102654e-02  -1.2508419342339039e-02  -6.1158672906458378e-03  -4.1734408587217331e-03   5.8580248150974512e-04  -3.0098555725999177e-04   1.0261454008286819e-04  -2.3112924827728420e-04  -3.2700735609978437e-03   1.9330430077388883e-03  -6.2276888638734818e-04  -4.4871056452393532e-03  -4.9573630094528198e-03  -2.3236193228513002e-03   1.6868652310222387e-03   4.7086016274988651e-03   4.6114763244986534e-03   2.0726120565086603e-03   3.6380824167281389e-03  -6.8694720976054668e-03  -2.7316473424434662e-03   4.5198486186563969e-03  -2.1825646399520338e-04   2.6528805028647184e-03   8.9899695012718439e-04  -1.1456093052402139e-03  -8.0317026004195213e-03  -8.9623769745230675e-03  -5.1769416313618422e-04   7.5262701138854027e-03   1.2119092280045152e-03   5.7587251067161560e-03   9.3055493198335171e-04  -6.5031922422349453e-03  -1.7820021137595177e-02  -2.0518472418189049e-02   8.0041959881782532e-03   1.7695832997560501e-02   1.3956682523712516e-03  -4.7315973788499832e-03   3.7643599789589643e-03  -1.2704082764685154e-03   1.9263323629274964e-03   3.0602412298321724e-02   4.6041592955589294e-02   6.6877435892820358e-03  -1.7339350655674934e-02  -5.7240999303758144e-03   1.8208862747997046e-03  -2.8370160143822432e-03  -2.0546219311654568e-03   5.6658689863979816e-03  -5.6858728639781475e-03  -5.4645743221044540e-02  -5.3160816431045532e-02  -2.2035866975784302e-02  -8.4080286324024200e-03  -5.2358899265527725e-03   6.9872569292783737e-04   2.7785012498497963e-03  -8.8533461093902588e-03  -7.6459986157715321e-03   7.0516122505068779e-03   5.3103905171155930e-02   3.0250128358602524e-02   5.0375208957120776e-04  -1.6055941814556718e-03   2.7509978972375393e-03   1.8058122368529439e-03  -1.8308267462998629e-03   1.3982515782117844e-02   1.3642923906445503e-02   5.0928397104144096e-03   8.0826779594644904e-05   8.2493638619780540e-03   2.2458222229033709e-03  -1.0429706890136003e-03  -1.7727361992001534e-03  -1.7638655845075846e-03  -1.6258168965578079e-02  -3.6077957600355148e-02  -3.0553460121154785e-02  -1.7430977895855904e-02   2.0013067405670881e-03   1.5557955484837294e-03  -1.7028246074914932e-03  -9.4381997769232839e-05  -4.2013488709926605e-03  -7.1752644143998623e-03  -8.8283997029066086e-03   5.6455004960298538e-04   1.1807153932750225e-03   4.4495248585008085e-04  -4.6253427863121033e-03  -5.2617548499256372e-04  -3.4297828096896410e-03  -2.6426818221807480e-03  -2.0201927691232413e-04  -5.5449325591325760e-03  -3.8560680695809424e-04  -1.7675659910310060e-04  -4.8136635450646281e-04  -2.5587053969502449e-03   5.3187832236289978e-03  -4.5132879167795181e-03   2.2255848161876202e-03   3.8139636162668467e-03  -1.2222516350448132e-02   6.5603870898485184e-03   6.0777418548241258e-04  -2.6532791089266539e-03   2.0157535618636757e-04   3.2984069548547268e-03  -7.0649962872266769e-03   9.2817405238747597e-03   1.5730433166027069e-02  -2.8075139969587326e-02   2.3292805999517441e-03  -4.7451509162783623e-03  -7.7012423425912857e-03   7.8938371734693646e-04   5.7411012239754200e-03  -1.7593451775610447e-03  -1.6564950346946716e-02   1.0609531775116920e-02  -8.1285871565341949e-03  -3.9257439784705639e-03   4.4494108296930790e-03  -3.6959271528758109e-04  -1.0091656440636143e-04   1.9196002976968884e-03   1.3345647603273392e-03  -1.6428353264927864e-02   1.8562728539109230e-02   3.7780322134494781e-02  -1.5337493270635605e-02   8.5629429668188095e-03   6.7418562248349190e-03   3.3524885657243431e-04   9.6059631323441863e-04   2.9105395078659058e-03   9.3694720417261124e-03  -1.4279444701969624e-02   3.1091222539544106e-02  -3.1041033565998077e-02  -4.9852547235786915e-03   1.4889934100210667e-03  -1.6173014882951975e-03  -3.9033154025673866e-03   1.4030835591256618e-03   2.2185832262039185e-02  -2.3414470255374908e-02  -4.1013030568137765e-04  -1.4100548811256886e-02  -1.1101503856480122e-02  -2.0360898633953184e-04   1.6252506757155061e-03  -3.3030770282493904e-05  -2.1989219821989536e-03   1.3051111251115799e-02  -6.1326599679887295e-03   1.4675577403977513e-04   1.5165314078330994e-02  -4.5601595193147659e-03  -1.5492365928366780e-03   4.5299762859940529e-03  -2.8861721511930227e-03  -5.7165860198438168e-03   1.3219710672274232e-03  -4.5779910869896412e-03  -5.1866727881133556e-03   1.1158195324242115e-02   1.6295736422762275e-03  -6.8910056725144386e-03   3.7703837733715773e-03   2.9982093255966902e-03   6.0505332658067346e-04  -3.0141937895677984e-04  -1.1097211390733719e-03  -1.5179507900029421e-03   4.7059502685442567e-04   2.7377028018236160e-03   2.5733404327183962e-03   2.2685218136757612e-03   3.2504228875041008e-04   7.2882205131463706e-05  -2.0831010260735638e-05   2.3985048756003380e-03  -1.0283687151968479e-03   8.6602935334667563e-04   2.1412961650639772e-03  -2.1525004412978888e-03   4.1078907088376582e-04   1.9325348548591137e-03  -1.3975952751934528e-03  -1.8109258962795138e-03   3.2659193966537714e-03   3.0882284045219421e-03   2.4528319481760263e-03   6.0786134563386440e-03  -4.2071733623743057e-03  -1.9290954805910587e-03  -1.6815881244838238e-03  -1.5314702177420259e-03  -2.0169252529740334e-03  -6.6188001073896885e-03  -4.5960186980664730e-03  -6.7320972448214889e-04  -2.4392034392803907e-03  -2.8251687763258815e-04   1.3915901072323322e-03  -8.2180937752127647e-03   1.5936692943796515e-03  -1.2606035452336073e-03  -1.2373085133731365e-02   1.2030127458274364e-02  -6.4050115179270506e-04  -2.0482417196035385e-02   5.1178509602323174e-04  -2.3345034569501877e-03  -8.1754336133599281e-03   4.5151403173804283e-04   9.7743552178144455e-03  -2.8554466553032398e-03  -2.8461257461458445e-03   2.9352460987865925e-03  -2.7922061271965504e-03  -8.3948008250445127e-04  -3.7503547500818968e-03   3.9704083465039730e-03  -1.8408620962873101e-03  -7.1970773860812187e-03   3.9161159656941891e-03  -3.8647133857011795e-02  -2.7118466794490814e-02   7.3946323245763779e-03  -1.4642491936683655e-02  -4.5820749364793301e-03   2.3629404604434967e-03   1.8692190060392022e-03  -8.6222309619188309e-03   1.5680823475122452e-02   8.0333063378930092e-03   1.2457245029509068e-02   1.2120123021304607e-02  -7.9409470781683922e-03  -1.6687348252162337e-03  -3.8254042156040668e-03   8.7432283908128738e-04  -1.9249778706580400e-03  -2.1151916589587927e-03  -6.5961508080363274e-03  -9.0392450147191994e-06   4.9228809075430036e-04   4.2712717549875379e-04   3.1114818993955851e-03  -5.0368318334221840e-03  -3.9783199317753315e-03  -1.9520627101883292e-03  -2.3457754869014025e-03  -9.0862894430756569e-03   2.3745426442474127e-03  -2.1813095081597567e-03  -3.2635862007737160e-03  -2.5384875480085611e-03  -1.1706203222274780e-03  -8.5034720541443676e-05  -7.0784683339297771e-04   1.8288088031113148e-03  -7.9358788207173347e-03  -3.9412468322552741e-04   2.0385575480759144e-03  -1.8042430747300386e-03  -1.2848736951127648e-03   1.8159066094085574e-03   8.4411486750468612e-04   2.5064735673367977e-03   2.4878594558686018e-03  -5.1461779512465000e-03  -3.7149579729884863e-03   1.5706915874034166e-03  -4.4863745570182800e-03   1.5825177251826972e-04  -1.8696342594921589e-03  -2.2816967684775591e-03  -3.9940798887982965e-04  -1.9055381417274475e-03  -8.3276787772774696e-03   1.5249555930495262e-02   9.5279812812805176e-03  -3.8611134514212608e-03   2.7501836884766817e-03   3.8815885782241821e-03  -3.7732187192887068e-03  -7.8323222696781158e-03  -6.8539245985448360e-03  -2.7969283983111382e-02   3.3346552401781082e-02   1.7216175794601440e-02  -1.3810910284519196e-02   7.5099710375070572e-03   3.6335098557174206e-03  -4.7465455718338490e-03  -4.4900262728333473e-03   3.5279300063848495e-02  -9.9147865548729897e-03  -1.1690262705087662e-02   3.8912997115403414e-03  -1.4290004968643188e-02   9.4842375256121159e-04   2.3336235899478197e-03  -7.5893825851380825e-03  -1.3706124387681484e-02   2.6794884353876114e-02   2.5744092999957502e-04  -1.2440968304872513e-02   4.5718224719166756e-03  -8.1078065559267998e-03  -1.0971184819936752e-03  -2.7974063996225595e-03  -1.9229247700423002e-03  -1.1047155596315861e-02  -2.1965617779642344e-03  -6.2770494259893894e-03   4.7775041311979294e-03   1.1820438317954540e-02  -1.4284851495176554e-03   1.2910903897136450e-03  -3.7442084867507219e-03   6.0643709730356932e-04  -1.3976651243865490e-03   2.8940781485289335e-03  -6.8770814687013626e-03  -4.6475551789626479e-04   1.1756923049688339e-03  -5.3836015285924077e-04  -1.8491949595045298e-04  -5.0207570893689990e-04  -9.7898230887949467e-04   1.5682198572903872e-03   1.5891816001385450e-03   5.1832520402967930e-03   2.3244344629347324e-03   3.7612295709550381e-03  -2.6849829591810703e-03  -2.0153203513473272e-03   2.8341712895780802e-03  -1.6511119902133942e-03   1.9557429477572441e-03   1.4640617882832885e-03  -8.3001526072621346e-03  -5.6582042016088963e-03   5.3983186371624470e-03   4.7305421321652830e-04   3.1452809926122427e-03   2.1000849083065987e-03  -1.6886914381757379e-03   1.9228946184739470e-03  -7.1193004259839654e-04  -2.2593621164560318e-02  -1.3475500978529453e-02  -6.8097319453954697e-03  -1.3687134720385075e-02   4.8115025274455547e-03   6.5698893740773201e-04   4.4851168058812618e-03   1.7275746911764145e-02  -1.3999801129102707e-02  -1.5365778468549252e-02   5.4089017212390900e-02   4.3231169693171978e-03  -2.7940364088863134e-03   1.6210470348596573e-02   2.9493886977434158e-03   1.5433080261573195e-03   5.0546866841614246e-03  -1.8218277022242546e-02   3.4131358843296766e-03   9.4053640961647034e-02   1.0107917711138725e-02  -1.6280535608530045e-02   1.3124098069965839e-02   1.1684870114549994e-03   1.5345013234764338e-03   1.2487765401601791e-02  -1.4322494389489293e-03  -3.3252805471420288e-02  -1.8846858292818069e-02  -1.4674545265734196e-02  -1.3333818875253201e-02   8.5639730095863342e-03   1.0079862549901009e-02   5.9088487178087234e-03   1.0334395803511143e-02   1.1941963806748390e-02   2.9100375249981880e-02   2.4415191262960434e-02   1.0735254734754562e-02   5.5247810669243336e-03   9.4802174717187881e-03   2.3734453134238720e-03  -4.9102015327662230e-04   5.4227304644882679e-03  -2.2965117823332548e-03  -1.6457483870908618e-03  -5.8755325153470039e-03   1.8045215401798487e-03   4.6301577240228653e-03   3.8916741032153368e-03   1.6422594489995390e-04  -2.8395438566803932e-03   7.0631195558235049e-04  -5.6706368923187256e-03  -5.3168940357863903e-03  -8.5779502987861633e-03  -5.1060556434094906e-03  -3.0194295104593039e-03   1.6067567048594356e-03  -1.0388009250164032e-03  -2.0717075094580650e-03   4.2790637235157192e-04  -6.2023922801017761e-03  -5.4736337624490261e-03  -2.9322996269911528e-03   1.1895489878952503e-03   2.2127048578113317e-03   5.5660484358668327e-03   1.3843170600011945e-03   2.3946783039718866e-04   1.5649737324565649e-03   1.0974596953019500e-03   5.7001472450792789e-03   3.0813349876552820e-03  -3.4832679666578770e-03  -1.7044775886461139e-03   4.3518375605344772e-03   5.6537273339927197e-03  -4.3247605208307505e-04   8.1239975988864899e-03   1.5202999114990234e-02   9.1532925143837929e-03  -3.3329392317682505e-03  -1.1850181035697460e-02  -9.2144561931490898e-03   3.3610512036830187e-03   1.6404513735324144e-03   7.1836111601442099e-04   6.6154352389276028e-03  -1.9967513158917427e-02  -1.2174943462014198e-02   1.0276437737047672e-02   6.0019544325768948e-03  -5.0507765263319016e-03   3.3887419849634171e-03  -4.7523416578769684e-03  -1.4981703134253621e-03  -8.4307027282193303e-04  -3.8584897993132472e-04   3.9447192102670670e-02   3.0774079263210297e-02   1.6750652343034744e-02  -5.1392349414527416e-03   2.0842023659497499e-03   6.4263312378898263e-04   2.2030705586075783e-03   7.4246252188459039e-04   9.1870734468102455e-03  -2.1684088278561831e-03  -2.8403189033269882e-02  -9.2948796227574348e-03  -7.5475536286830902e-03   3.4133954904973507e-03   2.1200692281126976e-03  -7.0188322570174932e-04  -3.9149895310401917e-03  -3.5913221072405577e-03  -5.9803565964102745e-03  -1.2755355797708035e-02  -2.3653930984437466e-03  -3.7660186644643545e-03   1.0860913898795843e-03  -1.1652662651613355e-03  -1.4866188867017627e-03  -2.1133369300514460e-03   3.1574559397995472e-03   1.3104621320962906e-02   2.5276862084865570e-02   1.3586631976068020e-02  -2.2004828788340092e-03   2.5315682869404554e-03  -2.0858068019151688e-03  -1.2555598514154553e-03  -7.3855125810950994e-04   6.4833677606657147e-04   1.7750493134371936e-04   2.3043118417263031e-03   6.7201693309471011e-04  -2.5490515399724245e-03   1.8712668679654598e-03   5.3907283581793308e-03   1.3801889726892114e-03  -2.0269965752959251e-03   2.1941419690847397e-03   2.5424542836844921e-03  -4.6106949448585510e-03  -2.2697304375469685e-03  -2.0767657551914454e-03   3.4976429305970669e-03   3.4789612982422113e-04  -8.3270977484062314e-04  -2.5730545166879892e-03  -2.8846929781138897e-03  -3.3840678952401504e-05  -1.2695349287241697e-03   2.1633333526551723e-03   4.3894182890653610e-03   2.9314460698515177e-03   3.2530332100577652e-04  -2.9542897827923298e-03  -2.6122452691197395e-03  -3.2944036647677422e-03  -2.8558713383972645e-03  -3.2708959770388901e-04   3.3529652282595634e-03   3.7224075640551746e-04  -3.0679353512823582e-03   7.5535015203058720e-03  -2.4677878245711327e-03   1.1757679749280214e-04   3.0834765639156103e-03   7.8914193436503410e-03  -1.0696561075747013e-02   2.1790100727230310e-03   1.1545500019565225e-03   3.1163247767835855e-03   6.7288591526448727e-03  -6.0715437866747379e-03  -2.3098194506019354e-03  -5.0931475125253201e-03   1.9973773509263992e-02  -5.5939080193638802e-03   6.7662037909030914e-03   5.5652195587754250e-03   4.5952242799103260e-03   5.7963985018432140e-03  -2.7722602244466543e-03  -7.9708220437169075e-03   4.3385187163949013e-03   2.7951123192906380e-02  -1.2805490754544735e-02   2.2802732419222593e-03   3.3136154524981976e-03   2.4321377277374268e-03   3.7148108240216970e-03  -1.1581244179978967e-03  -6.1907051131129265e-03  -2.9383334331214428e-03   8.1827566027641296e-03  -9.1874487698078156e-03   6.9316760636866093e-03   6.0874144546687603e-03   4.8079681582748890e-03   2.5144155370071530e-04  -1.5821255510672927e-03  -1.0195811046287417e-03   1.5701632946729660e-04   1.8417041748762131e-02  -6.3604330644011497e-03   7.1494857547804713e-04   2.8873309493064880e-03   2.3973826318979263e-03  -3.1544330995529890e-03  -3.3296129549853504e-04  -6.8245828151702881e-04  -4.9811089411377907e-03   6.1136963777244091e-03  -4.9856440164148808e-03  -1.2835778761655092e-03   4.7759103472344577e-04   2.3829779820516706e-05  -2.1933643147349358e-03  -5.6326895719394088e-04   2.5050768163055182e-03   3.7857641000300646e-03   4.7883084043860435e-03   6.8160786759108305e-04  -3.3039471600204706e-03   1.6923804068937898e-03  -6.6491216421127319e-04  -1.7047123401425779e-04  -6.7879474954679608e-04  -7.4368348577991128e-04  -1.6565598780289292e-03  -1.0221311822533607e-03   3.3223186619579792e-04   6.7255488829687238e-04   3.1829936779104173e-04   7.9215026926249266e-04  -1.2128059752285480e-03  -4.7417395398952067e-04  -3.6834036000072956e-03  -5.0423294305801392e-03  -1.1724185198545456e-02  -9.9457788746803999e-04  -2.6566500309854746e-03  -2.2585524711757898e-03   3.2816003076732159e-03  -1.7942277481779456e-03   7.2520319372415543e-04  -6.7733280593529344e-04   5.5084396153688431e-03   3.7508404348045588e-03  -9.8943244665861130e-03  -7.7974461019039154e-03   7.0540350861847401e-03   3.5512975882738829e-03   6.0931672342121601e-03   3.9627994410693645e-03   3.7458383012562990e-03   2.9311645776033401e-02   4.5768246054649353e-02   2.2032020613551140e-02   4.9117924645543098e-03   5.0969352014362812e-03   3.0709374696016312e-03  -3.3057590480893850e-03  -4.2328340932726860e-03  -1.7791199497878551e-03  -2.8829453513026237e-02  -3.7300236523151398e-02  -3.4798357635736465e-02  -5.4392744787037373e-03  -4.5024645514786243e-03  -2.0541683770716190e-03  -8.1383273936808109e-04   3.5882606171071529e-03   1.3350684195756912e-02   3.7653557956218719e-03   8.6792968213558197e-03  -3.6587791983038187e-03   1.0757822543382645e-02   8.4020439535379410e-03   5.2381921559572220e-03  -1.9342161249369383e-03  -3.6887475289404392e-03  -3.7922933697700500e-03   5.1186600467190146e-04  -1.3786135241389275e-03   2.2780892904847860e-03   2.8780223801732063e-03  -1.0122354142367840e-03   1.4804678503423929e-03  -9.9616509396582842e-04  -2.8764232993125916e-03  -3.3416955266147852e-03  -3.8917951751500368e-03   1.5358920791186392e-04   7.1281911805272102e-03   2.3577758111059666e-03  -6.2612059991806746e-04  -2.2119637578725815e-03   3.5080936504527926e-04   2.4798533413559198e-03   5.1185651682317257e-03  -3.0205431394279003e-03   5.0895591266453266e-03   2.6882672682404518e-03   7.5529929017648101e-04  -3.9358199574053288e-03  -3.9006152655929327e-03   3.2526976428925991e-03  -2.1154335991013795e-04   2.6324118953198195e-03  -3.2324390485882759e-03   3.2996388617902994e-03   1.2418035184964538e-03   7.4066729284822941e-03  -2.7562507893890142e-03  -5.9042633511126041e-03   7.0631988346576691e-03  -2.1896192338317633e-03  -1.6329565551131964e-03  -1.0878496104851365e-03   2.3893741890788078e-03  -3.0223673675209284e-03   2.2733101621270180e-02  -4.0142107754945755e-03  -5.2303466945886612e-03   5.7086776942014694e-03  -2.6524127461016178e-03  -3.2210818026214838e-03   1.0870501399040222e-02  -6.9851898588240147e-03  -6.7278360947966576e-03   2.1790595725178719e-02  -2.9906613752245903e-02  -8.5329636931419373e-03   1.2494155671447515e-03  -3.5541621036827564e-03   2.9106496367603540e-03   9.4630401581525803e-03  -4.2180925607681274e-02   1.2193519622087479e-02   2.6064125820994377e-02  -2.7179563418030739e-02  -2.4742912501096725e-03   3.7159369094297290e-04  -4.4838781468570232e-03   1.2665325775742531e-02   8.6755640804767609e-03  -3.7977360188961029e-02   4.2166881263256073e-02   2.8198340442031622e-04  -1.3449988327920437e-02   9.4338599592447281e-04  -4.9095670692622662e-03  -5.3160125389695168e-03   1.8643230199813843e-02  -4.4334921985864639e-03  -1.0776694864034653e-02   2.7691306546330452e-02  -1.0339736938476562e-02  -4.1948519647121429e-03  -1.7353133443975821e-05  -6.5386397764086723e-03   3.2224506139755249e-03   1.4242135919630527e-02  -1.7447233200073242e-02  -5.1750261336565018e-03   8.4258494898676872e-03  -2.1132822439540178e-04  -6.0297916643321514e-03  -3.1458931043744087e-03  -5.2002589218318462e-03   3.2780119217932224e-03   8.2336850464344025e-03  -9.6950326114892960e-03  -2.5673683267086744e-03   2.4369414895772934e-03   2.1850876510143280e-03  -5.3974562324583530e-03   8.9864229084923863e-04  -6.6369172418490052e-04   5.7071604533120990e-04  -3.5600485280156136e-03   1.1618797434493899e-03  -4.9414620734751225e-03  -9.4521390274167061e-03   4.7429529950022697e-03   7.0547992363572121e-03   3.5033784806728363e-03   2.7215008158236742e-03   1.5578484162688255e-03  -4.6422858722507954e-03   2.3693584371358156e-03   4.3037445284426212e-03  -3.3893182408064604e-03  -1.5258113853633404e-03   1.9488402176648378e-03   4.6657891944050789e-03   5.6672086939215660e-03   2.9259505681693554e-03  -5.6484970264136791e-03   7.7548264525830746e-03   2.0635033026337624e-02   2.4101574672386050e-04  -6.5537141636013985e-03  -4.4045518152415752e-03   1.7349979607388377e-03   3.5312448162585497e-03   3.0629470711573958e-04  -2.2675166837871075e-03   6.8348553031682968e-03  -8.4780208999291062e-04  -2.6308694854378700e-02   1.2904076138511300e-03   6.3643688336014748e-03   3.7188867572695017e-03  -2.5099711492657661e-03   2.3137493990361691e-03   1.5558328479528427e-02   9.7560072317719460e-03  -5.1777150481939316e-02  -2.4734837934374809e-02   1.5245012938976288e-02  -7.8410068526864052e-03   2.6612535584717989e-03  -7.7641899697482586e-03   4.5909155160188675e-03   1.7450429499149323e-02  -1.1625536717474461e-02  -2.7496920898556709e-02   5.6581396609544754e-02   7.4515771120786667e-03  -2.1161403506994247e-02   2.0129079930484295e-03  -6.8068713881075382e-03   8.4283286705613136e-03   1.8694000318646431e-02  -1.3387156650424004e-02  -1.2520670890808105e-02   1.8179994076490402e-02   6.6752731800079346e-04  -2.1151448599994183e-03   4.7873612493276596e-03  -4.8064403235912323e-03   2.8289880137890577e-03   4.9101482145488262e-03  -2.9969101306051016e-03  -2.0510064437985420e-02  -1.4600902795791626e-02   8.6921610636636615e-04   3.3856222871690989e-03   4.6956352889537811e-03   2.0476041827350855e-03   2.0170526113361120e-03   2.4015442468225956e-03   3.3136610873043537e-03  -7.0121139287948608e-03  -1.0123689426109195e-03   4.6033956459723413e-04   1.5932280803099275e-03   4.3740434921346605e-04   2.4623309727758169e-03   4.0369577618548647e-05  -6.9184147287160158e-04   1.4351284335134551e-05   3.1813527457416058e-03   1.6131626907736063e-03   9.1974181123077869e-04  -1.3194772182032466e-03  -1.5451930230483413e-03   1.1303785722702742e-03  -1.8502389139030129e-04  -1.1890729656443000e-03   1.2529054656624794e-03   1.1460509849712253e-03  -3.3374486956745386e-03   8.0371904186904430e-04   1.0852217674255371e-03  -1.2756638461723924e-03   5.5918836733326316e-04   2.0676874555647373e-03  -7.9310871660709381e-04  -4.3972064740955830e-03   1.5129105886444449e-03  -1.6132525634020567e-03   3.5430344287306070e-03   7.7766296453773975e-03   2.4423624854534864e-03   2.7784004341810942e-03  -9.1820128727704287e-04   1.3852870324626565e-04   5.1510677440091968e-04   4.2962556472048163e-04  -9.4654727727174759e-03  -3.1594417523592710e-03   4.2392094619572163e-03   1.0655601508915424e-03  -2.1202778443694115e-03  -5.5551016703248024e-03  -1.1408320860937238e-03   1.3894585892558098e-02   2.2905159741640091e-02  -4.8725386150181293e-03  -9.3998350203037262e-03   3.9475540688727051e-05  -3.9325263351202011e-03  -1.3556602643802762e-03   3.4112064167857170e-03   8.1462622620165348e-04  -5.0110104493796825e-03   8.7156323716044426e-03   7.1449074894189835e-03   5.4022776894271374e-03   1.3425409793853760e-02  -7.1998802013695240e-04   2.8427576762624085e-04   7.8673771349713206e-04  -5.2406671456992626e-03  -2.0833769813179970e-03  -9.2973038554191589e-03  -2.3819621652364731e-02  -1.5672089532017708e-02   2.0826358813792467e-03  -4.4152076588943601e-04  -5.0499515054980293e-05   7.4359524296596646e-04   7.2074304334819317e-03   8.0352099612355232e-03   8.5673453286290169e-03   1.7491359263658524e-02   8.9931637048721313e-03   8.9319585822522640e-04   8.7725382763892412e-04  -3.1541227363049984e-03  -4.8290425911545753e-04   3.0420043040066957e-03  -4.5483857393264771e-03  -8.3852764219045639e-03  -4.5593902468681335e-03  -1.9054506265092641e-04   7.9064076999202371e-04   1.0194887872785330e-03  -3.9393445476889610e-03   1.3917264295741916e-03   4.4841825729236007e-04  -2.1248243283480406e-03  -3.7483735941350460e-03   2.1843838039785624e-03  -3.9308485575020313e-03  -5.2046909695491195e-04  -8.6249521700665355e-04  -6.0773477889597416e-03   2.4147166404873133e-03   1.0887747630476952e-03  -3.5182998981326818e-03  -2.3570947814732790e-03  -7.6424726285040379e-04  -1.0802086908370256e-03   2.8023442719131708e-03  -2.8777117840945721e-03  -1.1209295131266117e-02   3.6285419482737780e-03   1.3579258695244789e-02  -1.5612187562510371e-03   6.8440372124314308e-03   7.0064216852188110e-03   8.5335047915577888e-03   8.3003137260675430e-03  -1.6124605899676681e-03  -7.0334766060113907e-03   2.9441663064062595e-03   1.3996480964124203e-02  -4.4491845183074474e-03  -1.4969325857236981e-03   1.5569048933684826e-02   3.4309695474803448e-03  -2.1316579077392817e-03  -2.6029695291072130e-03  -4.5469612814486027e-03  -2.1309955045580864e-03   2.8051445260643959e-03   6.0533732175827026e-03  -1.3468913733959198e-02   3.2490700483322144e-02  -1.1622595600783825e-02  -2.2046213969588280e-02  -5.1405057311058044e-03  -3.3764622639864683e-03  -1.1014251504093409e-03  -2.6711323298513889e-03   3.2746437937021255e-03  -3.8364615291357040e-02   3.7425950169563293e-02   4.0608108974993229e-03  -1.1499016545712948e-02   2.0061293616890907e-03  -3.1586859840899706e-03   1.6016593144740909e-04   5.8887363411486149e-03   4.6399128623306751e-03  -2.0439390093088150e-02   2.2723134607076645e-02   1.0859892703592777e-02  -6.4762551337480545e-03   1.3568822760134935e-03   1.8527664942666888e-03  -5.1015766803175211e-04   1.1326873209327459e-03   1.1369731510058045e-03  -3.7577375769615173e-04  -1.4683547196909785e-03  -3.1136961188167334e-03  -1.5293071046471596e-03  -6.0233827680349350e-03   4.0671960450708866e-03   1.9853310659527779e-03  -8.4030744619667530e-04   1.4707292430102825e-03   1.5725948614999652e-03   9.8605826497077942e-04   5.2447395864874125e-04   1.6218712553381920e-03  -4.3836520053446293e-03   5.9067695401608944e-03  -2.0913656335324049e-03  -4.3286224827170372e-03   1.7657927237451077e-03  -2.0889821462333202e-03  -6.6219980362802744e-04   6.1119794845581055e-03   1.4171510701999068e-03   3.1105440575629473e-03   3.9251884445548058e-03  -3.5812044516205788e-03  -4.1452706791460514e-03   8.0545330420136452e-03   1.8741176463663578e-03  -3.4091086126863956e-03   4.3595330789685249e-03  -5.0462898798286915e-04   1.6238995594903827e-03   3.0519007705152035e-03  -4.2553632520139217e-03  -2.4531220551580191e-03   1.7358012497425079e-02  -1.8519588047638535e-03  -1.1613589711487293e-02   1.6022089403122663e-03   2.4028981570154428e-03   5.0685806199908257e-03   2.1604942157864571e-03  -5.0028753466904163e-03  -1.1585835367441177e-02   8.3485869690775871e-03   4.5551124960184097e-02   2.0003687590360641e-02   1.6365540213882923e-03   8.5049532353878021e-03   3.7629131693392992e-03   8.0538932234048843e-03  -3.1580310314893723e-03  -2.8471648693084717e-02   6.3565649092197418e-02   3.1597885489463806e-01   1.8674197793006897e-01   8.4681725129485130e-03   1.0426107794046402e-02  -3.0079614371061325e-03   5.3672897629439831e-03  -1.2933538528159261e-03  -1.6160374507308006e-02   6.2449336051940918e-02   2.4552887678146362e-01   1.6041415929794312e-01   2.3855874314904213e-02  -2.7018238324671984e-04   2.0293823909014463e-03   1.1834125034511089e-03   1.1682879412546754e-03  -2.6368042454123497e-03  -1.4627653174102306e-02   1.0509672574698925e-02   1.8733877688646317e-02   6.8098618648946285e-03  -2.5119779165834188e-03   8.0133397132158279e-03  -4.1443337686359882e-03  -2.6323136407881975e-03  -4.2588976793922484e-04  -6.8288897164165974e-03  -9.5704719424247742e-03  -1.5231278957799077e-03   3.0961276497691870e-03  -5.6457584723830223e-03  -2.3790898267179728e-03  -1.8632323190104216e-04   9.3175395159050822e-04   3.0834882054477930e-03   1.9856134895235300e-03  -2.8579328209161758e-03   1.0983063839375973e-03   8.9787291362881660e-03  -3.7710825563408434e-04   2.4578551528975368e-04  -1.7584353918209672e-03  -7.3929881909862161e-04  -2.3382313083857298e-03  -4.0475595742464066e-03  -9.8690828308463097e-03  -2.1983485203236341e-03  -5.7646236382424831e-03   9.2528352979570627e-04  -1.0469540720805526e-03  -7.3090760270133615e-04   6.0144561575725675e-04  -1.5045000473037362e-03   6.2420213362202048e-04  -2.6912260800600052e-03   3.0353703186847270e-04  -5.3596245124936104e-03   4.2784455581568182e-04  -1.5904506435617805e-03   2.1809972531627864e-04   6.1558012384921312e-04   9.0443418594077229e-04   4.7059082426130772e-03   1.9586961716413498e-03   4.6526580117642879e-03  -6.8323449231684208e-03  -2.6674317196011543e-03  -4.0187272243201733e-03   5.4065458243712783e-04  -6.5825117053464055e-04  -4.4003203511238098e-03  