  -4.8500508069992065e-02   5.9903152287006378e-02   1.4203621447086334e-01  -2.4399325251579285e-02   8.5882581770420074e-02   1.7853477597236633e-01  -1.2615465559065342e-02   3.4603852033615112e-01  -1.8574811518192291e-01  -1.1391481012105942e-01   1.8563973903656006e-01   3.8112187385559082e-01  -8.0085605382919312e-01   2.9449877142906189e-01   2.6394030079245567e-02  -3.4994699060916901e-02   2.2033639252185822e-01   1.6382904350757599e-01   1.3686145842075348e-01  -8.4065884351730347e-02   1.4159973710775375e-02  -9.1006599366664886e-02   2.3597408831119537e-01  -4.3352302163839340e-02   4.5009024441242218e-02   1.2793740630149841e-01   5.5271994322538376e-02   1.5073339454829693e-03  -9.3122363090515137e-02   5.2769750356674194e-02  -5.1558446139097214e-02  -3.6878976970911026e-02   2.6628139615058899e-01  -4.5180022716522217e-02  -2.6425804942846298e-02   7.8960612416267395e-02   1.6264681518077850e-01  -9.8992682993412018e-02  -8.6521387100219727e-02   2.6086094975471497e-01  -2.3384578526020050e-03   2.9983121901750565e-02  -7.1510165929794312e-02   3.1556043028831482e-01   1.5741504728794098e-02   5.8127574622631073e-02  -5.7060036808252335e-02  -2.2080201655626297e-02  -8.8772229850292206e-02   4.1325427591800690e-02   2.6852067559957504e-02  -9.2097129672765732e-03   1.1137122660875320e-01  -4.9938462674617767e-02   1.4085586182773113e-02  -4.3121144175529480e-02   1.0823051445186138e-02  -1.6861996054649353e-01  -1.4273457229137421e-02   3.1289476901292801e-02   8.4068827331066132e-02  -9.3076191842556000e-02   4.3270745873451233e-01  -4.4945441186428070e-02   2.8163675218820572e-02  -5.1838569343090057e-03  -1.1874286830425262e-01  -6.5278178453445435e-01   2.9205547645688057e-02  -7.9132519662380219e-02  -4.0441747754812241e-02   2.5552260875701904e-01   3.1561431288719177e-01  -4.9179621040821075e-02   5.2775651216506958e-02   5.1576107740402222e-02  -4.3302156031131744e-02   1.8140536546707153e-01  -2.9755400493741035e-02  -1.9776764512062073e-01   3.7316612899303436e-02  -1.3800230622291565e-01  -1.1545204371213913e-01   1.2643806934356689e+00  -8.2633443176746368e-02  -1.7088153958320618e-01   3.0960714817047119e-01  -1.0417492389678955e+00  -3.1805977225303650e-01   1.9979844987392426e-01   4.8913769423961639e-02  -6.8818330764770508e-02   3.4223407506942749e-01  -8.9855521917343140e-02  -2.4131659418344498e-02  -5.7986485771834850e-03   4.6635605394840240e-02  -1.8157519400119781e-01   1.3355021364986897e-02   3.1672790646553040e-02  -1.2791476212441921e-02   8.7632732465863228e-03   6.3442304730415344e-02  -1.4115286059677601e-02  -2.1722475066781044e-03  -3.4231144934892654e-02   1.1356228590011597e-01  -1.9953091442584991e-01   1.0361374914646149e-01   1.0615292936563492e-02  -4.4548869132995605e-02   1.8506618216633797e-02   4.3337836861610413e-01  -2.2947202622890472e-01   6.4197257161140442e-02   9.2981703579425812e-02  -9.8211514949798584e-01   5.2573263645172119e-01   6.5533854067325592e-02   1.1249151825904846e-01   2.2939068078994751e-01  -1.2413321435451508e-01  -2.3406657576560974e-01  -2.0393906161189079e-02  -3.6088757216930389e-02   1.5270596742630005e-01   4.7873766161501408e-03   4.7627434134483337e-02  -1.5421615540981293e-01   8.8555186986923218e-02  -1.6926948726177216e-01   6.1176925897598267e-02  -1.8487665057182312e-01   2.0641982555389404e-02   1.3205672800540924e-01   3.8479325175285339e-01   4.3381489813327789e-02  -3.1067332625389099e-01  -2.5013712048530579e-01   1.0614850372076035e-01  -1.3616497814655304e-01  -2.3001813888549805e-01   3.9961886405944824e-01   4.7684663534164429e-01   2.4246977642178535e-02  -5.7109560817480087e-02   3.1155720353126526e-01  -4.4690355658531189e-02   6.6625878214836121e-02  -1.7788875102996826e-01  -2.8508158400654793e-02   5.8233425021171570e-02  -1.5800932049751282e-01   2.7396582067012787e-02   1.6525838524103165e-02  -3.6653375718742609e-03  -2.0560549572110176e-02   3.9309859275817871e-01  -5.7057034224271774e-02  -9.2460140585899353e-03   6.2201907858252525e-03  -9.0958163142204285e-02  -1.4537492990493774e+00   3.3887483179569244e-02  -2.5014577433466911e-02   7.3483802378177643e-02  -2.0697103440761566e-01   1.4379612207412720e+00   2.4348536133766174e-01  -7.3676824569702148e-02  -3.5416163504123688e-02   1.2793561816215515e-01  -2.2807547450065613e-01  -1.5820819139480591e-01   9.2702731490135193e-02   2.3852133750915527e-01  -2.1389716863632202e-01  -1.5654425323009491e-01   8.5193790495395660e-02  -5.3358733654022217e-02  -2.9094573855400085e-01   8.3973222970962524e-01  -5.6767445057630539e-02  -4.2327851057052612e-02  -9.3954846262931824e-02  -3.3833697438240051e-01  -4.6013170480728149e-01   5.1962816715240479e-01  -1.9330315291881561e-02   2.1439079940319061e-01   3.5289931297302246e-01  -3.2579746842384338e-01  -2.3847803473472595e-01  -1.2165156193077564e-02  -5.6107416749000549e-02   1.7358589917421341e-02   7.9676769673824310e-02   2.4233303964138031e-02   4.1106037795543671e-02  -4.1619367897510529e-02  -2.7339287102222443e-02   4.2373705655336380e-02  -1.4475288987159729e-01   4.3518532067537308e-02   5.0867386162281036e-02  -2.9852129518985748e-02   6.4880363643169403e-02   3.1823065876960754e-01  -3.8505431264638901e-02  -7.2687089443206787e-02   1.1815995723009109e-01   4.0357932448387146e-01  -5.7780843973159790e-01  -2.0098125934600830e-01   5.7712823152542114e-02   1.1968066543340683e-01  -8.1363660097122192e-01  -8.3992928266525269e-02   5.1927924156188965e-01  -4.6680204570293427e-02  -1.3159282505512238e-01   2.2687959671020508e-01   4.0580546855926514e-01  -2.0953637361526489e-01   6.4684394747018814e-03   2.3422211408615112e-02  -6.2673106789588928e-02   3.4430898725986481e-02  -4.9159709364175797e-02  -8.6423186585307121e-03   6.0740508139133453e-02   2.9496796429157257e-02  -9.0963333845138550e-02   8.1936955451965332e-02   5.3439564071595669e-03   9.3386465311050415e-01  -1.4150425195693970e+00   6.3096731901168823e-01  -3.1093716621398926e-01   1.2915730476379395e-01   3.4045256674289703e-02   3.5232085734605789e-02  -1.2217242270708084e-01   7.9329848289489746e-02  -5.0489429384469986e-02   2.6039732620120049e-02  -3.8412827998399734e-02   3.4773163497447968e-02  -3.8650825619697571e-02   1.7116460949182510e-02  -1.3443898933473974e-04  -1.6069315373897552e-01   4.0101116895675659e-01   3.9593830704689026e-02   1.7068696022033691e-01  -7.6750352978706360e-02   2.0976243913173676e-01  -2.4915765225887299e-01  -3.1154608726501465e-01   9.8863810300827026e-02   2.5184288620948792e-01   2.3786050081253052e-01   7.1482139825820923e-01   2.1364355459809303e-02  -1.8567040562629700e-01   3.3007722347974777e-02   9.5572449266910553e-02  -3.8115000724792480e-01  -1.4238665997982025e-01   1.8339160084724426e-01  -9.4577996060252190e-03  -5.3418308496475220e-02   4.0252439677715302e-02   1.4932039380073547e-01  -4.7103736549615860e-02   3.6324206739664078e-02   3.6121662706136703e-02   1.0846938192844391e-01   6.4432069659233093e-02  -8.4356926381587982e-02  -1.0227506048977375e-02  -7.5555972754955292e-02  -1.8519113957881927e-01  -5.4917704313993454e-02   9.2644818127155304e-02  -1.2561477720737457e-01   1.5327958762645721e-01   8.5811311006546021e-01  -2.2301188111305237e-01   7.9719893634319305e-02   5.1096502691507339e-02   6.1250951141119003e-02   6.4972382970154285e-03   9.7137555480003357e-02  -2.4970436468720436e-02   2.5945998728275299e-02  -8.7709382176399231e-02  -1.9125644117593765e-02  -5.7399947196245193e-02   4.2160250246524811e-02  -9.9376924335956573e-03   3.7954583764076233e-02   1.1115173250436783e-01  -1.8554471433162689e-01   1.5419530682265759e-02   1.2701385421678424e-03  -1.6872487962245941e-01   4.9193657934665680e-02  -1.3195522129535675e-01   1.9205312430858612e-01  -1.3847115635871887e-01   4.0652182698249817e-01  -3.1541487574577332e-01  -3.7568449974060059e-01   1.3292506337165833e-01  -3.9454918354749680e-02   5.9436511248350143e-02  -3.1169596314430237e-01   7.1730124950408936e-01   1.5463140793144703e-02   8.4219619631767273e-02  -1.0399782657623291e-01   5.0072509795427322e-02   3.7157896906137466e-02  -9.4972245395183563e-02  -2.5811525061726570e-02   8.5293836891651154e-02  -9.9270381033420563e-02  -5.2161183208227158e-02   2.9560791328549385e-02  -1.8407716415822506e-03   2.2384818643331528e-02   9.8267309367656708e-02   4.0929663926362991e-02   1.4799273014068604e-01   1.3322748243808746e-01  -1.5918959677219391e-01  -4.1055673360824585e-01   1.8402597308158875e-01  -2.4948097765445709e-01  -8.4667420014739037e-03   2.1761126816272736e-02  -1.0587048530578613e-01   1.3677504658699036e-01   4.2901299893856049e-03   4.9773078411817551e-02  -5.9612046927213669e-02   3.3245842903852463e-02   5.0738668069243431e-03   1.0512929409742355e-02   1.5697560738772154e-03  -4.3670807033777237e-02   8.8375441730022430e-02  -3.0009239912033081e-02   4.8469565808773041e-03   1.8653843551874161e-02   1.1983653530478477e-02   2.5820614770054817e-02   1.6428649425506592e-02  -1.5216149622574449e-03   3.1332425773143768e-02  -6.4499691128730774e-02   5.4770636558532715e-01  -9.9851496517658234e-02  -5.4087373428046703e-04  -2.1857349202036858e-02   1.3746690750122070e-01  -8.5868710279464722e-01  -4.0990640409290791e-03   4.1408028453588486e-02   1.9061690196394920e-02   4.7088594874367118e-04   4.5232530683279037e-02   2.8023237828165293e-03   4.8145642504096031e-03  -3.6106340587139130e-02   6.2290068715810776e-02  -1.9387063384056091e-01   6.8310827016830444e-02  -6.1303842812776566e-02   6.9331228733062744e-02   1.1308640986680984e-01  -2.1912457048892975e-01   4.5581247657537460e-02   6.6633112728595734e-02   2.2481855005025864e-02  -2.7455112338066101e-01   8.1769353151321411e-01  -3.3381767570972443e-02  -9.9250294268131256e-02   1.2440540641546249e-01  -2.0217826962471008e-01   8.6728781461715698e-01   5.0218962132930756e-02   1.0331629961729050e-01   7.2771715931594372e-03   2.1640311926603317e-02  -4.9901846796274185e-02  -6.0572691261768341e-02   1.0165568441152573e-01   1.8530420958995819e-02  -7.3433457873761654e-03  -7.5711123645305634e-03   1.5984274446964264e-02  -3.5268045030534267e-03  -2.5235217064619064e-02   6.8887963891029358e-02  -5.7473476976156235e-02  -2.7845401316881180e-02   1.5085614286363125e-02   8.5757881402969360e-01  -6.5089577436447144e-01  -4.8126801848411560e-02  -1.4396413229405880e-02  -3.0326799023896456e-03  -9.5152735710144043e-02   9.5529459416866302e-02  -2.1275421604514122e-02  -2.0072672516107559e-02   9.0216146782040596e-03   4.0734853595495224e-02  -2.6648771017789841e-02  -9.1245546936988831e-03   8.8467132300138474e-03  -4.5523648150265217e-03   1.6016885638237000e-02   2.9319714754819870e-02  -1.6648866236209869e-01   3.0814405530691147e-02  -1.1406290531158447e-01  -9.2523045837879181e-02  -8.0621749162673950e-02   3.1737580895423889e-01  -1.5197526663541794e-02   9.1317318379878998e-02   2.6090282946825027e-02   1.4910705387592316e-01  -1.3175819814205170e-01  -4.9601001664996147e-03  -1.4309056103229523e-01   1.0630954988300800e-02  -1.4704388380050659e-01   2.0871806144714355e-01   4.5513998717069626e-02   1.9318094477057457e-02   1.6619125381112099e-02   1.5125858597457409e-02  -4.0320140123367310e-01  -2.1704891324043274e-01   7.2476461529731750e-02  -3.8906343281269073e-02   3.4137308597564697e-02  -7.3827087879180908e-01   5.1480591297149658e-01  -4.6821378171443939e-02   1.2809769809246063e-01   1.3368874788284302e-01   7.8239999711513519e-02  -4.0755954384803772e-01   4.5846823602914810e-02  -6.2953919172286987e-02  -6.2191437929868698e-02   3.2019126415252686e-01   5.9014692902565002e-02  -3.3945355564355850e-02  -7.0624403655529022e-02   1.2731134891510010e-01  -1.8004393577575684e-01   1.7705060541629791e-02   2.5242542847990990e-02   2.7685326058417559e-03  -4.5841466635465622e-03   1.0949391126632690e-01  -5.8463845402002335e-02   7.4857156723737717e-03  -1.7413334921002388e-02   1.8059935420751572e-02  -3.7784174084663391e-02   3.1353425234556198e-02  -2.4097781628370285e-02   1.1587754823267460e-02  -1.8219117075204849e-02   1.4508044719696045e-01  -1.1065978556871414e-02   2.6041952893137932e-02  -9.5150642096996307e-02   2.3468093574047089e-01  -1.1354138851165771e+00   1.4564445614814758e-01  -4.6281624585390091e-02   3.5816065967082977e-02  -6.1709813773632050e-02   2.5283306837081909e-01  -4.0518701076507568e-02   1.2439178302884102e-02  -2.3224212229251862e-02   3.4542754292488098e-02  -7.3730677366256714e-02   1.7519691959023476e-02  -1.1735441163182259e-02  -1.0236827284097672e-01  -1.4173161238431931e-02   4.2879607528448105e-02  -6.6358543932437897e-02   1.5246168710291386e-02   1.1816477030515671e-01  -1.7999248579144478e-02  -1.7118139564990997e-01   1.5264810621738434e-01  -6.6026966087520123e-03  -9.9422000348567963e-02  -1.2504126131534576e-01  -3.5699356347322464e-02  -7.2205282747745514e-02  -2.4047943949699402e-01   2.5261675938963890e-02   2.0697104930877686e-01  -1.6181756556034088e-01   5.0053387880325317e-02   3.2902032136917114e-01  -3.1601767987012863e-02  -1.3052126765251160e-01   2.9800315387547016e-03   5.8961534500122070e-01  -3.8222861289978027e-01   9.9962644279003143e-02  -1.1314702033996582e-01   5.2328445017337799e-03  -3.0251568183302879e-02  -9.5029184594750404e-03  -3.9278411865234375e-01   1.9677667319774628e-01   1.2234312295913696e-01  -4.9412447959184647e-02   8.7108626961708069e-02  -2.6430815458297729e-02   5.3360450267791748e-01  -3.8197496533393860e-01   2.1085907518863678e-01  -1.3701888918876648e-01   3.7229597568511963e-01  -5.2623003721237183e-01   2.1523848176002502e-02  -4.4196367263793945e-02   9.6858991310000420e-03  -2.3359119892120361e-02   3.7050902843475342e-02   5.7339154183864594e-02  -5.2429344505071640e-02   2.5254182517528534e-02  -7.1646831929683685e-02   1.3135004043579102e-01   1.0079719359055161e-03  -5.4591327905654907e-02   4.4794078916311264e-02   1.9759282469749451e-02  -1.8352769315242767e-01  -2.6844522356987000e-01   1.7783956229686737e-01  -5.9542514383792877e-02  -2.0183679461479187e-01   1.9793742895126343e-01   6.4492005109786987e-01  -1.0544002801179886e-01   2.7240436524152756e-02   2.2620867937803268e-02   2.2736001759767532e-02   2.4740222096443176e-01  -1.9096249341964722e-01   1.2923718430101871e-02   2.1064644679427147e-02  -1.5099477022886276e-02  -1.9575423002243042e-01   1.1946416459977627e-02   3.0244465451687574e-03   1.7224108800292015e-02   9.3951877206563950e-03  -1.1536433547735214e-01   1.0867775231599808e-01  -2.5068759918212891e-02  -7.5157084502279758e-03  -2.6488914154469967e-03   8.0385021865367889e-02  -1.7974928021430969e-01  -2.8253979980945587e-02  -1.9062766805291176e-02  -1.1150053888559341e-01   1.3949529826641083e-01   5.6094888597726822e-02   4.7398195601999760e-03  -3.3502910286188126e-02  -2.1121472120285034e-02   9.0169709920883179e-01   5.5229850113391876e-02  -4.6439900994300842e-02  -3.0680811032652855e-02   1.6786692664027214e-02   2.1607424318790436e-01   1.4772848226130009e-02  -1.8215129151940346e-02  -4.1033178567886353e-02  -6.9523386657238007e-02   9.8936811089515686e-02   6.6206693649291992e-02  -1.1115914210677147e-02   4.7773886471986771e-02   6.3835427165031433e-02  -4.6282213181257248e-02   3.2234653830528259e-01  -2.1208304166793823e-01   5.5696267634630203e-02   5.5082648992538452e-02   3.5311013460159302e-01   1.5855528414249420e-01  -6.8205636739730835e-01  -2.3663986939936876e-03   1.2801997363567352e-02  -1.8317677080631256e-01  -2.0685061812400818e-01   5.3197208791971207e-02   2.2746190428733826e-02  -3.5288888029754162e-03   1.3590793311595917e-01  -7.6310873031616211e-02   6.4724251627922058e-02   5.2184190601110458e-02  -3.0845845118165016e-02  -1.2719540297985077e-01   7.6883591711521149e-02  -1.9841380417346954e-02  -1.4840075373649597e-01   1.6565434634685516e-01   3.5983932018280029e-01  -1.2307618558406830e-01   3.0934188514947891e-02   3.4946244210004807e-02  -4.2467942833900452e-01  -4.9691566824913025e-01   3.6079782247543335e-01   7.1893051266670227e-02   2.3621909320354462e-01   6.0819536447525024e-01  -2.2340157628059387e-01  -4.3131932616233826e-01  -1.4866900444030762e-01  -1.1264222860336304e-01  -2.7263098955154419e-01   3.6961838603019714e-01   2.7782991528511047e-01  -3.8303356617689133e-02   7.2642669081687927e-02  -3.0256770551204681e-02   2.4147655814886093e-02  -4.6913057565689087e-02   2.8275929391384125e-02   7.2903804481029510e-02   2.2382218390703201e-02  -1.7158842086791992e-01   4.4415462762117386e-02  -7.1336202323436737e-02   9.4191916286945343e-03   4.2473118752241135e-02   1.0569950342178345e+00  -4.3028318881988525e-01   1.0481176525354385e-01  -5.0855688750743866e-02   1.8760395050048828e-01  -7.3255234956741333e-01   4.1307201981544495e-01  -8.0698035657405853e-02  -8.1229850649833679e-02   1.5667515993118286e-01   1.1290053278207779e-01  -4.1262522339820862e-02  -6.0074068605899811e-02   6.9680935703217983e-03   2.9551145434379578e-01   1.0575559735298157e-01  -3.5245245695114136e-01  -2.4109922815114260e-03  -5.0895150750875473e-02  -4.2943835258483887e-01  -6.0652035474777222e-01   3.3538398146629333e-01   5.2431873977184296e-02  -3.5343557596206665e-02   1.4130172133445740e-01   8.1212282180786133e-01  -1.9098757207393646e-01   1.0638447105884552e-01   7.2896085679531097e-02  -3.0666876584291458e-02  -3.8097077608108521e-01   3.2389912754297256e-02   1.0083372471854091e-03   4.1127353906631470e-03   5.5517315864562988e-02   1.4489206671714783e-01  -2.3855159059166908e-02   6.6235647536814213e-03  -4.3834615498781204e-02   3.1218039803206921e-03   5.5647831410169601e-02   7.4851043522357941e-02   2.0748175680637360e-01   2.0423620939254761e-01   1.3924027979373932e-01   1.5819735825061798e-01  -4.7475662827491760e-01  -5.4731935262680054e-02  -8.4321156144142151e-02   1.1621077358722687e-01  -8.4534421563148499e-02   4.8426511883735657e-01  -1.8534609675407410e-01  -4.3891582638025284e-02   1.3134014606475830e-01  -9.7294144332408905e-02  -2.7017133310437202e-02   8.2652300596237183e-02  -4.5858196914196014e-02   5.3374234586954117e-02   2.4375629425048828e-01  -9.2425728216767311e-03  -4.5489229261875153e-02  -6.8194255232810974e-02   7.8645616769790649e-02   8.7210154533386230e-01   1.1289683729410172e-01  -2.4371679872274399e-02   1.2188524007797241e-02  -7.1415076963603497e-03  -1.6018959879875183e-01   7.0653320290148258e-03  -1.0554069653153419e-02   9.0696811676025391e-03  -3.5729471594095230e-02   1.8965316936373711e-02  -5.0316646695137024e-02  -4.8443034291267395e-02  -2.5715664029121399e-02  -2.6498860097490251e-04  -3.2896019518375397e-02  -8.3480007946491241e-02   9.2767134308815002e-02   2.2479244507849216e-03   3.0228365212678909e-02  -4.3104281648993492e-03   2.6942731812596321e-02  -3.0278908088803291e-02   1.3368212617933750e-02  -5.7935662567615509e-02   4.5777413249015808e-01   3.2749112695455551e-02  -2.7641633525490761e-02   3.9178002625703812e-03  -8.9545875787734985e-02   1.4848088845610619e-02  -2.0396624505519867e-01  -1.2382735498249531e-02   1.6137182712554932e-01   1.6633182764053345e-02   6.9390185177326202e-02   1.9885784387588501e-01   1.5101772546768188e-01  -1.3966266810894012e-01   3.0186164379119873e-01   5.0622969865798950e-01  -1.1711768805980682e-01  -3.3151742070913315e-02   1.9984085112810135e-02  -8.2079149782657623e-02  -3.9301484823226929e-02  -1.3542043045163155e-02  -3.6222897469997406e-02  -5.8680243790149689e-02   1.3549093902111053e-01   6.7731291055679321e-02  -2.5267207622528076e-01  -1.0352866724133492e-02   7.5890585780143738e-02  -2.1055738627910614e-01   3.7296646833419800e-01  -3.4999951720237732e-01   3.0544701218605042e-01  -1.7764404416084290e-01   5.9924817085266113e-01  -5.5112880468368530e-01  -3.4034374356269836e-01   3.3778887987136841e-01  -1.5837825834751129e-01   3.3511137962341309e-01  -4.3794196844100952e-01   4.7913450002670288e-01  -1.1898326128721237e-01   1.0081919282674789e-01  -1.0680376738309860e-01  -1.6208544373512268e-01   1.3075599074363708e-01   4.7203928232192993e-02   6.3744612270966172e-04   1.8724424764513969e-02   5.5831214413046837e-03   7.8690471127629280e-03   1.8315404653549194e-02   6.2685590237379074e-03  -6.0842532664537430e-02   8.1026837229728699e-02   1.0986375622451305e-02  -1.1624471843242645e-01  -9.6547707915306091e-02   3.0628356337547302e-01  -6.1136633157730103e-01   1.3496470451354980e+00  -9.0131312608718872e-01   1.8872277811169624e-02  -1.0368611663579941e-01   8.8638015091419220e-02   3.7334397435188293e-02  -9.3803912401199341e-02  -1.8480183789506555e-03   4.1828993707895279e-02  -9.8990647529717535e-05  -1.0585406562313437e-03   1.4554148539900780e-02  -1.9083200022578239e-02  -1.8240858614444733e-01   2.0075707137584686e-01   8.6136072874069214e-02  -1.8332367762923241e-02   6.8790391087532043e-02  -7.9334959387779236e-02   1.9041432440280914e-01  -4.1956466436386108e-01   4.8324748873710632e-02  -8.8038824498653412e-02   4.1201680898666382e-02   8.7309014052152634e-03   3.4985683858394623e-02   9.0599335730075836e-02  -7.0101998746395111e-02  -2.1633183583617210e-02   1.2178158015012741e-01  -6.8789616227149963e-02  -5.3388342261314392e-02  -9.6354864537715912e-02   2.0857131481170654e-01  -1.1543403565883636e-01  -5.2280616015195847e-02   6.5929479897022247e-02  -1.8352355062961578e-01   1.4019732363522053e-02  -1.0664359480142593e-01  -4.3126393109560013e-02   3.1518023461103439e-02  -1.6181470453739166e-01  -1.5030810236930847e-01   3.0081066489219666e-01   1.5318368561565876e-02  -6.9123528897762299e-02   2.1100331097841263e-02   1.8221123516559601e-01   2.2908782958984375e-01  -1.4918784797191620e-01   9.7285002470016479e-02  -6.4208649098873138e-02  -1.9245393574237823e-02  -2.2472748160362244e-01   1.1254119873046875e-01  -1.3888360559940338e-01  -9.7807329148054123e-03   5.5658921599388123e-02   1.4120808243751526e-01  -5.2499741315841675e-02   5.7024564594030380e-02  -1.1071007698774338e-02  -3.8403693586587906e-02   8.5525140166282654e-02  -4.6286579221487045e-02   1.5636431053280830e-03  -6.0636650770902634e-02   1.4308683574199677e-01  -3.8992017507553101e-01   1.2966437637805939e-01  -8.3198741078376770e-02   1.2297907471656799e-01  -2.5666975975036621e-01   1.8487852811813354e+00  -5.0626415014266968e-01   1.5786664187908173e-01  -1.1086452752351761e-01   1.6357563436031342e-01  -6.5648883581161499e-01  -1.8821460008621216e-01  -5.1818605512380600e-02  -1.4033533632755280e-02  -3.5141535103321075e-02   6.9777835160493851e-03  -1.1995338648557663e-01  -2.2852723486721516e-03  -5.3071938455104828e-02  -5.0442490726709366e-02  -6.4174419641494751e-01  -2.3923327028751373e-01   3.9891425520181656e-02   4.4443611055612564e-02   6.5945610404014587e-02   1.0519599914550781e+00   5.2180230617523193e-02   3.1362693756818771e-02   1.1903411708772182e-02  -2.3228920996189117e-02  -4.8792299628257751e-01   8.5854455828666687e-02  -8.4075406193733215e-02   4.0486052632331848e-02  -3.4684061538428068e-03   3.0964094400405884e-01  -5.3444482386112213e-02   7.0952691137790680e-02  -2.8339790180325508e-02  -1.8560377880930901e-02  -1.1681710183620453e-01  -1.3281166553497314e-02   6.9172969087958336e-03   6.3575237989425659e-02  -2.7021102607250214e-02   6.6704958677291870e-02  -2.1689299494028091e-02  -2.5267750024795532e-03   5.6221676059067249e-03   7.3030982166528702e-03  -8.8206447660923004e-02   3.2497454434633255e-02   8.0557130277156830e-03   1.1512250639498234e-02   1.0319058597087860e-01  -7.5566726922988892e-01  -3.5074976086616516e-01   2.9662460088729858e-01  -9.6087910234928131e-02   1.5216175466775894e-02   1.9733107089996338e-01   7.9703047871589661e-02   4.9878410995006561e-02   4.2464375495910645e-02   4.4368188828229904e-02   2.1116137504577637e-02   4.3966136872768402e-03  -1.7427204875275493e-03   1.4056977629661560e-01   4.5845139771699905e-02  -2.6200476288795471e-01  -5.5539193563163280e-03   6.7664690315723419e-02   1.7781369388103485e-01  -4.8263943195343018e-01   6.8170356750488281e-01  -1.9598435610532761e-02  -4.8136726021766663e-02  -1.8729472160339355e-01   5.7807755470275879e-01  -3.3033043146133423e-01  -8.3531653508543968e-03   5.1019364036619663e-03   6.0475371778011322e-02  -2.6794118806719780e-02   1.1819273233413696e-01   1.1064155399799347e-01   6.1199679970741272e-02  -8.2231089472770691e-02   1.5989419817924500e-01  -3.3628083765506744e-02  -2.4562908336520195e-02  -7.2830624878406525e-02   1.2011379934847355e-02  -2.5772217661142349e-02   3.1874101608991623e-02  -1.9189149141311646e-02   5.1371660083532333e-03   6.7217893898487091e-02   3.4186664968729019e-02  -1.1087393015623093e-01   4.0710058063268661e-02  -1.1237590573728085e-02   1.0548831224441528e+00  -1.3354493379592896e+00   4.0825933218002319e-01  -1.9071522355079651e-01   7.1567274630069733e-02  -1.3320798985660076e-02   8.2790546119213104e-02  -1.2609712779521942e-01   5.5767845362424850e-02  -1.3902602717280388e-02   4.3298047035932541e-02  -4.2610276490449905e-02   3.2162755727767944e-02  -3.3576533198356628e-02   7.8816385939717293e-03  -1.2990698218345642e-01   1.1424780637025833e-01   1.0699894279241562e-02  -9.8358847200870514e-02   9.3734689056873322e-02   1.0943203419446945e-01  -7.0467449724674225e-02   2.8635799884796143e-01   6.2484182417392731e-02  -4.6294543892145157e-02  -2.7998703718185425e-01   4.0677309036254883e-01  -7.2403466701507568e-01  -3.0755773186683655e-01   3.1411769986152649e-01   1.0994034260511398e-01  -8.7584368884563446e-02   2.6378598809242249e-01   2.3018531501293182e-01  -1.1311905086040497e-01  -6.9770395755767822e-02   1.3035193085670471e-01   2.3365631699562073e-01  -8.1449210643768311e-02   2.6635836809873581e-02  -2.7637552469968796e-02   1.4566531777381897e-01   6.2180247157812119e-02  -1.1106225661933422e-02   9.4845831394195557e-02   5.4549373686313629e-02   7.8793242573738098e-02  -4.2094726115465164e-02   3.8454666733741760e-02  -1.1429774016141891e-01  -2.4919159710407257e-02  -1.5591830015182495e-01   4.9359562993049622e-01   2.4904994666576385e-01   1.2003999203443527e-01   4.7794237732887268e-02   1.1851060390472412e-01  -8.5795909166336060e-02   2.8668548911809921e-02  -6.4322829246520996e-02  -6.3752122223377228e-02   4.3937198817729950e-02   4.6288722753524780e-01  -5.5624265223741531e-02  -2.0665185526013374e-02  -3.9114724844694138e-02   4.3694879859685898e-02  -6.8796002306044102e-03   3.3470563590526581e-02  -9.9236033856868744e-03   8.7183704599738121e-03   2.3300625383853912e-02   9.5803327858448029e-02  -1.7224544659256935e-02   2.7461249381303787e-02  -1.4310631901025772e-02   1.0912713408470154e-01  -3.4481309354305267e-02   1.0139595717191696e-01   2.4910690262913704e-02  -9.4143018126487732e-02   1.1511562019586563e-01   2.3601254820823669e-01   5.8708339929580688e-02   4.4940102845430374e-02   3.1061851978302002e-01  -1.0626357793807983e+00   8.1683516502380371e-02  -9.1872476041316986e-02   9.3070417642593384e-03   5.4220151156187057e-02   8.7799318134784698e-02   8.2938976585865021e-02   1.2546928226947784e-01  -3.1084388494491577e-02   2.2481795400381088e-02  -1.4488206803798676e-01   1.4469254016876221e-01   2.3669721186161041e-01   8.6543992161750793e-02  -4.1772492229938507e-02  -1.5932330489158630e-01  -4.7844067215919495e-01   5.5731441825628281e-02   1.5550529956817627e-01   8.2704806700348854e-03   2.6234865188598633e-01   1.0013935156166553e-02   7.5548663735389709e-02   1.4534641802310944e-01  -3.1811915338039398e-02  -2.3469096049666405e-02   8.6377058178186417e-03  -1.3510834425687790e-02  -5.3373228758573532e-02   1.4983264729380608e-02   7.4341893196105957e-02  -2.0945894718170166e-01  -1.2961354106664658e-02  -2.4264365434646606e-02   1.0909266024827957e-01  -2.8976973891258240e-01   3.6485180258750916e-01  -4.7928709536790848e-02   5.3072497248649597e-02  -4.8995763063430786e-04   1.8230812251567841e-01   1.7771214246749878e+00  -3.8908697664737701e-02  -4.0356698445975780e-03  -1.4676052145659924e-02  -4.6828802675008774e-02  -3.1369885802268982e-01  -9.6593365073204041e-02   6.7756004631519318e-02   3.5503253340721130e-02  -6.8753398954868317e-03   5.8006629347801208e-02   1.2340791523456573e-01  -4.7758743166923523e-02   1.0001838952302933e-01  -1.3555262982845306e-01  -1.5018235892057419e-02  -1.7466474324464798e-02   1.6313474625349045e-02   6.7549222148954868e-03   2.5011524558067322e-01  -4.2578360438346863e-01   2.8414615988731384e-01  -8.1747092306613922e-02  -2.0319782197475433e-01   4.5828703045845032e-01  -3.1564164161682129e-01  -3.3859762549400330e-01   2.9105663299560547e-01  -2.7971753850579262e-02  -1.5300583839416504e-01   7.8280043601989746e-01  -5.3391134738922119e-01   1.6154721379280090e-02   2.7847027406096458e-02  -2.1808162331581116e-01   9.4866000115871429e-02   2.6635095477104187e-01  -1.4879472553730011e-01   5.1925289444625378e-03  -4.2732764035463333e-02   4.2599480599164963e-02  -4.1324350982904434e-02   4.1826959699392319e-02  -1.6602579504251480e-02   5.9312563389539719e-02  -1.3751037418842316e-01   4.3896064162254333e-02   1.5217082574963570e-02   9.9301062524318695e-02  -2.0714928209781647e-01   4.7195062041282654e-01  -1.5327792167663574e+00   1.2114161252975464e+00  -8.2539943978190422e-03   5.3366634994745255e-02  -1.5272907912731171e-01   1.1858509480953217e-01   4.0149312466382980e-02   5.9847398661077023e-03  -4.2259346693754196e-02   6.4081117510795593e-02  -6.1935387551784515e-02   1.2984235771000385e-02  -2.0848914980888367e-02   1.5670929104089737e-02   1.7974303662776947e-01  -8.2422144711017609e-02  -5.6574717164039612e-02   1.0833445936441422e-01  -1.6628393530845642e-01  -3.3245790004730225e-01   1.1457633227109909e-01   6.9070927798748016e-02  -2.0592741668224335e-01  -3.5788252949714661e-01   6.6278505325317383e-01   8.0281548202037811e-02  -2.3418378084897995e-02  -6.8769551813602448e-02   7.3426532745361328e-01   1.7734490334987640e-02  -5.3568160533905029e-01   3.3296111971139908e-02   1.2355594336986542e-01  -1.9036637246608734e-01  -3.5364246368408203e-01   1.9966815412044525e-01   2.9552279040217400e-02   3.6428734660148621e-02   3.3348795026540756e-02  -5.1701385527849197e-02   8.6001500487327576e-02   2.7882554568350315e-03   3.6647535860538483e-02  -7.8174769878387451e-02   1.3850845396518707e-01  -9.7561910748481750e-02   6.0212850570678711e-02  -8.9916087687015533e-02   6.4371809363365173e-02  -1.2371467351913452e+00   2.6714017987251282e-01   2.8668422251939774e-02   2.8830103576183319e-02   1.0445306450128555e-01   1.5860901772975922e-01   2.2079755365848541e-01   1.7508615553379059e-01   5.3659338504076004e-02  -3.5650063306093216e-02   9.0671665966510773e-02  -1.1714099906384945e-02   8.0238930881023407e-02  -7.3082633316516876e-02  -1.0752214491367340e-01   1.2473598122596741e-01   2.0142814517021179e-01  -1.2967576086521149e-01   8.8277615606784821e-02   3.1586027145385742e-01  -1.3120658695697784e-01  -3.1236732006072998e-01   1.5246346592903137e-01   1.4709684252738953e-01  -4.4521629810333252e-01   1.4844903349876404e-01   2.4003852903842926e-01  -6.3237816095352173e-02  -1.0558444261550903e-01   3.0229204893112183e-01  -8.8662795722484589e-02  -2.9250890016555786e-01   2.6867769658565521e-02   8.8499866425991058e-02  -3.2195067405700684e-01   1.0749384760856628e-01   1.2711404263973236e-01   6.4953677356243134e-02   5.0885245203971863e-02   4.2798265814781189e-02   8.3942748606204987e-02  -9.6312493085861206e-02  -3.3126171678304672e-02   1.8770983815193176e-01  -1.3138410449028015e-01   2.3394869267940521e-01   2.8423750400543213e-01  -4.1021086275577545e-02   3.5812065005302429e-02   4.2570272088050842e-01  -5.5667239427566528e-01   1.9879743456840515e-02  -7.9868659377098083e-02   2.5119490921497345e-02  -1.9242629408836365e-02   2.3685702681541443e-01  -3.8876444101333618e-02   3.8745626807212830e-02  -1.1447592638432980e-02   1.7019025981426239e-01   5.0675213336944580e-02   9.2370219528675079e-02  -6.7204967141151428e-02   2.1215310320258141e-02  -1.3732196763157845e-02   1.0127853602170944e-02  -7.2819322347640991e-02   5.7258538901805878e-02  -5.4494435898959637e-03   6.3373656012117863e-03  -7.6349042356014252e-02   1.2503810226917267e-01  -2.0484174787998199e-01  -2.0577171817421913e-02  -3.9360638707876205e-02  -6.2459252774715424e-02  -9.9410831928253174e-01   1.5298960208892822e+00   5.3579779341816902e-03  -1.3335814699530602e-02  -4.2065475136041641e-02   1.0703864693641663e-01  -1.3311688601970673e-01   8.6690448224544525e-03  -7.1103037334978580e-03  -1.0258272290229797e-02  -6.3306532800197601e-02   3.1270332634449005e-02  -8.7538391351699829e-02   7.1588009595870972e-02   4.2129674553871155e-01  -9.9762819707393646e-02  -7.0528313517570496e-02   2.3284868896007538e-01  -9.2083111405372620e-02  -2.7042990922927856e-01   6.3297313451766968e-01  -1.2396727502346039e-01  -1.1221209913492203e-01   1.6974572837352753e-01   7.7378231287002563e-01  -3.7094765901565552e-01   1.6408003866672516e-01   4.0902927517890930e-02   2.5623563677072525e-02   1.4666181802749634e-01  -4.1251610964536667e-02  -4.7406386584043503e-02  -4.9691952764987946e-02   8.0369180068373680e-03  -1.3655963353812695e-02   2.8229841962456703e-02  -7.4815889820456505e-03   1.5329200774431229e-02   2.5761014223098755e-01  -3.9178851991891861e-02  -2.0277310907840729e-01  -1.7396520823240280e-02   1.7464086413383484e-01  -1.4878150820732117e-01  -6.9146651029586792e-01   1.1897152662277222e-01   2.2709275782108307e-01  -4.2043406516313553e-02  -4.8986285924911499e-01  -8.6991570889949799e-02   5.9616178274154663e-01   1.9301548600196838e-02   1.7095532268285751e-02  -2.6404794305562973e-02   4.3800538778305054e-01   2.3732171952724457e-01  -2.1777790784835815e-01   1.1774912476539612e-02  -2.2769853472709656e-02   8.0282770097255707e-02  -1.4511243999004364e-01  -6.6794611513614655e-02  -3.7429254502058029e-02   1.2487127631902695e-01  -3.7569247186183929e-02  -9.8875224590301514e-02   5.8240529149770737e-02  -2.9460120946168900e-02  -7.5321756303310394e-02   2.1434082090854645e-01  -5.0397682189941406e-01   2.0737649500370026e-01   1.3250796496868134e-01  -1.6168731451034546e-01   6.2195557355880737e-01  -1.7792412638664246e-01  -3.9074540138244629e-01  -9.5415506511926651e-03  -1.2333133071660995e-01  -1.3798080384731293e-01   6.6618245840072632e-01  -2.5329092144966125e-01  -9.1726891696453094e-04  -2.1927556023001671e-02  -1.3108584284782410e-01   8.5369385778903961e-02   7.5683929026126862e-02   4.7638125717639923e-02  -8.8401108980178833e-02   2.4723273515701294e-01  -7.7470079064369202e-02   1.1419899761676788e-01  -2.4166852235794067e-01   3.5802900791168213e-01  -2.7776488661766052e-01   1.0682637989521027e-01  -1.0034036636352539e-01   5.4815914481878281e-02  -2.4093711376190186e-01   6.0893875360488892e-01  -3.0076512694358826e-01   2.0866918563842773e-01   5.0830945372581482e-02  -3.8709677755832672e-02  -1.5234202146530151e-01   2.8542762994766235e-01  -1.7942735552787781e-01   4.7059482894837856e-03   6.3470803201198578e-02   2.5403237342834473e-01  -2.9729530215263367e-01   7.6895713806152344e-02
