  -1.9446874503046274e-03  -9.7906984388828278e-02  -5.3866565227508545e-02  -1.6114944219589233e-01   5.6511354446411133e-01  -7.3170667886734009e-01  -1.6879262402653694e-02  -9.9662733078002930e-01   3.2025459408760071e-01  -2.0152541995048523e-01  -5.6157010793685913e-01  -2.5582242012023926e-01  -2.3828141391277313e-01   1.2658821046352386e-01   4.7507786750793457e-01  -1.3536791317164898e-02   9.5351442694664001e-02   2.7683049440383911e-01  -2.0731672644615173e-01   6.5183234214782715e-01   5.6352932006120682e-03   2.4833309650421143e-01  -1.7795963585376740e-01   4.7112151980400085e-01  -3.8557940721511841e-01  -2.7358198165893555e-01  -6.7246001958847046e-01   1.2884266674518585e-01  -4.9728307873010635e-02   1.3956964015960693e-02   1.1469149589538574e-01   6.9450271129608154e-01  -2.3640203475952148e-01   3.5721817612648010e-01  -4.3755334615707397e-01   8.5819399356842041e-01   3.9622960612177849e-03  -6.1323769390583038e-02  -3.4347558021545410e-01  -1.6247786581516266e-01  -9.9618598818778992e-02  -3.3872947096824646e-03  -4.6612253785133362e-01   6.4649432897567749e-01  -5.9385561943054199e-01  -4.2955100536346436e-01   1.7933489382266998e-01  -1.7781694233417511e-01  -6.3428479433059692e-01   3.5038720816373825e-02  -2.9775547981262207e-01   3.5558724403381348e-01  -4.3929392099380493e-01  -8.7920605437830091e-04  -2.7691191434860229e-01  -1.8186226487159729e-01  -3.3223196864128113e-01  -5.7438611984252930e-02   8.4437541663646698e-02  -8.6598411202430725e-02   1.6833423078060150e-01  -2.7956920862197876e-01   3.1176915764808655e-01  -1.1756641417741776e-01  -1.4208789169788361e-01   3.7692442536354065e-01   2.1947975456714630e-01   6.8550062179565430e-01   4.2568352073431015e-03  -2.2825907170772552e-01  -9.1302596032619476e-02   2.2285260260105133e-01   3.5770165920257568e-01   3.4520864486694336e-01  -3.2823870424181223e-03  -5.2354419603943825e-03   8.8715098798274994e-02   2.0274750888347626e-01   1.7907259985804558e-02  -8.4513932466506958e-02  -9.0038940310478210e-02   7.3490716516971588e-02   5.0946897268295288e-01  -1.0912599042057991e-02   2.2659067809581757e-01  -1.4944146573543549e-01   2.3311530053615570e-01   2.7243807911872864e-01  -2.4045680463314056e-01   4.6156957745552063e-01  -1.1484216153621674e-01   1.3819465041160583e-01  -8.5022121667861938e-02  -2.2087109088897705e-01  -2.4382673203945160e-01  -5.0754743814468384e-01  -5.2004918456077576e-02  -3.7679979205131531e-01  -1.1599707603454590e-01  -1.4769932627677917e-01   5.0942617654800415e-01   2.5585884228348732e-02   1.9713324308395386e-01   2.6994058489799500e-01  -5.9953618794679642e-02   4.6041625738143921e-01  -3.7163528800010681e-01  -1.2370050884783268e-02   4.2461594939231873e-01   8.3823181688785553e-02   6.0004841536283493e-02   7.9424634575843811e-02   3.0679970979690552e-01   2.4403800070285797e-01  -5.3155696392059326e-01  -4.8927721381187439e-01  -2.8444373607635498e-01   1.3511674106121063e-01  -2.7629527449607849e-01   2.1365885436534882e-01   3.5468700528144836e-01   3.2119664549827576e-01  -5.5895261466503143e-02  -1.2670388817787170e-01  -2.2982841730117798e-01  -5.9904509782791138e-01  -1.2960104644298553e-01  -3.2007205486297607e-01   3.0562931299209595e-01  -2.3961907625198364e-01  -1.1106831580400467e-01  -5.4751080274581909e-01  -1.6712495125830173e-03  -1.1761637404561043e-02   1.2329988181591034e-01   2.5299775600433350e-01   3.0716264247894287e-01   1.1888713389635086e-01   4.2033722996711731e-01  -4.1551329195499420e-02   1.5513302758336067e-02  -1.9680874049663544e-01  -2.5667121633887291e-02   4.8872061073780060e-02  -5.5267095565795898e-01   2.6559087634086609e-01   2.4933630228042603e-01  -1.2394792586565018e-01  -2.9392302036285400e-02  -3.2473910599946976e-02   3.1949180364608765e-01  -4.8597052693367004e-01   9.9042540788650513e-01  -1.0093539208173752e-01   2.6759779453277588e-01   1.1401512473821640e-01   1.3472463190555573e-01   4.2806276679039001e-01   6.5996569395065308e-01  -3.2545188069343567e-01   4.9315996468067169e-02  -7.3663830757141113e-01   2.2464038804173470e-02  -6.1706095933914185e-01  -2.0709691941738129e-01  -3.3835154026746750e-02   4.6299806237220764e-01   5.6098657846450806e-01  -6.2140531837940216e-02   8.3302162587642670e-02  -1.1991339921951294e-01   5.9259834233671427e-04  -4.3847467750310898e-02   1.3114057481288910e-01  -2.3019769787788391e-01  -1.5961397439241409e-02   1.1236637085676193e-01  -2.8002503514289856e-01   2.7606863528490067e-02  -5.1232337951660156e-01  -6.2405604869127274e-02   1.1111859977245331e-01   1.3031248748302460e-01   2.6209333539009094e-01  -2.4523214995861053e-01  -1.8837611377239227e-01  -6.3906464492902160e-04   1.4734509401023388e-02  -7.1288213133811951e-02  -1.0108827054500580e-01  -2.9641671106219292e-02   1.4501711726188660e-01   5.1018998026847839e-02  -6.6882282495498657e-02   1.1306441575288773e-01   2.7265977114439011e-02  -2.5499671697616577e-01   4.8086695373058319e-02   2.1444758772850037e-01  -7.9037196934223175e-02   4.0194969624280930e-02  -2.3841837048530579e-01   7.4418976902961731e-02   7.0424593985080719e-02   3.8784936070442200e-02   1.2246781587600708e-01   5.0519473850727081e-02   3.5015374422073364e-01  -1.5176671743392944e-01   4.5168790221214294e-01   3.1189575791358948e-02   3.7530962377786636e-02   6.9759511947631836e-01  -1.8230048939585686e-02  -1.4108480885624886e-02  -1.7644879221916199e-01  -5.9955853968858719e-02  -2.9446962475776672e-01  -2.6415026187896729e-01  -2.0356783643364906e-02   4.1050944477319717e-02  -4.7968499362468719e-02   2.2668098099529743e-03   3.9659231901168823e-01   4.4120255857706070e-02   3.7027651071548462e-01  -2.4023558944463730e-02  -8.2431107759475708e-02   1.0138230770826340e-01   9.9354398250579834e-01   1.4206853508949280e-01   5.6393831968307495e-01  -6.6839659120887518e-04  -6.8079364299774170e-01  -1.3335944712162018e-01  -4.0322959423065186e-01  -2.6472386717796326e-01   3.7071630358695984e-02  -1.1200527846813202e-01  -1.7000702023506165e-01  -6.6413648426532745e-02   3.2966670393943787e-01   1.1669771373271942e-01  -3.4443444013595581e-01  -5.7342672348022461e-01  -6.5414333343505859e-01  -2.6759961247444153e-01  -1.4271321892738342e-01   1.3887965679168701e-01   7.7396255731582642e-01   4.1246825456619263e-01  -1.6829426586627960e-01  -4.9864959716796875e-01  -4.0985968708992004e-01  -1.7136186361312866e-01   6.0992009937763214e-02  -3.6644309759140015e-01   8.3656169474124908e-02  -1.4279054105281830e-01   6.7726522684097290e-01  -6.4616364240646362e-01   1.2724711000919342e-01  -3.5419365763664246e-01   5.2896785736083984e-01  -2.6572909951210022e-01  -1.2630325555801392e-01  -1.3767956197261810e-01   1.9443301856517792e-01  -7.6539629697799683e-01   2.9874801635742188e-01  -1.0043685138225555e-01  -5.6983178853988647e-01  -3.3170247077941895e-01  -5.5275064706802368e-01  -2.2111155092716217e-01   1.3940590620040894e-01  -7.2912138700485229e-01  -5.3723371028900146e-01   5.6322062015533447e-01   5.7374846935272217e-01  -6.0769987106323242e-01   6.8405449390411377e-02  -2.9269558191299438e-01   9.3689388036727905e-01   1.1765705794095993e-01  -8.0448657274246216e-02  -1.6327273100614548e-02   2.8822848200798035e-01   5.1739001274108887e-01   1.3727825880050659e-01  -1.7569777369499207e-01   2.1052077412605286e-01  -1.9486062228679657e-01   1.7113557457923889e-01   5.7306355237960815e-01   1.5138372778892517e-01   4.7443458437919617e-01  -2.0044863224029541e-01   4.7008320689201355e-01  -3.9099204540252686e-01  -4.4810703396797180e-01  -1.9677114486694336e-01  -3.0405269935727119e-02   1.0501909255981445e-01  -2.1315896511077881e-01   2.6106795668601990e-01   8.1895202398300171e-01   5.2276718616485596e-01  -3.7768158316612244e-01   5.3562492132186890e-01  -8.7998789548873901e-01   1.7185902595520020e-01   3.1979139894247055e-02   1.7659920454025269e-01   3.1266191601753235e-01   5.8790987730026245e-01   2.3006983101367950e-01   1.2931792438030243e-01   5.5544979870319366e-02  -4.9117797613143921e-01  -8.9046888053417206e-02   2.7388066053390503e-01  -2.0889365673065186e-01  -2.5711113214492798e-01   5.3536820411682129e-01  -3.4777261316776276e-02  -2.7616944909095764e-01  -7.9598218202590942e-01  -4.2504563927650452e-01  -7.0544189214706421e-01  -6.5905034542083740e-02   5.2679610252380371e-01   4.8257145285606384e-01  -5.3378367424011230e-01  -2.6395423337817192e-02   3.3476358652114868e-01  -3.9282080531120300e-01  -4.8571586608886719e-02   4.8376661539077759e-01   5.3051853179931641e-01   6.8073159456253052e-01   4.6732106804847717e-01  -9.4472259283065796e-02   3.5617947578430176e-01   3.3550489693880081e-02   1.5902796760201454e-02   5.3916865587234497e-01  -4.9455854296684265e-01  -2.8779876232147217e-01  -5.4630684852600098e-01  -1.5751250088214874e-01  -9.6869736909866333e-02  -3.2440888881683350e-01   4.0419942140579224e-01  -8.9906662702560425e-02  -2.0593203604221344e-01  -2.8248918056488037e-01   5.8009613305330276e-02   6.2395143508911133e-01   9.6076801419258118e-02  -1.8803995847702026e-01  -4.8944222927093506e-01  -4.9055197834968567e-01  -2.7279472351074219e-01  -4.8225229978561401e-01   2.6384451985359192e-01   2.2039394080638885e-01   3.2102927565574646e-01  -5.3032342344522476e-02   1.5178765356540680e-01  -5.9231555461883545e-01   1.0052411258220673e-01  -6.2697148323059082e-01  -4.0631464123725891e-01  -1.0955662280321121e-01   1.4388899505138397e-01   4.3363922834396362e-01  -7.7582979202270508e-01  -1.2881304323673248e-01  -9.0735472738742828e-02  -1.7751222476363182e-02   8.0404436588287354e-01   6.0559868812561035e-02  -1.8405668437480927e-01   1.1783595196902752e-02   5.5587428808212280e-01   4.4352057576179504e-01   1.7502744495868683e-01   3.4958529472351074e-01  -2.3905064165592194e-01   4.4446629285812378e-01   4.9466032534837723e-02   5.1781499385833740e-01  -1.4619897305965424e-01   1.0699341446161270e-01   1.1121506989002228e-01   1.3936242461204529e-01   5.8775055408477783e-01  -1.7395033836364746e+00  -1.7242800677195191e-03  -3.8390749692916870e-01   7.8623503446578979e-02  -7.6668047904968262e-01   1.9173538312315941e-02  -3.3851042389869690e-01  -1.4205051958560944e-01  -3.4371230006217957e-01   1.1093266010284424e+00   1.6520284116268158e-01  -4.5604607462882996e-01   5.3342875093221664e-02  -2.3967511951923370e-01  -2.6262751221656799e-01   2.9758536815643311e-01   5.4944866895675659e-01   1.6290101408958435e-01   1.7992107570171356e-01  -5.8785164356231689e-01  -7.6022076606750488e-01   2.9971238970756531e-01   1.5320144593715668e-01   1.4734277129173279e-01   2.6923573017120361e-01  -1.2813337147235870e-01   1.5524657210335135e-03  -4.5478036999702454e-01  -1.3368849456310272e-01   1.4742960035800934e-01   1.7618173360824585e-01   3.3051115274429321e-01   2.1666114032268524e-01  -5.6346423923969269e-02   7.2286957502365112e-01  -3.4721344709396362e-01   1.1730376863852143e-03   4.8029169440269470e-02  -7.3264443874359131e-01   2.0365820825099945e-01   6.5123066306114197e-02  -1.0259363055229187e-01  -6.8168424069881439e-02   2.4692562222480774e-01   1.1374309659004211e-01  -7.1267791092395782e-02  -3.9703458547592163e-01  -1.7359137535095215e-01   7.8312948346138000e-02  -7.4097039178013802e-03  -3.0632013082504272e-01   4.8913279175758362e-01   2.2894006222486496e-02  -9.3599647283554077e-02   6.3380926847457886e-02   1.4185653626918793e-01  -3.3369195461273193e-01   9.2337280511856079e-02   1.3990969955921173e-01  -4.0321715176105499e-02  -2.7217248454689980e-02   5.2485160529613495e-02  -1.4968442916870117e-01   1.8642719835042953e-02   4.4607785344123840e-01   4.2614215612411499e-01   1.7663292586803436e-01  -3.3692643046379089e-01   5.7586356997489929e-02   1.3625931739807129e+00  -2.9169395565986633e-01  -4.6092355623841286e-03   2.2076481953263283e-02   1.8082581460475922e-01   6.3874557614326477e-02  -2.0650709047913551e-02   4.0749046951532364e-02   7.3567479848861694e-02   1.4846314489841461e-01   2.0738814771175385e-01  -2.0753733813762665e-02  -6.3265040516853333e-02  -3.2691317796707153e-01  -1.8416954204440117e-02   1.4998155832290649e-01   4.0637841820716858e-01   3.1734853982925415e-02   6.1031535267829895e-02   3.2692167162895203e-01  -1.4168439432978630e-02  -2.5001443922519684e-02   3.2400909066200256e-01  -9.9226973950862885e-02  -7.7643537521362305e-01   6.7755326628684998e-02  -6.9280199706554413e-02   2.5273898243904114e-01  -3.8477146625518799e-01  -2.8878870606422424e-01  -3.1173267960548401e-01  -2.6405987143516541e-01   1.7027616500854492e-02   7.1315787732601166e-02  -2.5043836236000061e-01   3.1685240566730499e-02   1.1857824027538300e-01  -1.1201694011688232e+00  -2.2688226401805878e-01  -5.6970584392547607e-01   8.5554170608520508e-01  -2.3665414750576019e-01   1.1408718675374985e-01   4.8074728250503540e-01  -1.7673829197883606e-01   9.0960981324315071e-03  -2.8662368655204773e-01  -2.6463100314140320e-01   4.4320613145828247e-02  -1.9780460000038147e-01  -3.5694724321365356e-01  -2.8623366355895996e-01   8.6748421192169189e-01  -7.1810746192932129e-01  -1.5807490050792694e-01  -5.0638812780380249e-01  -2.7886563539505005e-01   1.3830597698688507e-01  -5.6023442745208740e-01   7.9127825796604156e-02  -2.4463932961225510e-02  -1.7502890899777412e-02   7.1704864501953125e-02   4.8865774273872375e-01   2.8441146016120911e-01   5.5903829634189606e-02   1.4901673793792725e-01  -3.9743837714195251e-01   4.8045885562896729e-01   3.1759589910507202e-02   4.4344800710678101e-01   1.5475286543369293e-01  -8.7649218738079071e-02  -3.2645785808563232e-01   1.5332330763339996e-01  -2.5886711478233337e-01   1.9745250046253204e-01  -2.0329698920249939e-01   6.4127147197723389e-02   4.6359920501708984e-01  -2.0834097266197205e-01   1.0237699747085571e-01   6.6505543887615204e-02   8.6920641362667084e-02  -2.1098582074046135e-02  -2.5745263323187828e-02   2.1435676515102386e-01  -3.1457161903381348e-01  -1.8817628920078278e-01   4.7792246937751770e-01  -5.5221515893936157e-01   1.8264208734035492e-01   2.2793406248092651e-01   1.0853248089551926e-01   1.1912789195775986e-01   2.6843823492527008e-02   1.2754595279693604e+00   1.8828904628753662e-01   2.7932213619351387e-02   4.6855367720127106e-02   1.9236308336257935e-01  -6.2096488475799561e-01   6.9406591355800629e-02  -6.9694495201110840e-01   3.3722165226936340e-01  -5.6923854351043701e-01  -1.6634303331375122e-01  -4.4463649392127991e-02   7.6131224632263184e-02  -1.7748098075389862e-01   4.9447399377822876e-01   5.8289223909378052e-01   2.4296594783663750e-03   3.5108689218759537e-02   8.0869674682617188e-02   5.4754638671875000e-01  -8.4293842315673828e-01   2.5830125808715820e-01  -3.6853200197219849e-01  -3.2309320569038391e-01  -9.4636268913745880e-02  -9.2269337177276611e-01   1.4719100296497345e-01   2.1337598562240601e-01   4.1725780814886093e-02   1.3012969493865967e-01  -1.3526882231235504e-01   3.9452105760574341e-01  -9.1797679662704468e-02   7.9820257425308228e-01  -5.3855931758880615e-01   5.2361376583576202e-02  -2.4600208271294832e-03  -7.8378066420555115e-02   1.9339638948440552e-01  -2.3483846336603165e-02   3.0044683814048767e-01  -3.8681900501251221e-01  -2.8676253557205200e-01   1.8121021986007690e-01   1.4517720043659210e-01   1.0138045996427536e-01   4.6818438917398453e-02   3.3297216892242432e-01   1.1740826815366745e-01   8.3022594451904297e-01  -4.8377642035484314e-01  -3.8550209999084473e-01  -9.4441100955009460e-02  -1.4624096453189850e-01   4.5467317104339600e-01  -1.9960185885429382e-01   1.4466784894466400e-01   3.8284432888031006e-01   1.4536774158477783e-01  -8.5418798029422760e-02   1.6255863010883331e-01  -4.5612126588821411e-01   2.3150017857551575e-01  -5.9893232583999634e-01  -1.5644773840904236e-01  -1.4383536577224731e-01  -2.1511548757553101e-01  -1.6731424629688263e-01  -4.1107261180877686e-01   4.0116321295499802e-02  -1.9852448999881744e-01   5.6520634889602661e-01  -3.4665209054946899e-01   1.2236192822456360e-01   4.4028490781784058e-01   5.3885895758867264e-02   1.0364543646574020e-02   2.2949196398258209e-02  -1.9345931708812714e-01   6.5218746662139893e-02   3.3350154757499695e-01  -2.6543250679969788e-01   3.8264039158821106e-01  -1.5042555332183838e-01   2.7576631307601929e-01  -3.7839168310165405e-01   1.3175863027572632e-01   3.8454824686050415e-01   1.7676770687103271e-01   3.0777856707572937e-01  -1.5075697004795074e-01   1.0280112028121948e+00   2.5583214592188597e-03   4.1780003905296326e-01  -4.7388267517089844e-01   1.8649689853191376e-02   3.2040762901306152e-01   5.5250900983810425e-01   6.5307205915451050e-01   5.7586389780044556e-01   6.5681743621826172e-01   3.4549057483673096e-02  -7.1438513696193695e-02   2.2157378494739532e-01  -3.1805950403213501e-01  -2.7914795279502869e-01   2.4119316041469574e-01   5.5614864826202393e-01  -6.0126596689224243e-01   1.1290053278207779e-01  -4.1262522339820862e-02  -6.0074068605899811e-02   6.9680935703217983e-03   2.9551145434379578e-01   1.0575559735298157e-01  -3.5245245695114136e-01  -2.4109922815114260e-03  -5.0895150750875473e-02  -4.2943835258483887e-01  -6.0652035474777222e-01   3.3538398146629333e-01   5.2431873977184296e-02  -3.5343557596206665e-02   1.4130172133445740e-01   8.1212282180786133e-01  -1.9098757207393646e-01   1.0638447105884552e-01   7.2896085679531097e-02  -3.0666876584291458e-02  -3.8097077608108521e-01   3.2389912754297256e-02   1.0083372471854091e-03   4.1127353906631470e-03   5.5517315864562988e-02   1.4489206671714783e-01  -2.3855159059166908e-02   6.6235647536814213e-03  -4.3834615498781204e-02   3.1218039803206921e-03   5.5647831410169601e-02   7.4851043522357941e-02   2.0748175680637360e-01   2.0423620939254761e-01   1.3924027979373932e-01   1.5819735825061798e-01  -4.7475662827491760e-01  -5.4731935262680054e-02  -8.4321156144142151e-02   1.1621077358722687e-01  -8.4534421563148499e-02   4.8426511883735657e-01  -1.8534609675407410e-01  -4.3891582638025284e-02   1.3134014606475830e-01  -9.7294144332408905e-02  -2.7017133310437202e-02   8.2652300596237183e-02  -4.5858196914196014e-02   5.3374234586954117e-02   2.4375629425048828e-01  -9.2425728216767311e-03  -4.5489229261875153e-02  -6.8194255232810974e-02   7.8645616769790649e-02   8.7210154533386230e-01   1.1289683729410172e-01  -2.4371679872274399e-02   1.2188524007797241e-02  -7.1415076963603497e-03  -1.6018959879875183e-01   7.0653320290148258e-03  -1.0554069653153419e-02   9.0696811676025391e-03  -3.5729471594095230e-02   1.8965316936373711e-02  -5.0316646695137024e-02  -4.8443034291267395e-02  -2.5715664029121399e-02  -2.6498860097490251e-04  -3.2896019518375397e-02  -8.3480007946491241e-02   9.2767134308815002e-02   2.2479244507849216e-03   3.0228365212678909e-02  -4.3104281648993492e-03   2.6942731812596321e-02  -3.0278908088803291e-02   1.3368212617933750e-02  -5.7935662567615509e-02   4.5777413249015808e-01   3.2749112695455551e-02  -2.7641633525490761e-02   3.9178002625703812e-03  -8.9545875787734985e-02   1.4848088845610619e-02  -2.0396624505519867e-01  -1.2382735498249531e-02   1.6137182712554932e-01   1.6633182764053345e-02   6.9390185177326202e-02   1.9885784387588501e-01   1.5101772546768188e-01  -1.3966266810894012e-01   3.0186164379119873e-01   5.0622969865798950e-01  -1.1711768805980682e-01  -3.3151742070913315e-02   1.9984085112810135e-02  -8.2079149782657623e-02  -3.9301484823226929e-02  -1.3542043045163155e-02  -3.6222897469997406e-02  -5.8680243790149689e-02   1.3549093902111053e-01   6.7731291055679321e-02  -2.5267207622528076e-01  -1.0352866724133492e-02   7.5890585780143738e-02  -2.1055738627910614e-01   3.7296646833419800e-01  -3.4999951720237732e-01   3.0544701218605042e-01  -1.7764404416084290e-01   5.9924817085266113e-01  -5.5112880468368530e-01  -3.4034374356269836e-01   3.3778887987136841e-01  -1.5837825834751129e-01   3.3511137962341309e-01  -4.3794196844100952e-01   4.7913450002670288e-01  -1.1898326128721237e-01   1.0081919282674789e-01  -1.0680376738309860e-01  -1.6208544373512268e-01   1.3075599074363708e-01   4.7203928232192993e-02   6.3744612270966172e-04   1.8724424764513969e-02   5.5831214413046837e-03   7.8690471127629280e-03   1.8315404653549194e-02   6.2685590237379074e-03  -6.0842532664537430e-02   8.1026837229728699e-02   1.0986375622451305e-02  -1.1624471843242645e-01  -9.6547707915306091e-02   3.0628356337547302e-01  -6.1136633157730103e-01   1.3496470451354980e+00  -9.0131312608718872e-01   1.8872277811169624e-02  -1.0368611663579941e-01   8.8638015091419220e-02   3.7334397435188293e-02  -9.3803912401199341e-02  -1.8480183789506555e-03   4.1828993707895279e-02  -9.8990647529717535e-05  -1.0585406562313437e-03   1.4554148539900780e-02  -1.9083200022578239e-02  -1.8240858614444733e-01   2.0075707137584686e-01   8.6136072874069214e-02  -1.8332367762923241e-02   6.8790391087532043e-02  -7.9334959387779236e-02   1.9041432440280914e-01  -4.1956466436386108e-01   4.8324748873710632e-02  -8.8038824498653412e-02   4.1201680898666382e-02   8.7309014052152634e-03   3.4985683858394623e-02   9.0599335730075836e-02  -7.0101998746395111e-02  -2.1633183583617210e-02   1.2178158015012741e-01  -6.8789616227149963e-02  -5.3388342261314392e-02  -9.6354864537715912e-02   2.0857131481170654e-01  -1.1543403565883636e-01  -5.2280616015195847e-02   6.5929479897022247e-02  -1.8352355062961578e-01   1.4019732363522053e-02  -1.0664359480142593e-01  -4.3126393109560013e-02   3.1518023461103439e-02  -1.6181470453739166e-01  -1.5030810236930847e-01   3.0081066489219666e-01   1.5318368561565876e-02  -6.9123528897762299e-02   2.1100331097841263e-02   1.8221123516559601e-01   2.2908782958984375e-01  -1.4918784797191620e-01   9.7285002470016479e-02  -6.4208649098873138e-02  -1.9245393574237823e-02  -2.2472748160362244e-01   1.1254119873046875e-01  -1.3888360559940338e-01  -9.7807329148054123e-03   5.5658921599388123e-02   1.4120808243751526e-01  -5.2499741315841675e-02   5.7024564594030380e-02  -1.1071007698774338e-02  -3.8403693586587906e-02   8.5525140166282654e-02  -4.6286579221487045e-02   1.5636431053280830e-03  -6.0636650770902634e-02   1.4308683574199677e-01  -3.8992017507553101e-01   1.2966437637805939e-01  -8.3198741078376770e-02   1.2297907471656799e-01  -2.5666975975036621e-01   1.8487852811813354e+00  -5.0626415014266968e-01   1.5786664187908173e-01  -1.1086452752351761e-01   1.6357563436031342e-01  -6.5648883581161499e-01  -1.8821460008621216e-01  -5.1818605512380600e-02  -1.4033533632755280e-02  -3.5141535103321075e-02   6.9777835160493851e-03  -1.1995338648557663e-01  -2.2852723486721516e-03  -5.3071938455104828e-02  -5.0442490726709366e-02  -6.4174419641494751e-01  -2.3923327028751373e-01   3.9891425520181656e-02   4.4443611055612564e-02   6.5945610404014587e-02   1.0519599914550781e+00   5.2180230617523193e-02   3.1362693756818771e-02   1.1903411708772182e-02  -2.3228920996189117e-02  -4.8792299628257751e-01   8.5854455828666687e-02  -8.4075406193733215e-02   4.0486052632331848e-02  -3.4684061538428068e-03   3.0964094400405884e-01  -5.3444482386112213e-02   7.0952691137790680e-02  -2.8339790180325508e-02  -1.8560377880930901e-02  -1.1681710183620453e-01  -1.3281166553497314e-02   6.9172969087958336e-03   6.3575237989425659e-02  -2.7021102607250214e-02   6.6704958677291870e-02  -2.1689299494028091e-02  -2.5267750024795532e-03   5.6221676059067249e-03   7.3030982166528702e-03  -8.8206447660923004e-02   3.2497454434633255e-02   8.0557130277156830e-03   1.1512250639498234e-02   1.0319058597087860e-01  -7.5566726922988892e-01  -3.5074976086616516e-01   2.9662460088729858e-01  -9.6087910234928131e-02   1.5216175466775894e-02   1.9733107089996338e-01   7.9703047871589661e-02   4.9878410995006561e-02   4.2464375495910645e-02   4.4368188828229904e-02   2.1116137504577637e-02   4.3966136872768402e-03  -1.7427204875275493e-03   1.4056977629661560e-01   4.5845139771699905e-02  -2.6200476288795471e-01  -5.5539193563163280e-03   6.7664690315723419e-02   1.7781369388103485e-01  -4.8263943195343018e-01   6.8170356750488281e-01  -1.9598435610532761e-02  -4.8136726021766663e-02  -1.8729472160339355e-01   5.7807755470275879e-01  -3.3033043146133423e-01  -8.3531653508543968e-03   5.1019364036619663e-03   6.0475371778011322e-02  -2.6794118806719780e-02   1.1819273233413696e-01   1.1064155399799347e-01   6.1199679970741272e-02  -8.2231089472770691e-02   1.5989419817924500e-01  -3.3628083765506744e-02  -2.4562908336520195e-02  -7.2830624878406525e-02   1.2011379934847355e-02  -2.5772217661142349e-02   3.1874101608991623e-02  -1.9189149141311646e-02   5.1371660083532333e-03   6.7217893898487091e-02   3.4186664968729019e-02  -1.1087393015623093e-01   4.0710058063268661e-02  -1.1237590573728085e-02   1.0548831224441528e+00  -1.3354493379592896e+00   4.0825933218002319e-01  -1.9071522355079651e-01   7.1567274630069733e-02  -1.3320798985660076e-02   8.2790546119213104e-02  -1.2609712779521942e-01   5.5767845362424850e-02  -1.3902602717280388e-02   4.3298047035932541e-02  -4.2610276490449905e-02   3.2162755727767944e-02  -3.3576533198356628e-02   7.8816385939717293e-03  -1.2990698218345642e-01   1.1424780637025833e-01   1.0699894279241562e-02  -9.8358847200870514e-02   9.3734689056873322e-02   1.0943203419446945e-01  -7.0467449724674225e-02   2.8635799884796143e-01   6.2484182417392731e-02  -4.6294543892145157e-02  -2.7998703718185425e-01   4.0677309036254883e-01  -7.2403466701507568e-01  -3.0755773186683655e-01   3.1411769986152649e-01   1.0994034260511398e-01  -8.7584368884563446e-02   2.6378598809242249e-01   2.3018531501293182e-01  -1.1311905086040497e-01  -6.9770395755767822e-02   1.3035193085670471e-01   2.3365631699562073e-01  -8.1449210643768311e-02   2.6635836809873581e-02  -2.7637552469968796e-02   1.4566531777381897e-01   6.2180247157812119e-02  -1.1106225661933422e-02   9.4845831394195557e-02   5.4549373686313629e-02   7.8793242573738098e-02  -4.2094726115465164e-02   3.8454666733741760e-02  -1.1429774016141891e-01  -2.4919159710407257e-02  -1.5591830015182495e-01   4.9359562993049622e-01   2.4904994666576385e-01   1.2003999203443527e-01   4.7794237732887268e-02   1.1851060390472412e-01  -8.5795909166336060e-02   2.8668548911809921e-02  -6.4322829246520996e-02  -6.3752122223377228e-02   4.3937198817729950e-02   4.6288722753524780e-01  -5.5624265223741531e-02  -2.0665185526013374e-02  -3.9114724844694138e-02   4.3694879859685898e-02  -6.8796002306044102e-03   3.3470563590526581e-02  -9.9236033856868744e-03   8.7183704599738121e-03   2.3300625383853912e-02   9.5803327858448029e-02  -1.7224544659256935e-02   2.7461249381303787e-02  -1.4310631901025772e-02   1.0912713408470154e-01  -3.4481309354305267e-02   1.0139595717191696e-01   2.4910690262913704e-02  -9.4143018126487732e-02   1.1511562019586563e-01   2.3601254820823669e-01   5.8708339929580688e-02   4.4940102845430374e-02   3.1061851978302002e-01  -1.0626357793807983e+00   8.1683516502380371e-02  -9.1872476041316986e-02   9.3070417642593384e-03   5.4220151156187057e-02   8.7799318134784698e-02   8.2938976585865021e-02   1.2546928226947784e-01  -3.1084388494491577e-02   2.2481795400381088e-02  -1.4488206803798676e-01   1.4469254016876221e-01   2.3669721186161041e-01   8.6543992161750793e-02  -4.1772492229938507e-02  -1.5932330489158630e-01  -4.7844067215919495e-01   5.5731441825628281e-02   1.5550529956817627e-01   8.2704806700348854e-03   2.6234865188598633e-01   1.0013935156166553e-02   7.5548663735389709e-02   1.4534641802310944e-01  -3.1811915338039398e-02  -2.3469096049666405e-02   8.6377058178186417e-03  -1.3510834425687790e-02  -5.3373228758573532e-02   1.4983264729380608e-02   7.4341893196105957e-02  -2.0945894718170166e-01  -1.2961354106664658e-02  -2.4264365434646606e-02   1.0909266024827957e-01  -2.8976973891258240e-01   3.6485180258750916e-01  -4.7928709536790848e-02   5.3072497248649597e-02  -4.8995763063430786e-04   1.8230812251567841e-01   1.7771214246749878e+00  -3.8908697664737701e-02  -4.0356698445975780e-03  -1.4676052145659924e-02  -4.6828802675008774e-02  -3.1369885802268982e-01  -9.6593365073204041e-02   6.7756004631519318e-02   3.5503253340721130e-02  -6.8753398954868317e-03   5.8006629347801208e-02   1.2340791523456573e-01  -4.7758743166923523e-02   1.0001838952302933e-01  -1.3555262982845306e-01  -1.5018235892057419e-02  -1.7466474324464798e-02   1.6313474625349045e-02   6.7549222148954868e-03   2.5011524558067322e-01  -4.2578360438346863e-01   2.8414615988731384e-01  -8.1747092306613922e-02  -2.0319782197475433e-01   4.5828703045845032e-01  -3.1564164161682129e-01  -3.3859762549400330e-01   2.9105663299560547e-01  -2.7971753850579262e-02  -1.5300583839416504e-01   7.8280043601989746e-01  -5.3391134738922119e-01   1.6154721379280090e-02   2.7847027406096458e-02  -2.1808162331581116e-01   9.4866000115871429e-02   2.6635095477104187e-01  -1.4879472553730011e-01   5.1925289444625378e-03  -4.2732764035463333e-02   4.2599480599164963e-02  -4.1324350982904434e-02   4.1826959699392319e-02  -1.6602579504251480e-02   5.9312563389539719e-02  -1.3751037418842316e-01   4.3896064162254333e-02   1.5217082574963570e-02   9.9301062524318695e-02  -2.0714928209781647e-01   4.7195062041282654e-01  -1.5327792167663574e+00   1.2114161252975464e+00  -8.2539943978190422e-03   5.3366634994745255e-02  -1.5272907912731171e-01   1.1858509480953217e-01   4.0149312466382980e-02   5.9847398661077023e-03  -4.2259346693754196e-02   6.4081117510795593e-02  -6.1935387551784515e-02   1.2984235771000385e-02  -2.0848914980888367e-02   1.5670929104089737e-02   1.7974303662776947e-01  -8.2422144711017609e-02  -5.6574717164039612e-02   1.0833445936441422e-01  -1.6628393530845642e-01  -3.3245790004730225e-01   1.1457633227109909e-01   6.9070927798748016e-02  -2.0592741668224335e-01  -3.5788252949714661e-01   6.6278505325317383e-01   8.0281548202037811e-02  -2.3418378084897995e-02  -6.8769551813602448e-02   7.3426532745361328e-01   1.7734490334987640e-02  -5.3568160533905029e-01   3.3296111971139908e-02   1.2355594336986542e-01  -1.9036637246608734e-01  -3.5364246368408203e-01   1.9966815412044525e-01   2.9552279040217400e-02   3.6428734660148621e-02   3.3348795026540756e-02  -5.1701385527849197e-02   8.6001500487327576e-02   2.7882554568350315e-03   3.6647535860538483e-02  -7.8174769878387451e-02   1.3850845396518707e-01  -9.7561910748481750e-02   6.0212850570678711e-02  -8.9916087687015533e-02   6.4371809363365173e-02  -1.2371467351913452e+00   2.6714017987251282e-01   2.8668422251939774e-02   2.8830103576183319e-02   1.0445306450128555e-01   1.5860901772975922e-01   2.2079755365848541e-01   1.7508615553379059e-01   5.3659338504076004e-02  -3.5650063306093216e-02   9.0671665966510773e-02  -1.1714099906384945e-02   8.0238930881023407e-02  -7.3082633316516876e-02  -1.0752214491367340e-01   1.2473598122596741e-01   2.0142814517021179e-01  -1.2967576086521149e-01   8.8277615606784821e-02   3.1586027145385742e-01  -1.3120658695697784e-01  -3.1236732006072998e-01   1.5246346592903137e-01   1.4709684252738953e-01  -4.4521629810333252e-01   1.4844903349876404e-01   2.4003852903842926e-01  -6.3237816095352173e-02  -1.0558444261550903e-01   3.0229204893112183e-01  -8.8662795722484589e-02  -2.9250890016555786e-01   2.6867769658565521e-02   8.8499866425991058e-02  -3.2195067405700684e-01   1.0749384760856628e-01   1.2711404263973236e-01   6.4953677356243134e-02   5.0885245203971863e-02   4.2798265814781189e-02   8.3942748606204987e-02  -9.6312493085861206e-02  -3.3126171678304672e-02   1.8770983815193176e-01  -1.3138410449028015e-01   2.3394869267940521e-01   2.8423750400543213e-01  -4.1021086275577545e-02   3.5812065005302429e-02   4.2570272088050842e-01  -5.5667239427566528e-01   1.9879743456840515e-02  -7.9868659377098083e-02   2.5119490921497345e-02  -1.9242629408836365e-02   2.3685702681541443e-01  -3.8876444101333618e-02   3.8745626807212830e-02  -1.1447592638432980e-02   1.7019025981426239e-01   5.0675213336944580e-02   9.2370219528675079e-02  -6.7204967141151428e-02   2.1215310320258141e-02  -1.3732196763157845e-02   1.0127853602170944e-02  -7.2819322347640991e-02   5.7258538901805878e-02  -5.4494435898959637e-03   6.3373656012117863e-03  -7.6349042356014252e-02   1.2503810226917267e-01  -2.0484174787998199e-01  -2.0577171817421913e-02  -3.9360638707876205e-02  -6.2459252774715424e-02  -9.9410831928253174e-01   1.5298960208892822e+00   5.3579779341816902e-03  -1.3335814699530602e-02  -4.2065475136041641e-02   1.0703864693641663e-01  -1.3311688601970673e-01   8.6690448224544525e-03  -7.1103037334978580e-03  -1.0258272290229797e-02  -6.3306532800197601e-02   3.1270332634449005e-02  -8.7538391351699829e-02   7.1588009595870972e-02   4.2129674553871155e-01  -9.9762819707393646e-02  -7.0528313517570496e-02   2.3284868896007538e-01  -9.2083111405372620e-02  -2.7042990922927856e-01   6.3297313451766968e-01  -1.2396727502346039e-01  -1.1221209913492203e-01   1.6974572837352753e-01   7.7378231287002563e-01  -3.7094765901565552e-01   1.6408003866672516e-01   4.0902927517890930e-02   2.5623563677072525e-02   1.4666181802749634e-01  -4.1251610964536667e-02  -4.7406386584043503e-02  -4.9691952764987946e-02   8.0369180068373680e-03  -1.3655963353812695e-02   2.8229841962456703e-02  -7.4815889820456505e-03   1.5329200774431229e-02   2.5761014223098755e-01  -3.9178851991891861e-02  -2.0277310907840729e-01  -1.7396520823240280e-02   1.7464086413383484e-01  -1.4878150820732117e-01  -6.9146651029586792e-01   1.1897152662277222e-01   2.2709275782108307e-01  -4.2043406516313553e-02  -4.8986285924911499e-01  -8.6991570889949799e-02   5.9616178274154663e-01   1.9301548600196838e-02   1.7095532268285751e-02  -2.6404794305562973e-02   4.3800538778305054e-01   2.3732171952724457e-01  -2.1777790784835815e-01   1.1774912476539612e-02  -2.2769853472709656e-02   8.0282770097255707e-02  -1.4511243999004364e-01  -6.6794611513614655e-02  -3.7429254502058029e-02   1.2487127631902695e-01  -3.7569247186183929e-02  -9.8875224590301514e-02   5.8240529149770737e-02  -2.9460120946168900e-02  -7.5321756303310394e-02   2.1434082090854645e-01  -5.0397682189941406e-01   2.0737649500370026e-01   1.3250796496868134e-01  -1.6168731451034546e-01   6.2195557355880737e-01  -1.7792412638664246e-01  -3.9074540138244629e-01  -9.5415506511926651e-03  -1.2333133071660995e-01  -1.3798080384731293e-01   6.6618245840072632e-01  -2.5329092144966125e-01  -9.1726891696453094e-04  -2.1927556023001671e-02  -1.3108584284782410e-01   8.5369385778903961e-02   7.5683929026126862e-02   4.7638125717639923e-02  -8.8401108980178833e-02   2.4723273515701294e-01  -7.7470079064369202e-02   1.1419899761676788e-01  -2.4166852235794067e-01   3.5802900791168213e-01  -2.7776488661766052e-01   1.0682637989521027e-01  -1.0034036636352539e-01   5.4815914481878281e-02  -2.4093711376190186e-01   6.0893875360488892e-01  -3.0076512694358826e-01   2.0866918563842773e-01   5.0830945372581482e-02  -3.8709677755832672e-02  -1.5234202146530151e-01   2.8542762994766235e-01  -1.7942735552787781e-01   4.7059482894837856e-03   6.3470803201198578e-02   2.5403237342834473e-01  -2.9729530215263367e-01   7.6895713806152344e-02
